// Neural Network File Format by Kyle Julian, Stanford 2016
3,70,4,256,
70,256,256,4,
0,
-10000000.0,-10000000.0,-10000000.0,-10000000.0,-10000000.0,-10000000.0,-10000000.0,-10000000.0,-10000000.0,-10000000.0,-10000000.0,-10000000.0,-10000000.0,-10000000.0,-10000000.0,-10000000.0,-10000000.0,-10000000.0,-10000000.0,-10000000.0,-10000000.0,-10000000.0,-10000000.0,-10000000.0,-10000000.0,-10000000.0,-10000000.0,-10000000.0,-10000000.0,-10000000.0,-10000000.0,-10000000.0,-10000000.0,-10000000.0,-10000000.0,-10000000.0,-10000000.0,-10000000.0,-10000000.0,-10000000.0,-10000000.0,-10000000.0,-10000000.0,-10000000.0,-10000000.0,-10000000.0,-10000000.0,-10000000.0,-10000000.0,-10000000.0,-10000000.0,-10000000.0,-10000000.0,-10000000.0,-10000000.0,-10000000.0,-10000000.0,-10000000.0,-10000000.0,-10000000.0,-10000000.0,-10000000.0,-10000000.0,-10000000.0,-10000000.0,-10000000.0,-10000000.0,-10000000.0,-10000000.0,-10000000.0,
10000000.0,10000000.0,10000000.0,10000000.0,10000000.0,10000000.0,10000000.0,10000000.0,10000000.0,10000000.0,10000000.0,10000000.0,10000000.0,10000000.0,10000000.0,10000000.0,10000000.0,10000000.0,10000000.0,10000000.0,10000000.0,10000000.0,10000000.0,10000000.0,10000000.0,10000000.0,10000000.0,10000000.0,10000000.0,10000000.0,10000000.0,10000000.0,10000000.0,10000000.0,10000000.0,10000000.0,10000000.0,10000000.0,10000000.0,10000000.0,10000000.0,10000000.0,10000000.0,10000000.0,10000000.0,10000000.0,10000000.0,10000000.0,10000000.0,10000000.0,10000000.0,10000000.0,10000000.0,10000000.0,10000000.0,10000000.0,10000000.0,10000000.0,10000000.0,10000000.0,10000000.0,10000000.0,10000000.0,10000000.0,10000000.0,10000000.0,10000000.0,10000000.0,10000000.0,10000000.0,
0.0,0.0,0.0,0.0,0.0,0.0,0.0,0.0,0.0,0.0,0.0,0.0,0.0,0.0,0.0,0.0,0.0,0.0,0.0,0.0,0.0,0.0,0.0,0.0,0.0,0.0,0.0,0.0,0.0,0.0,0.0,0.0,0.0,0.0,0.0,0.0,0.0,0.0,0.0,0.0,0.0,0.0,0.0,0.0,0.0,0.0,0.0,0.0,0.0,0.0,0.0,0.0,0.0,0.0,0.0,0.0,0.0,0.0,0.0,0.0,0.0,0.0,0.0,0.0,0.0,0.0,0.0,0.0,0.0,0.0,0.0,
0.0,0.0,0.0,0.0,0.0,0.0,0.0,0.0,0.0,0.0,0.0,0.0,0.0,0.0,0.0,0.0,0.0,0.0,0.0,0.0,0.0,0.0,0.0,0.0,0.0,0.0,0.0,0.0,0.0,0.0,0.0,0.0,0.0,0.0,0.0,0.0,0.0,0.0,0.0,0.0,0.0,0.0,0.0,0.0,0.0,0.0,0.0,0.0,0.0,0.0,0.0,0.0,0.0,0.0,0.0,0.0,0.0,0.0,0.0,0.0,0.0,0.0,0.0,0.0,0.0,0.0,0.0,0.0,0.0,0.0,1.0,
6.85800e-02,4.61701e-01,-4.24740e-02,4.11325e-01,-1.07089e-01,-4.56660e-02,-1.57065e-01,2.83213e-01,9.93002e-02,-1.71260e-01,0.00000e+00,0.00000e+00,0.00000e+00,0.00000e+00,0.00000e+00,0.00000e+00,0.00000e+00,0.00000e+00,0.00000e+00,0.00000e+00,0.00000e+00,0.00000e+00,0.00000e+00,0.00000e+00,0.00000e+00,0.00000e+00,0.00000e+00,0.00000e+00,0.00000e+00,0.00000e+00,0.00000e+00,0.00000e+00,0.00000e+00,0.00000e+00,0.00000e+00,0.00000e+00,0.00000e+00,0.00000e+00,0.00000e+00,0.00000e+00,-3.72763e-01,-4.48066e-01,-4.89628e-02,-5.21223e-01,-5.73201e-03,9.12650e-02,-1.09437e-02,-1.80705e-01,6.01977e-02,7.19300e-02,3.04183e-01,-1.36343e-02,9.14368e-02,1.09898e-01,1.12821e-01,-4.55990e-02,1.68009e-01,-1.02508e-01,-1.59498e-01,9.93301e-02,0.00000e+00,0.00000e+00,0.00000e+00,0.00000e+00,0.00000e+00,0.00000e+00,0.00000e+00,0.00000e+00,0.00000e+00,0.00000e+00,
-3.32669e-01,2.72819e-02,-1.88533e-02,2.44242e-01,-1.97277e-01,-1.14649e-01,2.44606e-02,-6.31989e-02,2.98023e-02,-1.34178e-01,0.00000e+00,0.00000e+00,0.00000e+00,0.00000e+00,0.00000e+00,0.00000e+00,0.00000e+00,0.00000e+00,0.00000e+00,0.00000e+00,0.00000e+00,0.00000e+00,0.00000e+00,0.00000e+00,0.00000e+00,0.00000e+00,0.00000e+00,0.00000e+00,0.00000e+00,0.00000e+00,0.00000e+00,0.00000e+00,0.00000e+00,0.00000e+00,0.00000e+00,0.00000e+00,0.00000e+00,0.00000e+00,0.00000e+00,0.00000e+00,1.04574e-01,4.47972e-02,-1.95337e-01,-3.17941e-01,1.05590e-01,-3.37137e-02,-2.65445e-02,-7.13418e-02,-1.02254e-01,1.39448e-01,2.28095e-01,-7.20791e-02,2.14190e-01,7.36989e-02,9.16873e-02,1.48363e-01,2.08389e-03,1.34541e-01,7.24515e-02,-5.26989e-03,0.00000e+00,0.00000e+00,0.00000e+00,0.00000e+00,0.00000e+00,0.00000e+00,0.00000e+00,0.00000e+00,0.00000e+00,0.00000e+00,
-7.52390e-02,5.66105e-04,1.37030e-01,2.76407e-01,2.85995e-01,-1.37072e-01,3.47948e-01,2.41114e-01,4.10593e-02,-1.37167e-01,0.00000e+00,0.00000e+00,0.00000e+00,0.00000e+00,0.00000e+00,0.00000e+00,0.00000e+00,0.00000e+00,0.00000e+00,0.00000e+00,0.00000e+00,0.00000e+00,0.00000e+00,0.00000e+00,0.00000e+00,0.00000e+00,0.00000e+00,0.00000e+00,0.00000e+00,0.00000e+00,0.00000e+00,0.00000e+00,0.00000e+00,0.00000e+00,0.00000e+00,0.00000e+00,0.00000e+00,0.00000e+00,0.00000e+00,0.00000e+00,4.58044e-01,2.04348e-01,-5.02717e-02,-5.81773e-01,-4.11603e-01,-7.01498e-02,-3.88042e-01,-1.22314e-01,-1.21433e-01,3.53897e-01,-3.82805e-01,-2.04914e-01,-8.67588e-02,3.05366e-01,1.25608e-01,2.07222e-01,4.00935e-02,-1.18800e-01,8.03736e-02,-2.16731e-01,0.00000e+00,0.00000e+00,0.00000e+00,0.00000e+00,0.00000e+00,0.00000e+00,0.00000e+00,0.00000e+00,0.00000e+00,0.00000e+00,
-2.51224e-01,-5.95610e-02,2.27862e-01,-7.02861e-02,2.30605e-01,6.20065e-02,1.54592e-01,-9.35719e-02,-7.27325e-02,-1.21265e-02,0.00000e+00,0.00000e+00,0.00000e+00,0.00000e+00,0.00000e+00,0.00000e+00,0.00000e+00,0.00000e+00,0.00000e+00,0.00000e+00,0.00000e+00,0.00000e+00,0.00000e+00,0.00000e+00,0.00000e+00,0.00000e+00,0.00000e+00,0.00000e+00,0.00000e+00,0.00000e+00,0.00000e+00,0.00000e+00,0.00000e+00,0.00000e+00,0.00000e+00,0.00000e+00,0.00000e+00,0.00000e+00,0.00000e+00,0.00000e+00,5.83974e-02,2.82502e-01,-4.35026e-01,2.38539e-01,-2.66854e-02,1.20707e-01,1.08998e-01,4.88590e-02,3.49292e-02,-1.29404e-01,1.92826e-01,-2.22941e-01,2.07164e-01,-1.68253e-01,-2.03920e-01,-1.82714e-01,-2.63590e-01,4.47129e-02,3.78032e-02,1.41530e-01,0.00000e+00,0.00000e+00,0.00000e+00,0.00000e+00,0.00000e+00,0.00000e+00,0.00000e+00,0.00000e+00,0.00000e+00,0.00000e+00,
-3.02964e-01,-1.43899e-01,9.84098e-02,-8.46276e-02,-2.30564e-02,2.82220e-01,1.76639e-01,-2.37601e-01,-9.14457e-02,2.73301e-01,0.00000e+00,0.00000e+00,0.00000e+00,0.00000e+00,0.00000e+00,0.00000e+00,0.00000e+00,0.00000e+00,0.00000e+00,0.00000e+00,0.00000e+00,0.00000e+00,0.00000e+00,0.00000e+00,0.00000e+00,0.00000e+00,0.00000e+00,0.00000e+00,0.00000e+00,0.00000e+00,0.00000e+00,0.00000e+00,0.00000e+00,0.00000e+00,0.00000e+00,0.00000e+00,0.00000e+00,0.00000e+00,0.00000e+00,0.00000e+00,2.02943e-01,5.15152e-01,-2.10262e-01,-1.95497e-01,1.72860e-01,-1.54307e-01,-3.41250e-01,2.35484e-01,7.30657e-02,3.99780e-02,1.00021e-01,-3.71253e-01,1.11853e-01,2.80124e-01,-1.49803e-01,-1.27913e-01,1.64612e-01,2.11678e-03,1.83801e-02,-3.13279e-01,0.00000e+00,0.00000e+00,0.00000e+00,0.00000e+00,0.00000e+00,0.00000e+00,0.00000e+00,0.00000e+00,0.00000e+00,0.00000e+00,
-2.66933e-01,1.75407e-01,9.56539e-02,-2.43003e-01,-5.13871e-02,-5.65020e-02,-1.54030e-01,-4.85097e-02,-7.42335e-02,1.25330e-02,0.00000e+00,0.00000e+00,0.00000e+00,0.00000e+00,0.00000e+00,0.00000e+00,0.00000e+00,0.00000e+00,0.00000e+00,0.00000e+00,0.00000e+00,0.00000e+00,0.00000e+00,0.00000e+00,0.00000e+00,0.00000e+00,0.00000e+00,0.00000e+00,0.00000e+00,0.00000e+00,0.00000e+00,0.00000e+00,0.00000e+00,0.00000e+00,0.00000e+00,0.00000e+00,0.00000e+00,0.00000e+00,0.00000e+00,0.00000e+00,-5.85610e-02,-1.42017e-02,-1.99711e-01,4.74046e-01,2.03072e-01,1.26073e-01,1.10733e-01,1.94955e-01,1.58444e-01,1.42309e-01,3.25494e-01,-1.61206e-01,1.04057e-01,-2.31044e-01,-1.51685e-01,-6.95710e-02,4.32977e-02,-1.46445e-01,-8.42109e-02,-1.54842e-01,0.00000e+00,0.00000e+00,0.00000e+00,0.00000e+00,0.00000e+00,0.00000e+00,0.00000e+00,0.00000e+00,0.00000e+00,0.00000e+00,
-2.23602e-01,-7.91537e-02,5.52106e-02,-1.78540e-01,-2.16621e-01,-5.01408e-02,3.42097e-03,-1.12603e-01,7.74021e-02,5.98566e-02,0.00000e+00,0.00000e+00,0.00000e+00,0.00000e+00,0.00000e+00,0.00000e+00,0.00000e+00,0.00000e+00,0.00000e+00,0.00000e+00,0.00000e+00,0.00000e+00,0.00000e+00,0.00000e+00,0.00000e+00,0.00000e+00,0.00000e+00,0.00000e+00,0.00000e+00,0.00000e+00,0.00000e+00,0.00000e+00,0.00000e+00,0.00000e+00,0.00000e+00,0.00000e+00,0.00000e+00,0.00000e+00,0.00000e+00,0.00000e+00,5.90704e-02,4.63032e-03,7.49433e-02,-6.54295e-02,1.82148e-01,7.82909e-02,1.69957e-01,3.42878e-01,-7.49816e-02,5.82164e-02,1.64532e-01,7.45233e-02,-1.30154e-01,2.43970e-01,3.44731e-02,-2.81501e-02,-1.73378e-01,-2.30275e-01,-2.42046e-03,-1.18073e-01,0.00000e+00,0.00000e+00,0.00000e+00,0.00000e+00,0.00000e+00,0.00000e+00,0.00000e+00,0.00000e+00,0.00000e+00,0.00000e+00,
-6.82620e-02,-6.73114e-01,2.88270e-01,-4.63980e-02,-1.63446e-01,5.63016e-02,3.01393e-01,1.39438e-01,1.98369e-01,-3.01175e-02,0.00000e+00,0.00000e+00,0.00000e+00,0.00000e+00,0.00000e+00,0.00000e+00,0.00000e+00,0.00000e+00,0.00000e+00,0.00000e+00,0.00000e+00,0.00000e+00,0.00000e+00,0.00000e+00,0.00000e+00,0.00000e+00,0.00000e+00,0.00000e+00,0.00000e+00,0.00000e+00,0.00000e+00,0.00000e+00,0.00000e+00,0.00000e+00,0.00000e+00,0.00000e+00,0.00000e+00,0.00000e+00,0.00000e+00,0.00000e+00,-1.72585e-01,5.55259e-01,-1.38177e-02,-1.73472e-02,-2.63783e-01,5.92445e-02,-5.12159e-01,-1.94965e-01,-1.48283e-01,4.41165e-02,2.40847e-01,1.17856e-01,-2.74452e-01,6.37452e-02,4.27229e-01,-1.15546e-01,2.10765e-01,5.55268e-02,-5.00855e-02,-1.39990e-02,0.00000e+00,0.00000e+00,0.00000e+00,0.00000e+00,0.00000e+00,0.00000e+00,0.00000e+00,0.00000e+00,0.00000e+00,0.00000e+00,
1.30714e-01,3.64686e-01,1.13300e-01,-1.46157e-01,-6.84864e-02,-1.95434e-01,-1.30582e-01,4.92032e-01,1.93192e-01,-3.41840e-01,0.00000e+00,0.00000e+00,0.00000e+00,0.00000e+00,0.00000e+00,0.00000e+00,0.00000e+00,0.00000e+00,0.00000e+00,0.00000e+00,0.00000e+00,0.00000e+00,0.00000e+00,0.00000e+00,0.00000e+00,0.00000e+00,0.00000e+00,0.00000e+00,0.00000e+00,0.00000e+00,0.00000e+00,0.00000e+00,0.00000e+00,0.00000e+00,0.00000e+00,0.00000e+00,0.00000e+00,0.00000e+00,0.00000e+00,0.00000e+00,9.74529e-02,-4.08929e-01,-3.10511e-01,1.33985e-01,4.70184e-01,1.81929e-01,2.42291e-01,-7.16152e-01,-4.37781e-01,2.32876e-01,-2.28167e-01,4.42433e-02,1.97210e-01,1.21713e-02,-4.01697e-01,1.35054e-02,-1.11709e-01,2.24120e-01,2.44589e-01,1.08964e-01,0.00000e+00,0.00000e+00,0.00000e+00,0.00000e+00,0.00000e+00,0.00000e+00,0.00000e+00,0.00000e+00,0.00000e+00,0.00000e+00,
-2.64704e-02,4.58714e-01,-9.69855e-02,-7.17006e-02,1.60960e-01,1.50176e-01,8.72951e-02,-3.26610e-02,-1.19410e-01,5.79022e-02,0.00000e+00,0.00000e+00,0.00000e+00,0.00000e+00,0.00000e+00,0.00000e+00,0.00000e+00,0.00000e+00,0.00000e+00,0.00000e+00,0.00000e+00,0.00000e+00,0.00000e+00,0.00000e+00,0.00000e+00,0.00000e+00,0.00000e+00,0.00000e+00,0.00000e+00,0.00000e+00,0.00000e+00,0.00000e+00,0.00000e+00,0.00000e+00,0.00000e+00,0.00000e+00,0.00000e+00,0.00000e+00,0.00000e+00,0.00000e+00,-4.98486e-02,-7.83034e-02,1.95914e-02,-7.50515e-02,-6.19102e-03,-2.29679e-01,-5.94247e-02,7.74865e-02,1.28824e-01,-1.57828e-01,7.63191e-02,-3.80411e-01,7.73941e-02,1.46752e-01,-1.54769e-01,7.95031e-02,-2.78703e-02,-4.48255e-02,-9.41465e-03,9.99260e-02,0.00000e+00,0.00000e+00,0.00000e+00,0.00000e+00,0.00000e+00,0.00000e+00,0.00000e+00,0.00000e+00,0.00000e+00,0.00000e+00,
-4.74216e-01,-1.79545e-01,2.53586e-01,4.65577e-02,-6.84810e-02,-1.62912e-01,-8.15649e-02,-1.76710e-01,-4.62043e-02,1.10337e-01,0.00000e+00,0.00000e+00,0.00000e+00,0.00000e+00,0.00000e+00,0.00000e+00,0.00000e+00,0.00000e+00,0.00000e+00,0.00000e+00,0.00000e+00,0.00000e+00,0.00000e+00,0.00000e+00,0.00000e+00,0.00000e+00,0.00000e+00,0.00000e+00,0.00000e+00,0.00000e+00,0.00000e+00,0.00000e+00,0.00000e+00,0.00000e+00,0.00000e+00,0.00000e+00,0.00000e+00,0.00000e+00,0.00000e+00,0.00000e+00,1.30814e-01,1.45255e-01,8.28483e-02,6.15508e-03,2.84468e-02,-5.60754e-02,-3.31666e-02,1.95240e-01,-5.06175e-02,2.62770e-02,3.43402e-01,3.42901e-02,-3.36435e-01,-5.27127e-02,4.00342e-02,2.18988e-01,1.14731e-01,-1.85299e-02,9.68218e-02,-1.36614e-01,0.00000e+00,0.00000e+00,0.00000e+00,0.00000e+00,0.00000e+00,0.00000e+00,0.00000e+00,0.00000e+00,0.00000e+00,0.00000e+00,
-2.95216e-01,4.49629e-01,6.85611e-02,1.81183e-02,-1.78414e-01,2.47099e-01,9.76602e-02,2.04820e-01,-2.05028e-01,-1.16755e-01,0.00000e+00,0.00000e+00,0.00000e+00,0.00000e+00,0.00000e+00,0.00000e+00,0.00000e+00,0.00000e+00,0.00000e+00,0.00000e+00,0.00000e+00,0.00000e+00,0.00000e+00,0.00000e+00,0.00000e+00,0.00000e+00,0.00000e+00,0.00000e+00,0.00000e+00,0.00000e+00,0.00000e+00,0.00000e+00,0.00000e+00,0.00000e+00,0.00000e+00,0.00000e+00,0.00000e+00,0.00000e+00,0.00000e+00,0.00000e+00,3.91271e-01,-5.01193e-01,-2.21118e-01,-1.57089e-01,6.31404e-02,-3.62219e-01,1.06514e-02,2.70723e-02,5.04364e-01,2.95085e-01,-9.60547e-02,5.15637e-02,1.52557e-01,1.38971e-01,1.15273e-01,1.15120e-01,-1.08312e-01,-2.31892e-01,-2.99336e-01,-1.78329e-01,0.00000e+00,0.00000e+00,0.00000e+00,0.00000e+00,0.00000e+00,0.00000e+00,0.00000e+00,0.00000e+00,0.00000e+00,0.00000e+00,
-4.95913e-02,1.00665e-01,2.44410e-03,-3.15882e-01,-1.53207e-01,-2.27871e-02,2.21862e-02,9.64474e-02,-1.69673e-01,4.43288e-01,0.00000e+00,0.00000e+00,0.00000e+00,0.00000e+00,0.00000e+00,0.00000e+00,0.00000e+00,0.00000e+00,0.00000e+00,0.00000e+00,0.00000e+00,0.00000e+00,0.00000e+00,0.00000e+00,0.00000e+00,0.00000e+00,0.00000e+00,0.00000e+00,0.00000e+00,0.00000e+00,0.00000e+00,0.00000e+00,0.00000e+00,0.00000e+00,0.00000e+00,0.00000e+00,0.00000e+00,0.00000e+00,0.00000e+00,0.00000e+00,-2.39706e-02,9.56028e-02,8.89959e-02,6.07277e-01,1.46684e-01,2.05585e-01,-2.25244e-01,8.33011e-02,4.76287e-02,-5.85795e-01,7.35618e-02,-1.96268e-01,-9.14400e-02,-2.91396e-01,6.52288e-03,-1.82798e-01,2.03058e-01,-1.79749e-01,1.22044e-01,1.42507e-01,0.00000e+00,0.00000e+00,0.00000e+00,0.00000e+00,0.00000e+00,0.00000e+00,0.00000e+00,0.00000e+00,0.00000e+00,0.00000e+00,
1.47929e-01,-3.06836e-02,1.70788e-01,-7.32745e-03,7.29485e-02,4.49968e-01,3.89767e-03,6.27274e-02,-3.14153e-02,-3.00958e-02,0.00000e+00,0.00000e+00,0.00000e+00,0.00000e+00,0.00000e+00,0.00000e+00,0.00000e+00,0.00000e+00,0.00000e+00,0.00000e+00,0.00000e+00,0.00000e+00,0.00000e+00,0.00000e+00,0.00000e+00,0.00000e+00,0.00000e+00,0.00000e+00,0.00000e+00,0.00000e+00,0.00000e+00,0.00000e+00,0.00000e+00,0.00000e+00,0.00000e+00,0.00000e+00,0.00000e+00,0.00000e+00,0.00000e+00,0.00000e+00,-2.13698e-01,2.57764e-01,-3.20486e-01,-2.93976e-01,-1.96919e-01,-4.61752e-01,2.63114e-01,-1.36882e-02,-1.23827e-01,2.51641e-01,6.57694e-02,-2.27080e-01,1.49698e-01,3.01303e-01,1.23970e-01,1.17843e-02,-2.67012e-01,-4.90393e-02,1.55242e-01,-2.21545e-01,0.00000e+00,0.00000e+00,0.00000e+00,0.00000e+00,0.00000e+00,0.00000e+00,0.00000e+00,0.00000e+00,0.00000e+00,0.00000e+00,
-2.47448e-01,-1.27937e-01,1.79166e-01,-2.26728e-01,-1.21861e-01,1.00589e-01,-2.11098e-01,2.35322e-01,2.29434e-01,1.07772e-01,0.00000e+00,0.00000e+00,0.00000e+00,0.00000e+00,0.00000e+00,0.00000e+00,0.00000e+00,0.00000e+00,0.00000e+00,0.00000e+00,0.00000e+00,0.00000e+00,0.00000e+00,0.00000e+00,0.00000e+00,0.00000e+00,0.00000e+00,0.00000e+00,0.00000e+00,0.00000e+00,0.00000e+00,0.00000e+00,0.00000e+00,0.00000e+00,0.00000e+00,0.00000e+00,0.00000e+00,0.00000e+00,0.00000e+00,0.00000e+00,2.05385e-01,1.90365e-01,-1.40076e-02,4.56195e-01,8.88151e-03,-4.83451e-02,3.92169e-01,-1.74724e-01,-1.05805e-01,-8.37098e-03,4.20632e-02,-6.24276e-02,-1.65159e-01,-2.29466e-01,1.12979e-01,-5.22440e-02,-1.81070e-01,-6.05985e-02,-1.23629e-01,-9.94012e-02,0.00000e+00,0.00000e+00,0.00000e+00,0.00000e+00,0.00000e+00,0.00000e+00,0.00000e+00,0.00000e+00,0.00000e+00,0.00000e+00,
-1.88031e-01,-1.20117e-02,1.12633e-01,-2.91195e-01,-2.18589e-01,2.41313e-01,1.74932e-02,1.19386e-01,-9.51127e-02,2.06104e-01,0.00000e+00,0.00000e+00,0.00000e+00,0.00000e+00,0.00000e+00,0.00000e+00,0.00000e+00,0.00000e+00,0.00000e+00,0.00000e+00,0.00000e+00,0.00000e+00,0.00000e+00,0.00000e+00,0.00000e+00,0.00000e+00,0.00000e+00,0.00000e+00,0.00000e+00,0.00000e+00,0.00000e+00,0.00000e+00,0.00000e+00,0.00000e+00,0.00000e+00,0.00000e+00,0.00000e+00,0.00000e+00,0.00000e+00,0.00000e+00,-9.47657e-02,1.20153e-02,6.25296e-02,2.35328e-01,2.87187e-02,-2.17222e-01,-4.35587e-02,-2.77365e-01,1.58298e-01,-2.25032e-01,2.82797e-01,-3.64560e-06,-1.75163e-01,5.58671e-02,1.89870e-01,-2.40912e-02,2.60655e-02,1.57979e-01,-6.31857e-02,1.89281e-02,0.00000e+00,0.00000e+00,0.00000e+00,0.00000e+00,0.00000e+00,0.00000e+00,0.00000e+00,0.00000e+00,0.00000e+00,0.00000e+00,
-4.41668e-01,-1.65102e-01,2.11913e-01,8.43152e-02,-2.36266e-01,-8.88316e-02,-5.51103e-02,-2.18041e-01,-1.10394e-01,-2.91197e-02,0.00000e+00,0.00000e+00,0.00000e+00,0.00000e+00,0.00000e+00,0.00000e+00,0.00000e+00,0.00000e+00,0.00000e+00,0.00000e+00,0.00000e+00,0.00000e+00,0.00000e+00,0.00000e+00,0.00000e+00,0.00000e+00,0.00000e+00,0.00000e+00,0.00000e+00,0.00000e+00,0.00000e+00,0.00000e+00,0.00000e+00,0.00000e+00,0.00000e+00,0.00000e+00,0.00000e+00,0.00000e+00,0.00000e+00,0.00000e+00,2.99648e-01,-5.68417e-02,8.49927e-02,2.16253e-02,-3.20794e-02,1.57661e-01,-1.17370e-02,1.08816e-01,2.13460e-01,1.51218e-01,1.42020e-01,2.21944e-01,-2.96906e-01,-1.05941e-01,2.68346e-01,-6.88296e-02,6.68472e-02,1.09225e-01,-1.03067e-01,-1.22099e-01,0.00000e+00,0.00000e+00,0.00000e+00,0.00000e+00,0.00000e+00,0.00000e+00,0.00000e+00,0.00000e+00,0.00000e+00,0.00000e+00,
-2.58299e-01,1.54583e-01,1.96446e-02,-2.37456e-01,-3.11144e-01,-8.64260e-02,1.19049e-01,-1.58350e-01,-2.13931e-01,6.92307e-03,0.00000e+00,0.00000e+00,0.00000e+00,0.00000e+00,0.00000e+00,0.00000e+00,0.00000e+00,0.00000e+00,0.00000e+00,0.00000e+00,0.00000e+00,0.00000e+00,0.00000e+00,0.00000e+00,0.00000e+00,0.00000e+00,0.00000e+00,0.00000e+00,0.00000e+00,0.00000e+00,0.00000e+00,0.00000e+00,0.00000e+00,0.00000e+00,0.00000e+00,0.00000e+00,0.00000e+00,0.00000e+00,0.00000e+00,0.00000e+00,1.48544e-01,-4.10897e-01,-1.32722e-01,3.44753e-02,3.37602e-01,1.37490e-01,-2.39102e-01,3.09358e-01,4.79075e-01,-1.43624e-01,1.09755e-01,2.56315e-01,1.13078e-01,2.02981e-01,-2.64579e-02,-5.10645e-02,1.20053e-01,-1.51007e-01,-2.65143e-01,1.36701e-01,0.00000e+00,0.00000e+00,0.00000e+00,0.00000e+00,0.00000e+00,0.00000e+00,0.00000e+00,0.00000e+00,0.00000e+00,0.00000e+00,
-3.55187e-01,-4.02567e-02,-2.29587e-01,-3.54897e-02,-6.70879e-02,3.25358e-01,7.41581e-02,-2.88441e-01,-1.36960e-01,1.93557e-01,0.00000e+00,0.00000e+00,0.00000e+00,0.00000e+00,0.00000e+00,0.00000e+00,0.00000e+00,0.00000e+00,0.00000e+00,0.00000e+00,0.00000e+00,0.00000e+00,0.00000e+00,0.00000e+00,0.00000e+00,0.00000e+00,0.00000e+00,0.00000e+00,0.00000e+00,0.00000e+00,0.00000e+00,0.00000e+00,0.00000e+00,0.00000e+00,0.00000e+00,0.00000e+00,0.00000e+00,0.00000e+00,0.00000e+00,0.00000e+00,-3.63615e-02,-5.84883e-03,4.84136e-01,-1.37050e-01,2.14444e-01,-3.00574e-01,-5.63176e-02,2.22074e-01,-8.65246e-02,6.31064e-02,3.91549e-01,4.61056e-02,-2.54549e-01,1.72540e-01,-1.47356e-01,-2.47839e-02,-1.78404e-02,6.63664e-02,2.23484e-01,-2.56664e-01,0.00000e+00,0.00000e+00,0.00000e+00,0.00000e+00,0.00000e+00,0.00000e+00,0.00000e+00,0.00000e+00,0.00000e+00,0.00000e+00,
2.09114e-01,-8.09668e-03,8.96698e-02,1.24006e-01,-1.80341e-01,2.11060e-01,-1.50816e-01,4.87808e-02,1.50006e-01,1.85761e-02,0.00000e+00,0.00000e+00,0.00000e+00,0.00000e+00,0.00000e+00,0.00000e+00,0.00000e+00,0.00000e+00,0.00000e+00,0.00000e+00,0.00000e+00,0.00000e+00,0.00000e+00,0.00000e+00,0.00000e+00,0.00000e+00,0.00000e+00,0.00000e+00,0.00000e+00,0.00000e+00,0.00000e+00,0.00000e+00,0.00000e+00,0.00000e+00,0.00000e+00,0.00000e+00,0.00000e+00,0.00000e+00,0.00000e+00,0.00000e+00,-2.99753e-01,1.08220e-01,-3.55727e-02,-1.57143e-01,1.09569e-01,-9.20980e-02,2.41923e-01,-1.46247e-01,-3.05142e-01,2.41411e-02,9.06392e-02,-1.00123e-01,-5.40972e-02,3.31370e-02,7.07716e-02,-1.18962e-01,-9.11074e-02,9.74663e-02,1.55136e-01,-4.27172e-02,0.00000e+00,0.00000e+00,0.00000e+00,0.00000e+00,0.00000e+00,0.00000e+00,0.00000e+00,0.00000e+00,0.00000e+00,0.00000e+00,
-2.04488e-01,3.76386e-01,-1.69615e-02,-3.78932e-02,-1.33942e-01,-1.47916e-01,-8.18022e-02,-2.92330e-02,-1.77406e-02,6.60019e-02,0.00000e+00,0.00000e+00,0.00000e+00,0.00000e+00,0.00000e+00,0.00000e+00,0.00000e+00,0.00000e+00,0.00000e+00,0.00000e+00,0.00000e+00,0.00000e+00,0.00000e+00,0.00000e+00,0.00000e+00,0.00000e+00,0.00000e+00,0.00000e+00,0.00000e+00,0.00000e+00,0.00000e+00,0.00000e+00,0.00000e+00,0.00000e+00,0.00000e+00,0.00000e+00,0.00000e+00,0.00000e+00,0.00000e+00,0.00000e+00,1.94607e-01,-1.45959e-01,-1.19916e-01,3.00327e-02,-5.84966e-02,1.00113e-01,6.16050e-02,-5.98163e-02,1.78920e-01,9.20930e-02,9.88112e-03,-2.30427e-01,1.36877e-01,7.86048e-03,1.92438e-01,4.78025e-02,2.01971e-02,8.90494e-02,-1.61180e-01,-1.58095e-01,0.00000e+00,0.00000e+00,0.00000e+00,0.00000e+00,0.00000e+00,0.00000e+00,0.00000e+00,0.00000e+00,0.00000e+00,0.00000e+00,
-2.81475e-01,1.59113e-01,-4.53214e-01,5.47530e-02,1.50597e-01,1.19967e-01,3.06253e-02,-1.93268e-01,-1.22593e-03,5.35370e-02,0.00000e+00,0.00000e+00,0.00000e+00,0.00000e+00,0.00000e+00,0.00000e+00,0.00000e+00,0.00000e+00,0.00000e+00,0.00000e+00,0.00000e+00,0.00000e+00,0.00000e+00,0.00000e+00,0.00000e+00,0.00000e+00,0.00000e+00,0.00000e+00,0.00000e+00,0.00000e+00,0.00000e+00,0.00000e+00,0.00000e+00,0.00000e+00,0.00000e+00,0.00000e+00,0.00000e+00,0.00000e+00,0.00000e+00,0.00000e+00,1.16947e-01,3.08397e-02,7.12057e-01,-1.36572e-01,2.70350e-02,-2.28561e-01,1.49858e-01,2.01835e-01,-6.86678e-02,-4.64032e-02,1.64528e-01,-1.89953e-01,-2.58843e-01,8.18192e-02,-1.77632e-01,1.08593e-01,-1.80484e-01,-8.56712e-03,6.98937e-02,-7.13380e-03,0.00000e+00,0.00000e+00,0.00000e+00,0.00000e+00,0.00000e+00,0.00000e+00,0.00000e+00,0.00000e+00,0.00000e+00,0.00000e+00,
-2.53489e-01,4.36800e-01,1.49849e-01,2.19303e-01,1.24542e-01,-2.75223e-02,-1.99440e-01,2.56061e-01,1.25480e-01,-1.09258e-01,0.00000e+00,0.00000e+00,0.00000e+00,0.00000e+00,0.00000e+00,0.00000e+00,0.00000e+00,0.00000e+00,0.00000e+00,0.00000e+00,0.00000e+00,0.00000e+00,0.00000e+00,0.00000e+00,0.00000e+00,0.00000e+00,0.00000e+00,0.00000e+00,0.00000e+00,0.00000e+00,0.00000e+00,0.00000e+00,0.00000e+00,0.00000e+00,0.00000e+00,0.00000e+00,0.00000e+00,0.00000e+00,0.00000e+00,0.00000e+00,2.41560e-01,-3.50985e-01,-8.62883e-02,-3.30103e-01,-2.53277e-01,-1.69894e-01,2.60725e-01,-3.19623e-01,-8.39035e-02,1.38278e-01,1.19288e-02,-8.58144e-02,-6.35607e-02,1.10800e-01,1.28735e-01,1.97416e-01,-6.12855e-02,6.35613e-02,-4.15764e-02,-2.90208e-02,0.00000e+00,0.00000e+00,0.00000e+00,0.00000e+00,0.00000e+00,0.00000e+00,0.00000e+00,0.00000e+00,0.00000e+00,0.00000e+00,
-3.86193e-02,7.46682e-02,-3.30171e-02,-1.83923e-01,-7.74497e-02,2.42542e-02,-3.25796e-03,1.48668e-01,3.29405e-03,2.56199e-01,0.00000e+00,0.00000e+00,0.00000e+00,0.00000e+00,0.00000e+00,0.00000e+00,0.00000e+00,0.00000e+00,0.00000e+00,0.00000e+00,0.00000e+00,0.00000e+00,0.00000e+00,0.00000e+00,0.00000e+00,0.00000e+00,0.00000e+00,0.00000e+00,0.00000e+00,0.00000e+00,0.00000e+00,0.00000e+00,0.00000e+00,0.00000e+00,0.00000e+00,0.00000e+00,0.00000e+00,0.00000e+00,0.00000e+00,0.00000e+00,-5.05620e-01,-8.77719e-02,9.67525e-02,2.53549e-01,2.23709e-01,-1.78553e-01,-3.11484e-02,-1.09933e-01,9.33217e-02,-2.75490e-01,5.44240e-01,1.31036e-02,-6.37354e-02,-6.96255e-02,-1.46259e-01,1.54299e-01,3.44064e-02,-3.87351e-02,-9.66158e-02,1.92914e-02,0.00000e+00,0.00000e+00,0.00000e+00,0.00000e+00,0.00000e+00,0.00000e+00,0.00000e+00,0.00000e+00,0.00000e+00,0.00000e+00,
-8.81002e-02,-3.37311e-01,-5.11677e-02,-1.66132e-01,-3.54063e-01,-1.33349e-01,2.19122e-01,-1.23319e-01,2.61835e-01,1.83186e-01,0.00000e+00,0.00000e+00,0.00000e+00,0.00000e+00,0.00000e+00,0.00000e+00,0.00000e+00,0.00000e+00,0.00000e+00,0.00000e+00,0.00000e+00,0.00000e+00,0.00000e+00,0.00000e+00,0.00000e+00,0.00000e+00,0.00000e+00,0.00000e+00,0.00000e+00,0.00000e+00,0.00000e+00,0.00000e+00,0.00000e+00,0.00000e+00,0.00000e+00,0.00000e+00,0.00000e+00,0.00000e+00,0.00000e+00,0.00000e+00,-1.10192e-01,1.82798e-01,-1.83445e-02,1.33336e-01,1.95773e-01,-9.43632e-02,-2.19240e-01,-1.18933e-01,-1.16731e-01,2.70887e-02,1.98292e-01,1.54513e-01,6.95122e-02,3.27964e-02,1.58290e-01,2.27713e-01,1.17624e-04,2.42251e-01,-1.45104e-01,-2.10275e-01,0.00000e+00,0.00000e+00,0.00000e+00,0.00000e+00,0.00000e+00,0.00000e+00,0.00000e+00,0.00000e+00,0.00000e+00,0.00000e+00,
-8.47952e-02,-5.64405e-02,3.25153e-03,2.00251e-01,1.79315e-01,4.65951e-01,-1.52138e-01,1.76253e-02,-1.44258e-01,-1.30959e-02,0.00000e+00,0.00000e+00,0.00000e+00,0.00000e+00,0.00000e+00,0.00000e+00,0.00000e+00,0.00000e+00,0.00000e+00,0.00000e+00,0.00000e+00,0.00000e+00,0.00000e+00,0.00000e+00,0.00000e+00,0.00000e+00,0.00000e+00,0.00000e+00,0.00000e+00,0.00000e+00,0.00000e+00,0.00000e+00,0.00000e+00,0.00000e+00,0.00000e+00,0.00000e+00,0.00000e+00,0.00000e+00,0.00000e+00,0.00000e+00,-2.03699e-01,2.97119e-01,2.91673e-02,1.00628e-01,7.18142e-02,-1.03658e-01,-1.25322e-01,1.45951e-01,-4.15439e-02,-7.96011e-02,2.88494e-01,-2.40678e-01,-3.24188e-02,-3.00879e-01,-2.51130e-01,-3.62293e-01,2.77459e-01,-1.63576e-01,1.85802e-01,9.26970e-02,0.00000e+00,0.00000e+00,0.00000e+00,0.00000e+00,0.00000e+00,0.00000e+00,0.00000e+00,0.00000e+00,0.00000e+00,0.00000e+00,
-1.57039e-01,3.17803e-01,-8.13227e-02,9.10992e-02,1.67404e-01,-1.10870e-01,1.49422e-01,9.06902e-02,-8.19257e-03,9.77156e-02,0.00000e+00,0.00000e+00,0.00000e+00,0.00000e+00,0.00000e+00,0.00000e+00,0.00000e+00,0.00000e+00,0.00000e+00,0.00000e+00,0.00000e+00,0.00000e+00,0.00000e+00,0.00000e+00,0.00000e+00,0.00000e+00,0.00000e+00,0.00000e+00,0.00000e+00,0.00000e+00,0.00000e+00,0.00000e+00,0.00000e+00,0.00000e+00,0.00000e+00,0.00000e+00,0.00000e+00,0.00000e+00,0.00000e+00,0.00000e+00,8.57885e-02,-4.33134e-02,1.17088e-01,-2.10153e-01,-2.41017e-01,7.32725e-02,8.88821e-02,-6.80097e-02,1.79037e-01,-2.96297e-01,7.12509e-02,-2.74490e-01,-3.57653e-02,1.19054e-01,7.36132e-02,3.75973e-02,-2.38304e-01,-2.26805e-02,-1.70844e-01,1.98581e-01,0.00000e+00,0.00000e+00,0.00000e+00,0.00000e+00,0.00000e+00,0.00000e+00,0.00000e+00,0.00000e+00,0.00000e+00,0.00000e+00,
-1.96629e-01,1.37680e-01,-1.36061e-01,1.84032e-01,2.81212e-01,2.64072e-01,1.36330e-01,2.97267e-01,1.18926e-01,-5.05967e-02,0.00000e+00,0.00000e+00,0.00000e+00,0.00000e+00,0.00000e+00,0.00000e+00,0.00000e+00,0.00000e+00,0.00000e+00,0.00000e+00,0.00000e+00,0.00000e+00,0.00000e+00,0.00000e+00,0.00000e+00,0.00000e+00,0.00000e+00,0.00000e+00,0.00000e+00,0.00000e+00,0.00000e+00,0.00000e+00,0.00000e+00,0.00000e+00,0.00000e+00,0.00000e+00,0.00000e+00,0.00000e+00,0.00000e+00,0.00000e+00,1.83917e-01,-1.90116e-02,1.37143e-01,-2.46787e-01,-3.12158e-02,-6.76650e-02,-2.03036e-02,-2.30327e-01,-2.84987e-01,-2.78760e-01,1.27122e-02,-1.18668e-01,-1.08201e-03,6.27548e-02,-2.49996e-01,-1.96407e-01,-1.16026e-01,-6.69404e-02,1.66060e-01,3.29356e-01,0.00000e+00,0.00000e+00,0.00000e+00,0.00000e+00,0.00000e+00,0.00000e+00,0.00000e+00,0.00000e+00,0.00000e+00,0.00000e+00,
1.92985e-02,4.24971e-01,1.84696e-01,-2.83093e-01,-1.65288e-01,-4.67618e-01,-6.41988e-02,2.25330e-02,-1.61137e-01,-4.71513e-01,0.00000e+00,0.00000e+00,0.00000e+00,0.00000e+00,0.00000e+00,0.00000e+00,0.00000e+00,0.00000e+00,0.00000e+00,0.00000e+00,0.00000e+00,0.00000e+00,0.00000e+00,0.00000e+00,0.00000e+00,0.00000e+00,0.00000e+00,0.00000e+00,0.00000e+00,0.00000e+00,0.00000e+00,0.00000e+00,0.00000e+00,0.00000e+00,0.00000e+00,0.00000e+00,0.00000e+00,0.00000e+00,0.00000e+00,0.00000e+00,2.36574e-01,-1.24701e-01,-1.74137e-01,1.33176e-01,1.11427e-02,4.23969e-01,8.57231e-02,-1.85740e-01,3.23036e-01,7.20062e-01,-2.55873e-01,-3.00270e-01,-1.05591e-02,1.49917e-01,1.54146e-01,4.36492e-02,-2.15244e-02,1.63207e-01,-1.61898e-01,-2.48549e-01,0.00000e+00,0.00000e+00,0.00000e+00,0.00000e+00,0.00000e+00,0.00000e+00,0.00000e+00,0.00000e+00,0.00000e+00,0.00000e+00,
7.48928e-02,-1.48313e-01,1.30662e-01,2.96982e-01,2.24212e-01,1.25962e-01,-5.67133e-02,1.55492e-01,-8.82603e-02,6.39869e-02,0.00000e+00,0.00000e+00,0.00000e+00,0.00000e+00,0.00000e+00,0.00000e+00,0.00000e+00,0.00000e+00,0.00000e+00,0.00000e+00,0.00000e+00,0.00000e+00,0.00000e+00,0.00000e+00,0.00000e+00,0.00000e+00,0.00000e+00,0.00000e+00,0.00000e+00,0.00000e+00,0.00000e+00,0.00000e+00,0.00000e+00,0.00000e+00,0.00000e+00,0.00000e+00,0.00000e+00,0.00000e+00,0.00000e+00,0.00000e+00,-2.76629e-01,3.46768e-02,-6.33816e-02,-2.24538e-01,1.55148e-01,1.36361e-01,8.70144e-02,9.46336e-02,-3.04096e-02,-2.30036e-01,2.01736e-01,1.13637e-01,-6.72803e-02,-7.24437e-02,-3.79360e-01,-2.62323e-01,-3.03012e-02,-2.50125e-01,1.18670e-01,1.66050e-01,0.00000e+00,0.00000e+00,0.00000e+00,0.00000e+00,0.00000e+00,0.00000e+00,0.00000e+00,0.00000e+00,0.00000e+00,0.00000e+00,
-2.81617e-01,3.34367e-01,-1.36907e-01,-1.32398e-01,-5.09287e-02,-1.55816e-01,-8.94230e-02,1.11030e-01,3.58966e-02,1.12116e-01,0.00000e+00,0.00000e+00,0.00000e+00,0.00000e+00,0.00000e+00,0.00000e+00,0.00000e+00,0.00000e+00,0.00000e+00,0.00000e+00,0.00000e+00,0.00000e+00,0.00000e+00,0.00000e+00,0.00000e+00,0.00000e+00,0.00000e+00,0.00000e+00,0.00000e+00,0.00000e+00,0.00000e+00,0.00000e+00,0.00000e+00,0.00000e+00,0.00000e+00,0.00000e+00,0.00000e+00,0.00000e+00,0.00000e+00,0.00000e+00,1.33777e-01,-1.05470e-01,2.63773e-01,2.58402e-02,-4.78787e-02,2.16513e-01,-4.93379e-03,1.00329e-01,1.49648e-01,-2.98781e-01,1.47840e-01,-2.28898e-01,-1.26866e-01,1.06558e-01,9.88074e-02,-6.06968e-02,9.43568e-02,-2.11359e-01,-1.85544e-01,1.86665e-01,0.00000e+00,0.00000e+00,0.00000e+00,0.00000e+00,0.00000e+00,0.00000e+00,0.00000e+00,0.00000e+00,0.00000e+00,0.00000e+00,
-1.38536e-01,4.20235e-02,-1.91122e-01,-1.47926e-01,-1.27821e-01,-1.90887e-02,8.22900e-02,1.83651e-01,-1.60326e-01,2.05244e-01,0.00000e+00,0.00000e+00,0.00000e+00,0.00000e+00,0.00000e+00,0.00000e+00,0.00000e+00,0.00000e+00,0.00000e+00,0.00000e+00,0.00000e+00,0.00000e+00,0.00000e+00,0.00000e+00,0.00000e+00,0.00000e+00,0.00000e+00,0.00000e+00,0.00000e+00,0.00000e+00,0.00000e+00,0.00000e+00,0.00000e+00,0.00000e+00,0.00000e+00,0.00000e+00,0.00000e+00,0.00000e+00,0.00000e+00,0.00000e+00,-7.13899e-02,1.47282e-01,2.77629e-01,3.26531e-02,2.54348e-01,7.60674e-02,1.19429e-02,-1.58589e-01,2.84277e-01,-1.87918e-01,2.09926e-01,-1.89305e-01,-8.65077e-02,1.15272e-01,-1.26527e-01,-5.69787e-02,-9.42328e-02,-2.50611e-02,-1.23952e-01,-1.73258e-02,0.00000e+00,0.00000e+00,0.00000e+00,0.00000e+00,0.00000e+00,0.00000e+00,0.00000e+00,0.00000e+00,0.00000e+00,0.00000e+00,
-1.14267e-01,-2.71192e-01,3.05516e-01,2.24736e-01,-2.02111e-01,-4.83127e-02,3.97080e-02,1.05010e-01,2.69871e-02,-2.15670e-02,0.00000e+00,0.00000e+00,0.00000e+00,0.00000e+00,0.00000e+00,0.00000e+00,0.00000e+00,0.00000e+00,0.00000e+00,0.00000e+00,0.00000e+00,0.00000e+00,0.00000e+00,0.00000e+00,0.00000e+00,0.00000e+00,0.00000e+00,0.00000e+00,0.00000e+00,0.00000e+00,0.00000e+00,0.00000e+00,0.00000e+00,0.00000e+00,0.00000e+00,0.00000e+00,0.00000e+00,0.00000e+00,0.00000e+00,0.00000e+00,-1.12459e-01,2.47854e-01,-3.93984e-01,-2.87932e-01,4.27433e-02,-1.03847e-01,-1.21822e-02,2.57560e-02,8.22586e-02,-1.10479e-01,2.26726e-01,2.33372e-02,8.84688e-02,6.31964e-02,1.59367e-01,1.52160e-01,-2.75258e-02,-1.30766e-01,-1.09246e-01,1.32046e-01,0.00000e+00,0.00000e+00,0.00000e+00,0.00000e+00,0.00000e+00,0.00000e+00,0.00000e+00,0.00000e+00,0.00000e+00,0.00000e+00,
-4.02398e-01,2.32961e-01,-1.84395e-01,8.97069e-02,6.87520e-02,1.38678e-01,5.98445e-02,5.86618e-02,1.36359e-01,-8.04932e-02,0.00000e+00,0.00000e+00,0.00000e+00,0.00000e+00,0.00000e+00,0.00000e+00,0.00000e+00,0.00000e+00,0.00000e+00,0.00000e+00,0.00000e+00,0.00000e+00,0.00000e+00,0.00000e+00,0.00000e+00,0.00000e+00,0.00000e+00,0.00000e+00,0.00000e+00,0.00000e+00,0.00000e+00,0.00000e+00,0.00000e+00,0.00000e+00,0.00000e+00,0.00000e+00,0.00000e+00,0.00000e+00,0.00000e+00,0.00000e+00,4.00340e-01,-1.24864e-01,-1.81376e-01,-1.52053e-01,5.55356e-02,-9.99568e-02,4.82034e-02,-3.69727e-02,7.84551e-02,1.30323e-01,2.05815e-03,-1.08097e-01,3.65770e-01,6.23462e-02,-1.24288e-01,-3.87216e-02,-1.08048e-01,-2.16890e-02,-2.14814e-01,-4.98303e-02,0.00000e+00,0.00000e+00,0.00000e+00,0.00000e+00,0.00000e+00,0.00000e+00,0.00000e+00,0.00000e+00,0.00000e+00,0.00000e+00,
1.10271e-01,1.84063e-01,-1.08490e-01,1.31899e-01,-2.28859e-01,4.45868e-01,-2.26822e-01,6.94334e-02,-7.60254e-02,3.83562e-03,0.00000e+00,0.00000e+00,0.00000e+00,0.00000e+00,0.00000e+00,0.00000e+00,0.00000e+00,0.00000e+00,0.00000e+00,0.00000e+00,0.00000e+00,0.00000e+00,0.00000e+00,0.00000e+00,0.00000e+00,0.00000e+00,0.00000e+00,0.00000e+00,0.00000e+00,0.00000e+00,0.00000e+00,0.00000e+00,0.00000e+00,0.00000e+00,0.00000e+00,0.00000e+00,0.00000e+00,0.00000e+00,0.00000e+00,0.00000e+00,-6.97899e-02,-5.16283e-01,2.68999e-01,-3.93822e-01,2.99856e-01,-6.91358e-01,5.94387e-02,-2.54837e-01,2.07980e-01,-1.81941e-01,-4.04810e-02,3.32220e-01,-1.60509e-01,2.61923e-01,-7.09978e-02,2.45490e-01,1.67383e-01,1.85404e-01,-1.31954e-01,1.78106e-01,0.00000e+00,0.00000e+00,0.00000e+00,0.00000e+00,0.00000e+00,0.00000e+00,0.00000e+00,0.00000e+00,0.00000e+00,0.00000e+00,
1.48712e-01,-3.73444e-02,-2.08345e-01,-2.57983e-01,3.12889e-02,-2.26251e-01,5.34174e-02,2.94166e-01,-3.34125e-02,5.13311e-02,0.00000e+00,0.00000e+00,0.00000e+00,0.00000e+00,0.00000e+00,0.00000e+00,0.00000e+00,0.00000e+00,0.00000e+00,0.00000e+00,0.00000e+00,0.00000e+00,0.00000e+00,0.00000e+00,0.00000e+00,0.00000e+00,0.00000e+00,0.00000e+00,0.00000e+00,0.00000e+00,0.00000e+00,0.00000e+00,0.00000e+00,0.00000e+00,0.00000e+00,0.00000e+00,0.00000e+00,0.00000e+00,0.00000e+00,0.00000e+00,-4.09987e-01,-2.53505e-02,2.01575e-01,5.03609e-01,-1.63888e-01,1.45172e-03,-1.71217e-01,-5.45918e-02,8.29599e-02,4.81155e-03,2.61275e-01,6.26949e-02,6.76975e-03,-2.45626e-01,1.32599e-01,2.24799e-01,1.17800e-01,-2.39574e-01,-4.95474e-02,-5.61427e-02,0.00000e+00,0.00000e+00,0.00000e+00,0.00000e+00,0.00000e+00,0.00000e+00,0.00000e+00,0.00000e+00,0.00000e+00,0.00000e+00,
-1.50810e-01,4.08706e-01,1.15996e-01,2.15280e-01,-8.52261e-02,3.15795e-01,2.40802e-01,-3.85449e-02,-2.22196e-01,-5.42759e-03,0.00000e+00,0.00000e+00,0.00000e+00,0.00000e+00,0.00000e+00,0.00000e+00,0.00000e+00,0.00000e+00,0.00000e+00,0.00000e+00,0.00000e+00,0.00000e+00,0.00000e+00,0.00000e+00,0.00000e+00,0.00000e+00,0.00000e+00,0.00000e+00,0.00000e+00,0.00000e+00,0.00000e+00,0.00000e+00,0.00000e+00,0.00000e+00,0.00000e+00,0.00000e+00,0.00000e+00,0.00000e+00,0.00000e+00,0.00000e+00,-3.08245e-02,5.08516e-02,1.06492e-01,-2.80892e-01,9.86278e-02,-4.09393e-01,-1.61649e-01,1.91911e-01,9.69286e-02,-2.43890e-01,1.81635e-01,-4.59557e-01,-2.22488e-01,6.56120e-02,-1.34016e-02,9.35986e-02,-7.91524e-02,-1.53366e-01,1.25267e-01,2.49317e-01,0.00000e+00,0.00000e+00,0.00000e+00,0.00000e+00,0.00000e+00,0.00000e+00,0.00000e+00,0.00000e+00,0.00000e+00,0.00000e+00,
7.01268e-02,2.37185e-01,2.13973e-01,1.94171e-01,-3.39766e-01,1.29027e-01,3.41559e-01,-1.87371e-02,-7.85964e-02,1.65813e-01,0.00000e+00,0.00000e+00,0.00000e+00,0.00000e+00,0.00000e+00,0.00000e+00,0.00000e+00,0.00000e+00,0.00000e+00,0.00000e+00,0.00000e+00,0.00000e+00,0.00000e+00,0.00000e+00,0.00000e+00,0.00000e+00,0.00000e+00,0.00000e+00,0.00000e+00,0.00000e+00,0.00000e+00,0.00000e+00,0.00000e+00,0.00000e+00,0.00000e+00,0.00000e+00,0.00000e+00,0.00000e+00,0.00000e+00,0.00000e+00,-6.47859e-02,-3.00412e-01,-7.09549e-02,-1.35986e-01,9.93136e-02,3.87796e-02,-5.17773e-01,-1.21030e-01,1.97259e-01,-3.69525e-01,-5.34085e-03,6.32269e-02,-1.43018e-01,-5.81854e-02,2.40452e-01,-1.67807e-01,1.76214e-01,1.39767e-01,-1.18662e-01,2.03711e-01,0.00000e+00,0.00000e+00,0.00000e+00,0.00000e+00,0.00000e+00,0.00000e+00,0.00000e+00,0.00000e+00,0.00000e+00,0.00000e+00,
-3.34814e-01,1.99527e-02,5.14005e-02,-2.36544e-01,-2.36344e-01,1.16014e-01,9.48146e-02,-3.16461e-01,-7.73033e-02,3.01934e-01,0.00000e+00,0.00000e+00,0.00000e+00,0.00000e+00,0.00000e+00,0.00000e+00,0.00000e+00,0.00000e+00,0.00000e+00,0.00000e+00,0.00000e+00,0.00000e+00,0.00000e+00,0.00000e+00,0.00000e+00,0.00000e+00,0.00000e+00,0.00000e+00,0.00000e+00,0.00000e+00,0.00000e+00,0.00000e+00,0.00000e+00,0.00000e+00,0.00000e+00,0.00000e+00,0.00000e+00,0.00000e+00,0.00000e+00,0.00000e+00,2.62017e-01,1.93390e-01,7.48127e-02,3.98386e-01,2.01724e-01,-3.11399e-03,9.97465e-02,3.12772e-01,3.19546e-02,-2.82311e-01,7.27968e-02,-2.13342e-01,-1.26213e-01,-1.61841e-01,3.46199e-02,-1.12900e-01,-1.94561e-01,3.68850e-03,4.53487e-02,-1.96230e-02,0.00000e+00,0.00000e+00,0.00000e+00,0.00000e+00,0.00000e+00,0.00000e+00,0.00000e+00,0.00000e+00,0.00000e+00,0.00000e+00,
-1.02683e-01,4.29151e-02,3.36958e-02,4.45728e-02,-7.47883e-02,-4.15099e-02,1.47309e-01,2.46388e-01,-1.51008e-01,2.85058e-01,0.00000e+00,0.00000e+00,0.00000e+00,0.00000e+00,0.00000e+00,0.00000e+00,0.00000e+00,0.00000e+00,0.00000e+00,0.00000e+00,0.00000e+00,0.00000e+00,0.00000e+00,0.00000e+00,0.00000e+00,0.00000e+00,0.00000e+00,0.00000e+00,0.00000e+00,0.00000e+00,0.00000e+00,0.00000e+00,0.00000e+00,0.00000e+00,0.00000e+00,0.00000e+00,0.00000e+00,0.00000e+00,0.00000e+00,0.00000e+00,7.82753e-02,8.80476e-03,-1.53406e-01,1.76842e-01,-7.54783e-03,1.47182e-01,7.71976e-02,-1.97505e-01,2.48994e-01,-3.95972e-01,2.44073e-02,-5.17199e-02,1.19710e-01,-2.21415e-01,8.23362e-02,-1.05672e-01,-2.24506e-01,-4.88831e-02,-9.79853e-02,1.10914e-01,0.00000e+00,0.00000e+00,0.00000e+00,0.00000e+00,0.00000e+00,0.00000e+00,0.00000e+00,0.00000e+00,0.00000e+00,0.00000e+00,
-1.64995e-01,2.08436e-01,-3.36825e-01,2.47318e-01,-7.37855e-02,3.88493e-02,4.44398e-02,1.19246e-01,1.61903e-01,-1.43837e-01,0.00000e+00,0.00000e+00,0.00000e+00,0.00000e+00,0.00000e+00,0.00000e+00,0.00000e+00,0.00000e+00,0.00000e+00,0.00000e+00,0.00000e+00,0.00000e+00,0.00000e+00,0.00000e+00,0.00000e+00,0.00000e+00,0.00000e+00,0.00000e+00,0.00000e+00,0.00000e+00,0.00000e+00,0.00000e+00,0.00000e+00,0.00000e+00,0.00000e+00,0.00000e+00,0.00000e+00,0.00000e+00,0.00000e+00,0.00000e+00,1.20158e-01,-1.53282e-01,1.96946e-01,-3.59498e-01,-7.52845e-02,5.44943e-02,-8.66281e-02,-1.78987e-01,-3.61569e-02,1.47770e-02,4.48367e-02,-5.51545e-02,1.39879e-01,1.12179e-01,1.49070e-01,-9.33436e-02,4.21883e-02,5.97404e-02,-1.25746e-01,1.29060e-01,0.00000e+00,0.00000e+00,0.00000e+00,0.00000e+00,0.00000e+00,0.00000e+00,0.00000e+00,0.00000e+00,0.00000e+00,0.00000e+00,
-2.14548e-02,6.14694e-01,-1.51092e-01,-5.23531e-02,3.34362e-02,7.27593e-02,2.85796e-01,-8.91920e-02,1.19040e-01,3.83661e-02,0.00000e+00,0.00000e+00,0.00000e+00,0.00000e+00,0.00000e+00,0.00000e+00,0.00000e+00,0.00000e+00,0.00000e+00,0.00000e+00,0.00000e+00,0.00000e+00,0.00000e+00,0.00000e+00,0.00000e+00,0.00000e+00,0.00000e+00,0.00000e+00,0.00000e+00,0.00000e+00,0.00000e+00,0.00000e+00,0.00000e+00,0.00000e+00,0.00000e+00,0.00000e+00,0.00000e+00,0.00000e+00,0.00000e+00,0.00000e+00,-1.30208e-01,-1.83605e-01,3.01922e-01,5.83012e-03,2.98146e-01,-1.46586e-01,-7.23012e-02,2.13662e-01,-1.78863e-01,-1.04363e-02,1.51663e-01,-4.31089e-01,-1.50831e-01,4.65229e-02,-3.31582e-01,7.38268e-02,-2.13495e-01,-1.24470e-01,5.98234e-02,-2.79298e-02,0.00000e+00,0.00000e+00,0.00000e+00,0.00000e+00,0.00000e+00,0.00000e+00,0.00000e+00,0.00000e+00,0.00000e+00,0.00000e+00,
6.98158e-02,-4.17916e-02,1.76679e-02,-3.40566e-01,-3.33105e-01,1.67678e-01,5.23919e-02,4.01481e-02,-2.18004e-02,3.86560e-01,0.00000e+00,0.00000e+00,0.00000e+00,0.00000e+00,0.00000e+00,0.00000e+00,0.00000e+00,0.00000e+00,0.00000e+00,0.00000e+00,0.00000e+00,0.00000e+00,0.00000e+00,0.00000e+00,0.00000e+00,0.00000e+00,0.00000e+00,0.00000e+00,0.00000e+00,0.00000e+00,0.00000e+00,0.00000e+00,0.00000e+00,0.00000e+00,0.00000e+00,0.00000e+00,0.00000e+00,0.00000e+00,0.00000e+00,0.00000e+00,-2.15439e-01,8.73023e-02,3.89634e-01,4.25209e-01,3.54199e-01,-2.97136e-01,-2.08958e-01,-9.50540e-02,-2.75685e-01,-6.70943e-01,1.45623e-01,-4.55107e-02,-4.07302e-01,-8.46429e-02,-2.10940e-02,1.29458e-01,1.56566e-01,5.49059e-02,2.97486e-01,2.84382e-01,0.00000e+00,0.00000e+00,0.00000e+00,0.00000e+00,0.00000e+00,0.00000e+00,0.00000e+00,0.00000e+00,0.00000e+00,0.00000e+00,
-6.57710e-02,-5.45442e-01,3.22256e-01,-8.59799e-02,-1.64844e-01,5.53304e-02,3.17211e-01,1.93834e-01,7.90689e-02,1.26840e-04,0.00000e+00,0.00000e+00,0.00000e+00,0.00000e+00,0.00000e+00,0.00000e+00,0.00000e+00,0.00000e+00,0.00000e+00,0.00000e+00,0.00000e+00,0.00000e+00,0.00000e+00,0.00000e+00,0.00000e+00,0.00000e+00,0.00000e+00,0.00000e+00,0.00000e+00,0.00000e+00,0.00000e+00,0.00000e+00,0.00000e+00,0.00000e+00,0.00000e+00,0.00000e+00,0.00000e+00,0.00000e+00,0.00000e+00,0.00000e+00,-9.69603e-02,2.42184e-01,-5.15054e-02,-5.49103e-02,-8.04996e-02,5.27085e-02,-6.44300e-01,-1.51013e-01,-6.51830e-02,1.90834e-02,1.62731e-01,3.03258e-01,-2.70751e-01,1.40890e-01,2.45344e-01,-1.08039e-01,3.27089e-01,-4.28211e-02,-1.38859e-02,-1.92102e-02,0.00000e+00,0.00000e+00,0.00000e+00,0.00000e+00,0.00000e+00,0.00000e+00,0.00000e+00,0.00000e+00,0.00000e+00,0.00000e+00,
-2.46401e-02,3.31118e-01,5.05575e-02,1.22335e-01,1.32737e-01,3.32725e-01,1.62040e-01,-4.83052e-02,-2.36636e-01,1.42558e-01,0.00000e+00,0.00000e+00,0.00000e+00,0.00000e+00,0.00000e+00,0.00000e+00,0.00000e+00,0.00000e+00,0.00000e+00,0.00000e+00,0.00000e+00,0.00000e+00,0.00000e+00,0.00000e+00,0.00000e+00,0.00000e+00,0.00000e+00,0.00000e+00,0.00000e+00,0.00000e+00,0.00000e+00,0.00000e+00,0.00000e+00,0.00000e+00,0.00000e+00,0.00000e+00,0.00000e+00,0.00000e+00,0.00000e+00,0.00000e+00,4.28882e-02,-8.37635e-02,-4.06590e-02,-7.21237e-02,-2.57214e-01,-3.06807e-01,-4.62979e-02,1.98651e-01,3.14897e-01,-1.36142e-01,-1.82481e-02,-2.47354e-01,-9.89856e-03,-5.02116e-02,1.24477e-01,-2.59177e-02,-1.15742e-01,-1.50346e-01,-7.82611e-02,-6.41568e-03,0.00000e+00,0.00000e+00,0.00000e+00,0.00000e+00,0.00000e+00,0.00000e+00,0.00000e+00,0.00000e+00,0.00000e+00,0.00000e+00,
1.58466e-01,3.46886e-01,4.20763e-01,7.55756e-03,-4.85874e-02,9.23150e-02,-2.17516e-01,1.34321e-01,-2.20237e-02,-2.74633e-01,0.00000e+00,0.00000e+00,0.00000e+00,0.00000e+00,0.00000e+00,0.00000e+00,0.00000e+00,0.00000e+00,0.00000e+00,0.00000e+00,0.00000e+00,0.00000e+00,0.00000e+00,0.00000e+00,0.00000e+00,0.00000e+00,0.00000e+00,0.00000e+00,0.00000e+00,0.00000e+00,0.00000e+00,0.00000e+00,0.00000e+00,0.00000e+00,0.00000e+00,0.00000e+00,0.00000e+00,0.00000e+00,0.00000e+00,0.00000e+00,-6.16635e-02,-7.23799e-01,-4.12116e-01,-6.78148e-02,-2.39983e-01,8.51922e-02,1.58513e-01,-2.16048e-01,1.35330e-01,3.62203e-01,-9.68029e-02,3.76914e-01,-8.64702e-03,6.02572e-02,2.88571e-01,-1.77507e-01,5.90030e-02,8.17275e-02,-1.13306e-01,-8.75694e-02,0.00000e+00,0.00000e+00,0.00000e+00,0.00000e+00,0.00000e+00,0.00000e+00,0.00000e+00,0.00000e+00,0.00000e+00,0.00000e+00,
-4.15420e-01,1.97329e-01,-7.47244e-02,4.48819e-02,1.31907e-01,9.99537e-02,3.96379e-03,1.76335e-01,-1.16092e-01,1.00430e-01,0.00000e+00,0.00000e+00,0.00000e+00,0.00000e+00,0.00000e+00,0.00000e+00,0.00000e+00,0.00000e+00,0.00000e+00,0.00000e+00,0.00000e+00,0.00000e+00,0.00000e+00,0.00000e+00,0.00000e+00,0.00000e+00,0.00000e+00,0.00000e+00,0.00000e+00,0.00000e+00,0.00000e+00,0.00000e+00,0.00000e+00,0.00000e+00,0.00000e+00,0.00000e+00,0.00000e+00,0.00000e+00,0.00000e+00,0.00000e+00,6.29649e-02,-2.00957e-04,2.41456e-01,-1.24538e-02,-4.48454e-02,-2.13258e-02,1.07061e-01,-1.65642e-01,1.08043e-01,-4.11161e-02,3.52455e-01,-1.97128e-01,-1.66732e-01,-3.24281e-02,-8.70613e-02,-7.86279e-02,-1.11025e-01,-1.06931e-02,8.04912e-03,-5.93136e-02,0.00000e+00,0.00000e+00,0.00000e+00,0.00000e+00,0.00000e+00,0.00000e+00,0.00000e+00,0.00000e+00,0.00000e+00,0.00000e+00,
-3.85896e-01,-6.26476e-02,-1.16623e-01,-6.71463e-02,-2.02684e-01,1.82636e-01,-9.08387e-02,-1.34467e-01,-1.20462e-01,1.41851e-01,0.00000e+00,0.00000e+00,0.00000e+00,0.00000e+00,0.00000e+00,0.00000e+00,0.00000e+00,0.00000e+00,0.00000e+00,0.00000e+00,0.00000e+00,0.00000e+00,0.00000e+00,0.00000e+00,0.00000e+00,0.00000e+00,0.00000e+00,0.00000e+00,0.00000e+00,0.00000e+00,0.00000e+00,0.00000e+00,0.00000e+00,0.00000e+00,0.00000e+00,0.00000e+00,0.00000e+00,0.00000e+00,0.00000e+00,0.00000e+00,4.60663e-01,2.41002e-01,-1.26293e-01,-8.95427e-02,1.98060e-02,4.25255e-02,2.37419e-01,2.28858e-01,-3.68896e-02,-9.86507e-02,-7.47665e-02,-1.78354e-01,2.42916e-01,1.56689e-01,1.82878e-01,-2.25161e-01,-1.46581e-01,-9.43908e-02,1.57352e-01,-4.32004e-02,0.00000e+00,0.00000e+00,0.00000e+00,0.00000e+00,0.00000e+00,0.00000e+00,0.00000e+00,0.00000e+00,0.00000e+00,0.00000e+00,
-4.09104e-01,1.12489e-01,-2.33404e-01,-1.12826e-01,-1.62246e-01,4.45453e-01,2.45837e-01,-4.34482e-02,-4.46294e-02,7.27150e-02,0.00000e+00,0.00000e+00,0.00000e+00,0.00000e+00,0.00000e+00,0.00000e+00,0.00000e+00,0.00000e+00,0.00000e+00,0.00000e+00,0.00000e+00,0.00000e+00,0.00000e+00,0.00000e+00,0.00000e+00,0.00000e+00,0.00000e+00,0.00000e+00,0.00000e+00,0.00000e+00,0.00000e+00,0.00000e+00,0.00000e+00,0.00000e+00,0.00000e+00,0.00000e+00,0.00000e+00,0.00000e+00,0.00000e+00,0.00000e+00,2.94034e-01,8.58743e-02,1.30541e-01,8.29047e-02,-3.90246e-02,-1.78271e-01,-6.88510e-02,4.11704e-03,-8.54438e-02,-2.08313e-01,1.15070e-01,-1.98363e-01,1.02863e-01,2.99215e-02,2.01271e-01,-2.67182e-01,-1.76986e-01,3.93312e-02,1.30073e-01,1.35598e-01,0.00000e+00,0.00000e+00,0.00000e+00,0.00000e+00,0.00000e+00,0.00000e+00,0.00000e+00,0.00000e+00,0.00000e+00,0.00000e+00,
-1.74955e-01,4.62422e-02,2.59497e-01,3.54320e-01,-2.57155e-01,-2.07476e-01,-2.98980e-01,3.13707e-01,-6.16671e-02,7.38566e-02,0.00000e+00,0.00000e+00,0.00000e+00,0.00000e+00,0.00000e+00,0.00000e+00,0.00000e+00,0.00000e+00,0.00000e+00,0.00000e+00,0.00000e+00,0.00000e+00,0.00000e+00,0.00000e+00,0.00000e+00,0.00000e+00,0.00000e+00,0.00000e+00,0.00000e+00,0.00000e+00,0.00000e+00,0.00000e+00,0.00000e+00,0.00000e+00,0.00000e+00,0.00000e+00,0.00000e+00,0.00000e+00,0.00000e+00,0.00000e+00,7.37237e-02,-3.54152e-01,-1.44339e-01,-9.32500e-02,-3.08300e-02,1.44539e-01,2.44726e-01,-3.03476e-01,1.69539e-01,7.55759e-02,1.01232e-01,3.07909e-01,-1.15158e-01,-2.61070e-01,2.87985e-01,6.29367e-02,5.42546e-02,-1.02305e-02,-1.07872e-01,-1.49432e-01,0.00000e+00,0.00000e+00,0.00000e+00,0.00000e+00,0.00000e+00,0.00000e+00,0.00000e+00,0.00000e+00,0.00000e+00,0.00000e+00,
1.22600e-02,1.02078e-01,4.30018e-02,7.88700e-02,-4.16470e-01,-1.48189e-01,-9.97572e-02,3.44922e-02,-3.32407e-02,-9.87475e-03,0.00000e+00,0.00000e+00,0.00000e+00,0.00000e+00,0.00000e+00,0.00000e+00,0.00000e+00,0.00000e+00,0.00000e+00,0.00000e+00,0.00000e+00,0.00000e+00,0.00000e+00,0.00000e+00,0.00000e+00,0.00000e+00,0.00000e+00,0.00000e+00,0.00000e+00,0.00000e+00,0.00000e+00,0.00000e+00,0.00000e+00,0.00000e+00,0.00000e+00,0.00000e+00,0.00000e+00,0.00000e+00,0.00000e+00,0.00000e+00,3.41345e-02,8.98547e-03,9.88041e-02,-2.40648e-02,2.61131e-01,1.47295e-01,2.82590e-01,-9.56620e-02,-1.96509e-01,-2.29007e-01,-4.63946e-02,-1.11064e-01,-1.41806e-01,-5.48052e-02,1.55339e-01,8.93918e-04,-1.82833e-01,6.11698e-02,2.29750e-01,2.38882e-01,0.00000e+00,0.00000e+00,0.00000e+00,0.00000e+00,0.00000e+00,0.00000e+00,0.00000e+00,0.00000e+00,0.00000e+00,0.00000e+00,
-4.82128e-01,1.26471e-01,-3.90081e-01,-1.69887e-01,4.73644e-02,1.36114e-01,5.51586e-02,-2.30596e-01,1.18362e-01,7.49985e-02,0.00000e+00,0.00000e+00,0.00000e+00,0.00000e+00,0.00000e+00,0.00000e+00,0.00000e+00,0.00000e+00,0.00000e+00,0.00000e+00,0.00000e+00,0.00000e+00,0.00000e+00,0.00000e+00,0.00000e+00,0.00000e+00,0.00000e+00,0.00000e+00,0.00000e+00,0.00000e+00,0.00000e+00,0.00000e+00,0.00000e+00,0.00000e+00,0.00000e+00,0.00000e+00,0.00000e+00,0.00000e+00,0.00000e+00,0.00000e+00,4.48522e-01,1.35622e-01,3.15909e-01,2.95733e-01,-5.39467e-02,-2.15192e-01,-3.63736e-02,3.93939e-01,-1.34808e-01,-4.47048e-03,3.36066e-02,-2.62093e-01,7.41724e-02,-1.25846e-01,6.58237e-03,7.90775e-02,-1.87851e-02,-1.63343e-01,1.64462e-02,-7.05280e-02,0.00000e+00,0.00000e+00,0.00000e+00,0.00000e+00,0.00000e+00,0.00000e+00,0.00000e+00,0.00000e+00,0.00000e+00,0.00000e+00,
-3.52042e-01,3.61344e-01,1.06721e-01,6.31097e-02,-1.14528e-01,-7.84179e-05,-1.50435e-03,1.63915e-01,6.81305e-02,6.79680e-03,0.00000e+00,0.00000e+00,0.00000e+00,0.00000e+00,0.00000e+00,0.00000e+00,0.00000e+00,0.00000e+00,0.00000e+00,0.00000e+00,0.00000e+00,0.00000e+00,0.00000e+00,0.00000e+00,0.00000e+00,0.00000e+00,0.00000e+00,0.00000e+00,0.00000e+00,0.00000e+00,0.00000e+00,0.00000e+00,0.00000e+00,0.00000e+00,0.00000e+00,0.00000e+00,0.00000e+00,0.00000e+00,0.00000e+00,0.00000e+00,2.24319e-02,-2.41877e-01,3.76180e-05,2.51062e-04,-1.44521e-01,-1.24163e-01,8.35479e-02,-4.02287e-02,5.07054e-02,1.68760e-01,3.29610e-01,-1.19467e-01,-1.06759e-01,-6.33607e-02,2.59050e-01,1.24241e-01,-8.20436e-02,-1.23686e-01,-1.18836e-01,-1.75557e-01,0.00000e+00,0.00000e+00,0.00000e+00,0.00000e+00,0.00000e+00,0.00000e+00,0.00000e+00,0.00000e+00,0.00000e+00,0.00000e+00,
-4.03847e-01,3.37213e-01,3.14573e-01,1.37647e-01,-1.26705e-01,2.16757e-01,-6.93418e-02,2.40275e-01,9.85969e-02,1.54025e-01,0.00000e+00,0.00000e+00,0.00000e+00,0.00000e+00,0.00000e+00,0.00000e+00,0.00000e+00,0.00000e+00,0.00000e+00,0.00000e+00,0.00000e+00,0.00000e+00,0.00000e+00,0.00000e+00,0.00000e+00,0.00000e+00,0.00000e+00,0.00000e+00,0.00000e+00,0.00000e+00,0.00000e+00,0.00000e+00,0.00000e+00,0.00000e+00,0.00000e+00,0.00000e+00,0.00000e+00,0.00000e+00,0.00000e+00,0.00000e+00,2.19435e-01,-4.67604e-01,-3.21664e-01,-2.03946e-01,8.24466e-02,-3.87823e-01,1.03214e-01,-2.27205e-01,1.54454e-01,-1.67896e-02,1.84412e-01,1.30390e-01,7.09054e-03,6.62988e-02,4.42583e-02,1.71067e-01,-3.38719e-02,-1.30708e-02,-2.53051e-01,-1.37235e-01,0.00000e+00,0.00000e+00,0.00000e+00,0.00000e+00,0.00000e+00,0.00000e+00,0.00000e+00,0.00000e+00,0.00000e+00,0.00000e+00,
-2.81867e-01,-4.96617e-02,-1.22798e-01,-3.37719e-01,-7.31429e-02,3.38250e-02,2.66631e-01,5.44037e-02,-4.04883e-02,-1.29156e-01,0.00000e+00,0.00000e+00,0.00000e+00,0.00000e+00,0.00000e+00,0.00000e+00,0.00000e+00,0.00000e+00,0.00000e+00,0.00000e+00,0.00000e+00,0.00000e+00,0.00000e+00,0.00000e+00,0.00000e+00,0.00000e+00,0.00000e+00,0.00000e+00,0.00000e+00,0.00000e+00,0.00000e+00,0.00000e+00,0.00000e+00,0.00000e+00,0.00000e+00,0.00000e+00,0.00000e+00,0.00000e+00,0.00000e+00,0.00000e+00,-8.14390e-03,1.38748e-01,3.52465e-01,2.05644e-01,-6.24941e-02,-1.10633e-01,-7.06356e-02,-1.65281e-01,1.01988e-03,6.97716e-02,2.90011e-01,-8.90867e-02,-2.29667e-01,1.32075e-01,1.35637e-01,7.68079e-02,-1.95996e-01,1.10877e-01,3.94684e-02,5.93839e-02,0.00000e+00,0.00000e+00,0.00000e+00,0.00000e+00,0.00000e+00,0.00000e+00,0.00000e+00,0.00000e+00,0.00000e+00,0.00000e+00,
-2.77790e-01,2.41010e-01,-3.03628e-02,2.64884e-01,-3.45348e-02,2.66111e-01,5.38505e-02,1.76489e-01,-8.48913e-03,1.25548e-01,0.00000e+00,0.00000e+00,0.00000e+00,0.00000e+00,0.00000e+00,0.00000e+00,0.00000e+00,0.00000e+00,0.00000e+00,0.00000e+00,0.00000e+00,0.00000e+00,0.00000e+00,0.00000e+00,0.00000e+00,0.00000e+00,0.00000e+00,0.00000e+00,0.00000e+00,0.00000e+00,0.00000e+00,0.00000e+00,0.00000e+00,0.00000e+00,0.00000e+00,0.00000e+00,0.00000e+00,0.00000e+00,0.00000e+00,0.00000e+00,2.68832e-01,1.44547e-01,7.30960e-02,-3.70217e-01,1.19905e-01,-2.99821e-01,1.59718e-01,-3.13840e-01,-1.96635e-01,-2.57154e-01,8.95793e-03,-3.85557e-01,-4.27331e-02,1.05334e-01,-8.53706e-02,3.37104e-02,-2.13569e-01,1.37352e-01,2.05124e-01,1.31605e-01,0.00000e+00,0.00000e+00,0.00000e+00,0.00000e+00,0.00000e+00,0.00000e+00,0.00000e+00,0.00000e+00,0.00000e+00,0.00000e+00,
-3.21019e-01,-2.39599e-01,3.97786e-02,-2.31468e-01,1.55657e-01,-2.18698e-01,1.77682e-01,1.74636e-01,9.13466e-02,1.08651e-01,0.00000e+00,0.00000e+00,0.00000e+00,0.00000e+00,0.00000e+00,0.00000e+00,0.00000e+00,0.00000e+00,0.00000e+00,0.00000e+00,0.00000e+00,0.00000e+00,0.00000e+00,0.00000e+00,0.00000e+00,0.00000e+00,0.00000e+00,0.00000e+00,0.00000e+00,0.00000e+00,0.00000e+00,0.00000e+00,0.00000e+00,0.00000e+00,0.00000e+00,0.00000e+00,0.00000e+00,0.00000e+00,0.00000e+00,0.00000e+00,4.67646e-01,1.06041e-02,6.50573e-03,4.03950e-01,-4.76908e-01,3.79721e-01,-1.75054e-01,-1.59704e-01,1.39745e-01,5.58309e-02,-1.46628e-01,2.28995e-01,-4.62843e-02,-1.72482e-01,3.21251e-01,-1.61023e-01,-2.62876e-03,-1.49324e-02,-2.31092e-01,-1.64482e-01,0.00000e+00,0.00000e+00,0.00000e+00,0.00000e+00,0.00000e+00,0.00000e+00,0.00000e+00,0.00000e+00,0.00000e+00,0.00000e+00,
-9.25445e-03,2.84255e-02,2.89897e-02,-3.14244e-01,-7.54129e-02,-1.13785e-01,-1.31143e-01,-3.09472e-02,1.11905e-01,2.51618e-01,0.00000e+00,0.00000e+00,0.00000e+00,0.00000e+00,0.00000e+00,0.00000e+00,0.00000e+00,0.00000e+00,0.00000e+00,0.00000e+00,0.00000e+00,0.00000e+00,0.00000e+00,0.00000e+00,0.00000e+00,0.00000e+00,0.00000e+00,0.00000e+00,0.00000e+00,0.00000e+00,0.00000e+00,0.00000e+00,0.00000e+00,0.00000e+00,0.00000e+00,0.00000e+00,0.00000e+00,0.00000e+00,0.00000e+00,0.00000e+00,2.42395e-01,-1.11769e-01,-2.11655e-01,3.96169e-01,1.78867e-01,8.17066e-02,-3.40516e-02,-1.13805e-01,4.04285e-02,-5.10430e-01,-2.33141e-01,8.33438e-02,1.82665e-01,-8.19259e-02,-1.03454e-01,3.20782e-02,1.65194e-01,1.44753e-01,-1.52334e-01,2.58812e-01,0.00000e+00,0.00000e+00,0.00000e+00,0.00000e+00,0.00000e+00,0.00000e+00,0.00000e+00,0.00000e+00,0.00000e+00,0.00000e+00,
-1.43443e-01,2.52596e-01,3.29921e-01,2.68317e-01,-2.10602e-01,2.96401e-01,-1.74420e-01,2.16330e-01,-1.73355e-01,5.33836e-02,0.00000e+00,0.00000e+00,0.00000e+00,0.00000e+00,0.00000e+00,0.00000e+00,0.00000e+00,0.00000e+00,0.00000e+00,0.00000e+00,0.00000e+00,0.00000e+00,0.00000e+00,0.00000e+00,0.00000e+00,0.00000e+00,0.00000e+00,0.00000e+00,0.00000e+00,0.00000e+00,0.00000e+00,0.00000e+00,0.00000e+00,0.00000e+00,0.00000e+00,0.00000e+00,0.00000e+00,0.00000e+00,0.00000e+00,0.00000e+00,9.79820e-02,-2.10283e-01,-3.12456e-01,-2.52027e-01,-2.96325e-02,-4.91952e-01,1.60612e-01,-3.00536e-01,2.14461e-02,-8.67316e-02,4.54612e-02,-4.23128e-02,-1.74650e-02,-1.62899e-02,2.40235e-01,1.95551e-01,1.38079e-02,8.42065e-02,1.51909e-01,3.33480e-02,0.00000e+00,0.00000e+00,0.00000e+00,0.00000e+00,0.00000e+00,0.00000e+00,0.00000e+00,0.00000e+00,0.00000e+00,0.00000e+00,
-8.02896e-02,3.20435e-01,-1.85395e-01,-3.36035e-01,-2.33533e-02,-1.17066e-01,1.40209e-01,2.99364e-02,2.90555e-02,2.47469e-01,0.00000e+00,0.00000e+00,0.00000e+00,0.00000e+00,0.00000e+00,0.00000e+00,0.00000e+00,0.00000e+00,0.00000e+00,0.00000e+00,0.00000e+00,0.00000e+00,0.00000e+00,0.00000e+00,0.00000e+00,0.00000e+00,0.00000e+00,0.00000e+00,0.00000e+00,0.00000e+00,0.00000e+00,0.00000e+00,0.00000e+00,0.00000e+00,0.00000e+00,0.00000e+00,0.00000e+00,0.00000e+00,0.00000e+00,0.00000e+00,-3.44418e-02,-4.27574e-01,8.65198e-02,5.50369e-01,1.39381e-01,1.49589e-01,-1.62642e-01,1.49996e-01,-1.83768e-02,-2.39223e-01,1.14731e-01,1.07139e-01,9.88755e-02,-2.14335e-01,-1.16027e-01,-3.25229e-02,2.24331e-02,-1.79932e-01,-1.06787e-02,-8.24539e-03,0.00000e+00,0.00000e+00,0.00000e+00,0.00000e+00,0.00000e+00,0.00000e+00,0.00000e+00,0.00000e+00,0.00000e+00,0.00000e+00,
-2.81619e-01,-5.27203e-02,-8.68157e-02,2.36465e-01,-2.12212e-01,5.48782e-03,2.49212e-01,9.81054e-02,1.70980e-01,2.14685e-01,0.00000e+00,0.00000e+00,0.00000e+00,0.00000e+00,0.00000e+00,0.00000e+00,0.00000e+00,0.00000e+00,0.00000e+00,0.00000e+00,0.00000e+00,0.00000e+00,0.00000e+00,0.00000e+00,0.00000e+00,0.00000e+00,0.00000e+00,0.00000e+00,0.00000e+00,0.00000e+00,0.00000e+00,0.00000e+00,0.00000e+00,0.00000e+00,0.00000e+00,0.00000e+00,0.00000e+00,0.00000e+00,0.00000e+00,0.00000e+00,-8.65909e-02,2.78088e-01,9.14975e-03,-4.25493e-01,3.75537e-01,-1.51512e-01,-4.30910e-01,-6.08627e-02,-2.99786e-01,-9.55127e-02,3.68210e-01,-2.25367e-01,7.76660e-02,1.89028e-01,-1.63325e-01,1.46024e-01,1.81698e-01,-3.72427e-02,1.28805e-01,-1.19172e-01,0.00000e+00,0.00000e+00,0.00000e+00,0.00000e+00,0.00000e+00,0.00000e+00,0.00000e+00,0.00000e+00,0.00000e+00,0.00000e+00,
-3.72809e-01,1.35279e-01,1.41667e-01,-2.57609e-01,7.67582e-02,-3.04657e-01,1.76754e-01,4.13087e-01,1.28798e-01,-1.21243e-01,0.00000e+00,0.00000e+00,0.00000e+00,0.00000e+00,0.00000e+00,0.00000e+00,0.00000e+00,0.00000e+00,0.00000e+00,0.00000e+00,0.00000e+00,0.00000e+00,0.00000e+00,0.00000e+00,0.00000e+00,0.00000e+00,0.00000e+00,0.00000e+00,0.00000e+00,0.00000e+00,0.00000e+00,0.00000e+00,0.00000e+00,0.00000e+00,0.00000e+00,0.00000e+00,0.00000e+00,0.00000e+00,0.00000e+00,0.00000e+00,2.11580e-01,-8.67637e-02,-3.05631e-01,2.86437e-02,-1.72898e-01,1.45740e-01,1.49033e-02,-2.81142e-01,-4.15420e-02,2.54168e-02,1.61229e-01,-4.85152e-02,1.63965e-01,2.28965e-01,9.61402e-02,1.58918e-01,-1.91657e-01,-1.31945e-01,-8.72558e-02,9.58261e-02,0.00000e+00,0.00000e+00,0.00000e+00,0.00000e+00,0.00000e+00,0.00000e+00,0.00000e+00,0.00000e+00,0.00000e+00,0.00000e+00,
-2.57318e-01,1.80843e-01,2.10177e-01,-1.62533e-01,3.92167e-02,1.21449e-01,-1.19183e-01,4.11173e-02,-8.58718e-02,2.24902e-01,0.00000e+00,0.00000e+00,0.00000e+00,0.00000e+00,0.00000e+00,0.00000e+00,0.00000e+00,0.00000e+00,0.00000e+00,0.00000e+00,0.00000e+00,0.00000e+00,0.00000e+00,0.00000e+00,0.00000e+00,0.00000e+00,0.00000e+00,0.00000e+00,0.00000e+00,0.00000e+00,0.00000e+00,0.00000e+00,0.00000e+00,0.00000e+00,0.00000e+00,0.00000e+00,0.00000e+00,0.00000e+00,0.00000e+00,0.00000e+00,2.24666e-01,1.59412e-01,-1.69433e-01,1.77793e-01,2.68056e-02,-2.52363e-01,1.45882e-01,-2.03699e-01,1.95146e-02,-3.36720e-02,3.26518e-02,-3.40256e-01,-4.07447e-02,-1.52600e-02,-6.60223e-02,1.30914e-01,-2.66997e-02,1.62581e-01,6.63572e-02,-1.91230e-01,0.00000e+00,0.00000e+00,0.00000e+00,0.00000e+00,0.00000e+00,0.00000e+00,0.00000e+00,0.00000e+00,0.00000e+00,0.00000e+00,
-7.58290e-03,5.76956e-01,-1.39915e-01,-2.44728e-01,2.63602e-01,-2.01468e-01,-8.04875e-02,1.94664e-01,1.41685e-02,-2.23269e-01,0.00000e+00,0.00000e+00,0.00000e+00,0.00000e+00,0.00000e+00,0.00000e+00,0.00000e+00,0.00000e+00,0.00000e+00,0.00000e+00,0.00000e+00,0.00000e+00,0.00000e+00,0.00000e+00,0.00000e+00,0.00000e+00,0.00000e+00,0.00000e+00,0.00000e+00,0.00000e+00,0.00000e+00,0.00000e+00,0.00000e+00,0.00000e+00,0.00000e+00,0.00000e+00,0.00000e+00,0.00000e+00,0.00000e+00,0.00000e+00,-6.59244e-02,-2.51902e-01,5.21590e-02,9.70712e-02,1.69474e-01,2.89693e-02,1.66955e-02,-1.10796e-01,-6.95188e-02,3.72542e-02,7.35073e-02,-3.25054e-01,8.77560e-02,1.47657e-01,-4.33076e-01,1.72498e-01,6.37920e-02,-8.38679e-02,5.53503e-02,1.86015e-01,0.00000e+00,0.00000e+00,0.00000e+00,0.00000e+00,0.00000e+00,0.00000e+00,0.00000e+00,0.00000e+00,0.00000e+00,0.00000e+00,
6.85800e-02,4.61701e-01,-4.24740e-02,4.11325e-01,-1.07089e-01,-4.56660e-02,-1.57065e-01,2.83213e-01,9.93002e-02,-1.71260e-01,0.00000e+00,0.00000e+00,0.00000e+00,0.00000e+00,0.00000e+00,0.00000e+00,0.00000e+00,0.00000e+00,0.00000e+00,0.00000e+00,0.00000e+00,0.00000e+00,0.00000e+00,0.00000e+00,0.00000e+00,0.00000e+00,0.00000e+00,0.00000e+00,0.00000e+00,0.00000e+00,3.04183e-01,-1.36343e-02,9.14368e-02,1.09898e-01,1.12821e-01,-4.55990e-02,1.68009e-01,-1.02508e-01,-1.59498e-01,9.93301e-02,-3.72763e-01,-4.48066e-01,-4.89628e-02,-5.21223e-01,-5.73201e-03,9.12650e-02,-1.09437e-02,-1.80705e-01,6.01977e-02,7.19300e-02,0.00000e+00,0.00000e+00,0.00000e+00,0.00000e+00,0.00000e+00,0.00000e+00,0.00000e+00,0.00000e+00,0.00000e+00,0.00000e+00,0.00000e+00,0.00000e+00,0.00000e+00,0.00000e+00,0.00000e+00,0.00000e+00,0.00000e+00,0.00000e+00,0.00000e+00,0.00000e+00,
-3.32669e-01,2.72819e-02,-1.88533e-02,2.44242e-01,-1.97277e-01,-1.14649e-01,2.44606e-02,-6.31989e-02,2.98023e-02,-1.34178e-01,0.00000e+00,0.00000e+00,0.00000e+00,0.00000e+00,0.00000e+00,0.00000e+00,0.00000e+00,0.00000e+00,0.00000e+00,0.00000e+00,0.00000e+00,0.00000e+00,0.00000e+00,0.00000e+00,0.00000e+00,0.00000e+00,0.00000e+00,0.00000e+00,0.00000e+00,0.00000e+00,2.28095e-01,-7.20791e-02,2.14190e-01,7.36989e-02,9.16873e-02,1.48363e-01,2.08389e-03,1.34541e-01,7.24515e-02,-5.26989e-03,1.04574e-01,4.47972e-02,-1.95337e-01,-3.17941e-01,1.05590e-01,-3.37137e-02,-2.65445e-02,-7.13418e-02,-1.02254e-01,1.39448e-01,0.00000e+00,0.00000e+00,0.00000e+00,0.00000e+00,0.00000e+00,0.00000e+00,0.00000e+00,0.00000e+00,0.00000e+00,0.00000e+00,0.00000e+00,0.00000e+00,0.00000e+00,0.00000e+00,0.00000e+00,0.00000e+00,0.00000e+00,0.00000e+00,0.00000e+00,0.00000e+00,
-7.52390e-02,5.66105e-04,1.37030e-01,2.76407e-01,2.85995e-01,-1.37072e-01,3.47948e-01,2.41114e-01,4.10593e-02,-1.37167e-01,0.00000e+00,0.00000e+00,0.00000e+00,0.00000e+00,0.00000e+00,0.00000e+00,0.00000e+00,0.00000e+00,0.00000e+00,0.00000e+00,0.00000e+00,0.00000e+00,0.00000e+00,0.00000e+00,0.00000e+00,0.00000e+00,0.00000e+00,0.00000e+00,0.00000e+00,0.00000e+00,-3.82805e-01,-2.04914e-01,-8.67588e-02,3.05366e-01,1.25608e-01,2.07222e-01,4.00935e-02,-1.18800e-01,8.03736e-02,-2.16731e-01,4.58044e-01,2.04348e-01,-5.02717e-02,-5.81773e-01,-4.11603e-01,-7.01498e-02,-3.88042e-01,-1.22314e-01,-1.21433e-01,3.53897e-01,0.00000e+00,0.00000e+00,0.00000e+00,0.00000e+00,0.00000e+00,0.00000e+00,0.00000e+00,0.00000e+00,0.00000e+00,0.00000e+00,0.00000e+00,0.00000e+00,0.00000e+00,0.00000e+00,0.00000e+00,0.00000e+00,0.00000e+00,0.00000e+00,0.00000e+00,0.00000e+00,
-2.51224e-01,-5.95610e-02,2.27862e-01,-7.02861e-02,2.30605e-01,6.20065e-02,1.54592e-01,-9.35719e-02,-7.27325e-02,-1.21265e-02,0.00000e+00,0.00000e+00,0.00000e+00,0.00000e+00,0.00000e+00,0.00000e+00,0.00000e+00,0.00000e+00,0.00000e+00,0.00000e+00,0.00000e+00,0.00000e+00,0.00000e+00,0.00000e+00,0.00000e+00,0.00000e+00,0.00000e+00,0.00000e+00,0.00000e+00,0.00000e+00,1.92826e-01,-2.22941e-01,2.07164e-01,-1.68253e-01,-2.03920e-01,-1.82714e-01,-2.63590e-01,4.47129e-02,3.78032e-02,1.41530e-01,5.83974e-02,2.82502e-01,-4.35026e-01,2.38539e-01,-2.66854e-02,1.20707e-01,1.08998e-01,4.88590e-02,3.49292e-02,-1.29404e-01,0.00000e+00,0.00000e+00,0.00000e+00,0.00000e+00,0.00000e+00,0.00000e+00,0.00000e+00,0.00000e+00,0.00000e+00,0.00000e+00,0.00000e+00,0.00000e+00,0.00000e+00,0.00000e+00,0.00000e+00,0.00000e+00,0.00000e+00,0.00000e+00,0.00000e+00,0.00000e+00,
-3.02964e-01,-1.43899e-01,9.84098e-02,-8.46276e-02,-2.30564e-02,2.82220e-01,1.76639e-01,-2.37601e-01,-9.14457e-02,2.73301e-01,0.00000e+00,0.00000e+00,0.00000e+00,0.00000e+00,0.00000e+00,0.00000e+00,0.00000e+00,0.00000e+00,0.00000e+00,0.00000e+00,0.00000e+00,0.00000e+00,0.00000e+00,0.00000e+00,0.00000e+00,0.00000e+00,0.00000e+00,0.00000e+00,0.00000e+00,0.00000e+00,1.00021e-01,-3.71253e-01,1.11853e-01,2.80124e-01,-1.49803e-01,-1.27913e-01,1.64612e-01,2.11678e-03,1.83801e-02,-3.13279e-01,2.02943e-01,5.15152e-01,-2.10262e-01,-1.95497e-01,1.72860e-01,-1.54307e-01,-3.41250e-01,2.35484e-01,7.30657e-02,3.99780e-02,0.00000e+00,0.00000e+00,0.00000e+00,0.00000e+00,0.00000e+00,0.00000e+00,0.00000e+00,0.00000e+00,0.00000e+00,0.00000e+00,0.00000e+00,0.00000e+00,0.00000e+00,0.00000e+00,0.00000e+00,0.00000e+00,0.00000e+00,0.00000e+00,0.00000e+00,0.00000e+00,
-2.66933e-01,1.75407e-01,9.56539e-02,-2.43003e-01,-5.13871e-02,-5.65020e-02,-1.54030e-01,-4.85097e-02,-7.42335e-02,1.25330e-02,0.00000e+00,0.00000e+00,0.00000e+00,0.00000e+00,0.00000e+00,0.00000e+00,0.00000e+00,0.00000e+00,0.00000e+00,0.00000e+00,0.00000e+00,0.00000e+00,0.00000e+00,0.00000e+00,0.00000e+00,0.00000e+00,0.00000e+00,0.00000e+00,0.00000e+00,0.00000e+00,3.25494e-01,-1.61206e-01,1.04057e-01,-2.31044e-01,-1.51685e-01,-6.95710e-02,4.32977e-02,-1.46445e-01,-8.42109e-02,-1.54842e-01,-5.85610e-02,-1.42017e-02,-1.99711e-01,4.74046e-01,2.03072e-01,1.26073e-01,1.10733e-01,1.94955e-01,1.58444e-01,1.42309e-01,0.00000e+00,0.00000e+00,0.00000e+00,0.00000e+00,0.00000e+00,0.00000e+00,0.00000e+00,0.00000e+00,0.00000e+00,0.00000e+00,0.00000e+00,0.00000e+00,0.00000e+00,0.00000e+00,0.00000e+00,0.00000e+00,0.00000e+00,0.00000e+00,0.00000e+00,0.00000e+00,
-2.23602e-01,-7.91537e-02,5.52106e-02,-1.78540e-01,-2.16621e-01,-5.01408e-02,3.42097e-03,-1.12603e-01,7.74021e-02,5.98566e-02,0.00000e+00,0.00000e+00,0.00000e+00,0.00000e+00,0.00000e+00,0.00000e+00,0.00000e+00,0.00000e+00,0.00000e+00,0.00000e+00,0.00000e+00,0.00000e+00,0.00000e+00,0.00000e+00,0.00000e+00,0.00000e+00,0.00000e+00,0.00000e+00,0.00000e+00,0.00000e+00,1.64532e-01,7.45233e-02,-1.30154e-01,2.43970e-01,3.44731e-02,-2.81501e-02,-1.73378e-01,-2.30275e-01,-2.42046e-03,-1.18073e-01,5.90704e-02,4.63032e-03,7.49433e-02,-6.54295e-02,1.82148e-01,7.82909e-02,1.69957e-01,3.42878e-01,-7.49816e-02,5.82164e-02,0.00000e+00,0.00000e+00,0.00000e+00,0.00000e+00,0.00000e+00,0.00000e+00,0.00000e+00,0.00000e+00,0.00000e+00,0.00000e+00,0.00000e+00,0.00000e+00,0.00000e+00,0.00000e+00,0.00000e+00,0.00000e+00,0.00000e+00,0.00000e+00,0.00000e+00,0.00000e+00,
-6.82620e-02,-6.73114e-01,2.88270e-01,-4.63980e-02,-1.63446e-01,5.63016e-02,3.01393e-01,1.39438e-01,1.98369e-01,-3.01175e-02,0.00000e+00,0.00000e+00,0.00000e+00,0.00000e+00,0.00000e+00,0.00000e+00,0.00000e+00,0.00000e+00,0.00000e+00,0.00000e+00,0.00000e+00,0.00000e+00,0.00000e+00,0.00000e+00,0.00000e+00,0.00000e+00,0.00000e+00,0.00000e+00,0.00000e+00,0.00000e+00,2.40847e-01,1.17856e-01,-2.74452e-01,6.37452e-02,4.27229e-01,-1.15546e-01,2.10765e-01,5.55268e-02,-5.00855e-02,-1.39990e-02,-1.72585e-01,5.55259e-01,-1.38177e-02,-1.73472e-02,-2.63783e-01,5.92445e-02,-5.12159e-01,-1.94965e-01,-1.48283e-01,4.41165e-02,0.00000e+00,0.00000e+00,0.00000e+00,0.00000e+00,0.00000e+00,0.00000e+00,0.00000e+00,0.00000e+00,0.00000e+00,0.00000e+00,0.00000e+00,0.00000e+00,0.00000e+00,0.00000e+00,0.00000e+00,0.00000e+00,0.00000e+00,0.00000e+00,0.00000e+00,0.00000e+00,
1.30714e-01,3.64686e-01,1.13300e-01,-1.46157e-01,-6.84864e-02,-1.95434e-01,-1.30582e-01,4.92032e-01,1.93192e-01,-3.41840e-01,0.00000e+00,0.00000e+00,0.00000e+00,0.00000e+00,0.00000e+00,0.00000e+00,0.00000e+00,0.00000e+00,0.00000e+00,0.00000e+00,0.00000e+00,0.00000e+00,0.00000e+00,0.00000e+00,0.00000e+00,0.00000e+00,0.00000e+00,0.00000e+00,0.00000e+00,0.00000e+00,-2.28167e-01,4.42433e-02,1.97210e-01,1.21713e-02,-4.01697e-01,1.35054e-02,-1.11709e-01,2.24120e-01,2.44589e-01,1.08964e-01,9.74529e-02,-4.08929e-01,-3.10511e-01,1.33985e-01,4.70184e-01,1.81929e-01,2.42291e-01,-7.16152e-01,-4.37781e-01,2.32876e-01,0.00000e+00,0.00000e+00,0.00000e+00,0.00000e+00,0.00000e+00,0.00000e+00,0.00000e+00,0.00000e+00,0.00000e+00,0.00000e+00,0.00000e+00,0.00000e+00,0.00000e+00,0.00000e+00,0.00000e+00,0.00000e+00,0.00000e+00,0.00000e+00,0.00000e+00,0.00000e+00,
-2.64704e-02,4.58714e-01,-9.69855e-02,-7.17006e-02,1.60960e-01,1.50176e-01,8.72951e-02,-3.26610e-02,-1.19410e-01,5.79022e-02,0.00000e+00,0.00000e+00,0.00000e+00,0.00000e+00,0.00000e+00,0.00000e+00,0.00000e+00,0.00000e+00,0.00000e+00,0.00000e+00,0.00000e+00,0.00000e+00,0.00000e+00,0.00000e+00,0.00000e+00,0.00000e+00,0.00000e+00,0.00000e+00,0.00000e+00,0.00000e+00,7.63191e-02,-3.80411e-01,7.73941e-02,1.46752e-01,-1.54769e-01,7.95031e-02,-2.78703e-02,-4.48255e-02,-9.41465e-03,9.99260e-02,-4.98486e-02,-7.83034e-02,1.95914e-02,-7.50515e-02,-6.19102e-03,-2.29679e-01,-5.94247e-02,7.74865e-02,1.28824e-01,-1.57828e-01,0.00000e+00,0.00000e+00,0.00000e+00,0.00000e+00,0.00000e+00,0.00000e+00,0.00000e+00,0.00000e+00,0.00000e+00,0.00000e+00,0.00000e+00,0.00000e+00,0.00000e+00,0.00000e+00,0.00000e+00,0.00000e+00,0.00000e+00,0.00000e+00,0.00000e+00,0.00000e+00,
-4.74216e-01,-1.79545e-01,2.53586e-01,4.65577e-02,-6.84810e-02,-1.62912e-01,-8.15649e-02,-1.76710e-01,-4.62043e-02,1.10337e-01,0.00000e+00,0.00000e+00,0.00000e+00,0.00000e+00,0.00000e+00,0.00000e+00,0.00000e+00,0.00000e+00,0.00000e+00,0.00000e+00,0.00000e+00,0.00000e+00,0.00000e+00,0.00000e+00,0.00000e+00,0.00000e+00,0.00000e+00,0.00000e+00,0.00000e+00,0.00000e+00,3.43402e-01,3.42901e-02,-3.36435e-01,-5.27127e-02,4.00342e-02,2.18988e-01,1.14731e-01,-1.85299e-02,9.68218e-02,-1.36614e-01,1.30814e-01,1.45255e-01,8.28483e-02,6.15508e-03,2.84468e-02,-5.60754e-02,-3.31666e-02,1.95240e-01,-5.06175e-02,2.62770e-02,0.00000e+00,0.00000e+00,0.00000e+00,0.00000e+00,0.00000e+00,0.00000e+00,0.00000e+00,0.00000e+00,0.00000e+00,0.00000e+00,0.00000e+00,0.00000e+00,0.00000e+00,0.00000e+00,0.00000e+00,0.00000e+00,0.00000e+00,0.00000e+00,0.00000e+00,0.00000e+00,
-2.95216e-01,4.49629e-01,6.85611e-02,1.81183e-02,-1.78414e-01,2.47099e-01,9.76602e-02,2.04820e-01,-2.05028e-01,-1.16755e-01,0.00000e+00,0.00000e+00,0.00000e+00,0.00000e+00,0.00000e+00,0.00000e+00,0.00000e+00,0.00000e+00,0.00000e+00,0.00000e+00,0.00000e+00,0.00000e+00,0.00000e+00,0.00000e+00,0.00000e+00,0.00000e+00,0.00000e+00,0.00000e+00,0.00000e+00,0.00000e+00,-9.60547e-02,5.15637e-02,1.52557e-01,1.38971e-01,1.15273e-01,1.15120e-01,-1.08312e-01,-2.31892e-01,-2.99336e-01,-1.78329e-01,3.91271e-01,-5.01193e-01,-2.21118e-01,-1.57089e-01,6.31404e-02,-3.62219e-01,1.06514e-02,2.70723e-02,5.04364e-01,2.95085e-01,0.00000e+00,0.00000e+00,0.00000e+00,0.00000e+00,0.00000e+00,0.00000e+00,0.00000e+00,0.00000e+00,0.00000e+00,0.00000e+00,0.00000e+00,0.00000e+00,0.00000e+00,0.00000e+00,0.00000e+00,0.00000e+00,0.00000e+00,0.00000e+00,0.00000e+00,0.00000e+00,
-4.95913e-02,1.00665e-01,2.44410e-03,-3.15882e-01,-1.53207e-01,-2.27871e-02,2.21862e-02,9.64474e-02,-1.69673e-01,4.43288e-01,0.00000e+00,0.00000e+00,0.00000e+00,0.00000e+00,0.00000e+00,0.00000e+00,0.00000e+00,0.00000e+00,0.00000e+00,0.00000e+00,0.00000e+00,0.00000e+00,0.00000e+00,0.00000e+00,0.00000e+00,0.00000e+00,0.00000e+00,0.00000e+00,0.00000e+00,0.00000e+00,7.35618e-02,-1.96268e-01,-9.14400e-02,-2.91396e-01,6.52288e-03,-1.82798e-01,2.03058e-01,-1.79749e-01,1.22044e-01,1.42507e-01,-2.39706e-02,9.56028e-02,8.89959e-02,6.07277e-01,1.46684e-01,2.05585e-01,-2.25244e-01,8.33011e-02,4.76287e-02,-5.85795e-01,0.00000e+00,0.00000e+00,0.00000e+00,0.00000e+00,0.00000e+00,0.00000e+00,0.00000e+00,0.00000e+00,0.00000e+00,0.00000e+00,0.00000e+00,0.00000e+00,0.00000e+00,0.00000e+00,0.00000e+00,0.00000e+00,0.00000e+00,0.00000e+00,0.00000e+00,0.00000e+00,
1.47929e-01,-3.06836e-02,1.70788e-01,-7.32745e-03,7.29485e-02,4.49968e-01,3.89767e-03,6.27274e-02,-3.14153e-02,-3.00958e-02,0.00000e+00,0.00000e+00,0.00000e+00,0.00000e+00,0.00000e+00,0.00000e+00,0.00000e+00,0.00000e+00,0.00000e+00,0.00000e+00,0.00000e+00,0.00000e+00,0.00000e+00,0.00000e+00,0.00000e+00,0.00000e+00,0.00000e+00,0.00000e+00,0.00000e+00,0.00000e+00,6.57694e-02,-2.27080e-01,1.49698e-01,3.01303e-01,1.23970e-01,1.17843e-02,-2.67012e-01,-4.90393e-02,1.55242e-01,-2.21545e-01,-2.13698e-01,2.57764e-01,-3.20486e-01,-2.93976e-01,-1.96919e-01,-4.61752e-01,2.63114e-01,-1.36882e-02,-1.23827e-01,2.51641e-01,0.00000e+00,0.00000e+00,0.00000e+00,0.00000e+00,0.00000e+00,0.00000e+00,0.00000e+00,0.00000e+00,0.00000e+00,0.00000e+00,0.00000e+00,0.00000e+00,0.00000e+00,0.00000e+00,0.00000e+00,0.00000e+00,0.00000e+00,0.00000e+00,0.00000e+00,0.00000e+00,
-2.47448e-01,-1.27937e-01,1.79166e-01,-2.26728e-01,-1.21861e-01,1.00589e-01,-2.11098e-01,2.35322e-01,2.29434e-01,1.07772e-01,0.00000e+00,0.00000e+00,0.00000e+00,0.00000e+00,0.00000e+00,0.00000e+00,0.00000e+00,0.00000e+00,0.00000e+00,0.00000e+00,0.00000e+00,0.00000e+00,0.00000e+00,0.00000e+00,0.00000e+00,0.00000e+00,0.00000e+00,0.00000e+00,0.00000e+00,0.00000e+00,4.20632e-02,-6.24276e-02,-1.65159e-01,-2.29466e-01,1.12979e-01,-5.22440e-02,-1.81070e-01,-6.05985e-02,-1.23629e-01,-9.94012e-02,2.05385e-01,1.90365e-01,-1.40076e-02,4.56195e-01,8.88151e-03,-4.83451e-02,3.92169e-01,-1.74724e-01,-1.05805e-01,-8.37098e-03,0.00000e+00,0.00000e+00,0.00000e+00,0.00000e+00,0.00000e+00,0.00000e+00,0.00000e+00,0.00000e+00,0.00000e+00,0.00000e+00,0.00000e+00,0.00000e+00,0.00000e+00,0.00000e+00,0.00000e+00,0.00000e+00,0.00000e+00,0.00000e+00,0.00000e+00,0.00000e+00,
-1.88031e-01,-1.20117e-02,1.12633e-01,-2.91195e-01,-2.18589e-01,2.41313e-01,1.74932e-02,1.19386e-01,-9.51127e-02,2.06104e-01,0.00000e+00,0.00000e+00,0.00000e+00,0.00000e+00,0.00000e+00,0.00000e+00,0.00000e+00,0.00000e+00,0.00000e+00,0.00000e+00,0.00000e+00,0.00000e+00,0.00000e+00,0.00000e+00,0.00000e+00,0.00000e+00,0.00000e+00,0.00000e+00,0.00000e+00,0.00000e+00,2.82797e-01,-3.64560e-06,-1.75163e-01,5.58671e-02,1.89870e-01,-2.40912e-02,2.60655e-02,1.57979e-01,-6.31857e-02,1.89281e-02,-9.47657e-02,1.20153e-02,6.25296e-02,2.35328e-01,2.87187e-02,-2.17222e-01,-4.35587e-02,-2.77365e-01,1.58298e-01,-2.25032e-01,0.00000e+00,0.00000e+00,0.00000e+00,0.00000e+00,0.00000e+00,0.00000e+00,0.00000e+00,0.00000e+00,0.00000e+00,0.00000e+00,0.00000e+00,0.00000e+00,0.00000e+00,0.00000e+00,0.00000e+00,0.00000e+00,0.00000e+00,0.00000e+00,0.00000e+00,0.00000e+00,
-4.41668e-01,-1.65102e-01,2.11913e-01,8.43152e-02,-2.36266e-01,-8.88316e-02,-5.51103e-02,-2.18041e-01,-1.10394e-01,-2.91197e-02,0.00000e+00,0.00000e+00,0.00000e+00,0.00000e+00,0.00000e+00,0.00000e+00,0.00000e+00,0.00000e+00,0.00000e+00,0.00000e+00,0.00000e+00,0.00000e+00,0.00000e+00,0.00000e+00,0.00000e+00,0.00000e+00,0.00000e+00,0.00000e+00,0.00000e+00,0.00000e+00,1.42020e-01,2.21944e-01,-2.96906e-01,-1.05941e-01,2.68346e-01,-6.88296e-02,6.68472e-02,1.09225e-01,-1.03067e-01,-1.22099e-01,2.99648e-01,-5.68417e-02,8.49927e-02,2.16253e-02,-3.20794e-02,1.57661e-01,-1.17370e-02,1.08816e-01,2.13460e-01,1.51218e-01,0.00000e+00,0.00000e+00,0.00000e+00,0.00000e+00,0.00000e+00,0.00000e+00,0.00000e+00,0.00000e+00,0.00000e+00,0.00000e+00,0.00000e+00,0.00000e+00,0.00000e+00,0.00000e+00,0.00000e+00,0.00000e+00,0.00000e+00,0.00000e+00,0.00000e+00,0.00000e+00,
-2.58299e-01,1.54583e-01,1.96446e-02,-2.37456e-01,-3.11144e-01,-8.64260e-02,1.19049e-01,-1.58350e-01,-2.13931e-01,6.92307e-03,0.00000e+00,0.00000e+00,0.00000e+00,0.00000e+00,0.00000e+00,0.00000e+00,0.00000e+00,0.00000e+00,0.00000e+00,0.00000e+00,0.00000e+00,0.00000e+00,0.00000e+00,0.00000e+00,0.00000e+00,0.00000e+00,0.00000e+00,0.00000e+00,0.00000e+00,0.00000e+00,1.09755e-01,2.56315e-01,1.13078e-01,2.02981e-01,-2.64579e-02,-5.10645e-02,1.20053e-01,-1.51007e-01,-2.65143e-01,1.36701e-01,1.48544e-01,-4.10897e-01,-1.32722e-01,3.44753e-02,3.37602e-01,1.37490e-01,-2.39102e-01,3.09358e-01,4.79075e-01,-1.43624e-01,0.00000e+00,0.00000e+00,0.00000e+00,0.00000e+00,0.00000e+00,0.00000e+00,0.00000e+00,0.00000e+00,0.00000e+00,0.00000e+00,0.00000e+00,0.00000e+00,0.00000e+00,0.00000e+00,0.00000e+00,0.00000e+00,0.00000e+00,0.00000e+00,0.00000e+00,0.00000e+00,
-3.55187e-01,-4.02567e-02,-2.29587e-01,-3.54897e-02,-6.70879e-02,3.25358e-01,7.41581e-02,-2.88441e-01,-1.36960e-01,1.93557e-01,0.00000e+00,0.00000e+00,0.00000e+00,0.00000e+00,0.00000e+00,0.00000e+00,0.00000e+00,0.00000e+00,0.00000e+00,0.00000e+00,0.00000e+00,0.00000e+00,0.00000e+00,0.00000e+00,0.00000e+00,0.00000e+00,0.00000e+00,0.00000e+00,0.00000e+00,0.00000e+00,3.91549e-01,4.61056e-02,-2.54549e-01,1.72540e-01,-1.47356e-01,-2.47839e-02,-1.78404e-02,6.63664e-02,2.23484e-01,-2.56664e-01,-3.63615e-02,-5.84883e-03,4.84136e-01,-1.37050e-01,2.14444e-01,-3.00574e-01,-5.63176e-02,2.22074e-01,-8.65246e-02,6.31064e-02,0.00000e+00,0.00000e+00,0.00000e+00,0.00000e+00,0.00000e+00,0.00000e+00,0.00000e+00,0.00000e+00,0.00000e+00,0.00000e+00,0.00000e+00,0.00000e+00,0.00000e+00,0.00000e+00,0.00000e+00,0.00000e+00,0.00000e+00,0.00000e+00,0.00000e+00,0.00000e+00,
2.09114e-01,-8.09668e-03,8.96698e-02,1.24006e-01,-1.80341e-01,2.11060e-01,-1.50816e-01,4.87808e-02,1.50006e-01,1.85761e-02,0.00000e+00,0.00000e+00,0.00000e+00,0.00000e+00,0.00000e+00,0.00000e+00,0.00000e+00,0.00000e+00,0.00000e+00,0.00000e+00,0.00000e+00,0.00000e+00,0.00000e+00,0.00000e+00,0.00000e+00,0.00000e+00,0.00000e+00,0.00000e+00,0.00000e+00,0.00000e+00,9.06392e-02,-1.00123e-01,-5.40972e-02,3.31370e-02,7.07716e-02,-1.18962e-01,-9.11074e-02,9.74663e-02,1.55136e-01,-4.27172e-02,-2.99753e-01,1.08220e-01,-3.55727e-02,-1.57143e-01,1.09569e-01,-9.20980e-02,2.41923e-01,-1.46247e-01,-3.05142e-01,2.41411e-02,0.00000e+00,0.00000e+00,0.00000e+00,0.00000e+00,0.00000e+00,0.00000e+00,0.00000e+00,0.00000e+00,0.00000e+00,0.00000e+00,0.00000e+00,0.00000e+00,0.00000e+00,0.00000e+00,0.00000e+00,0.00000e+00,0.00000e+00,0.00000e+00,0.00000e+00,0.00000e+00,
-2.04488e-01,3.76386e-01,-1.69615e-02,-3.78932e-02,-1.33942e-01,-1.47916e-01,-8.18022e-02,-2.92330e-02,-1.77406e-02,6.60019e-02,0.00000e+00,0.00000e+00,0.00000e+00,0.00000e+00,0.00000e+00,0.00000e+00,0.00000e+00,0.00000e+00,0.00000e+00,0.00000e+00,0.00000e+00,0.00000e+00,0.00000e+00,0.00000e+00,0.00000e+00,0.00000e+00,0.00000e+00,0.00000e+00,0.00000e+00,0.00000e+00,9.88112e-03,-2.30427e-01,1.36877e-01,7.86048e-03,1.92438e-01,4.78025e-02,2.01971e-02,8.90494e-02,-1.61180e-01,-1.58095e-01,1.94607e-01,-1.45959e-01,-1.19916e-01,3.00327e-02,-5.84966e-02,1.00113e-01,6.16050e-02,-5.98163e-02,1.78920e-01,9.20930e-02,0.00000e+00,0.00000e+00,0.00000e+00,0.00000e+00,0.00000e+00,0.00000e+00,0.00000e+00,0.00000e+00,0.00000e+00,0.00000e+00,0.00000e+00,0.00000e+00,0.00000e+00,0.00000e+00,0.00000e+00,0.00000e+00,0.00000e+00,0.00000e+00,0.00000e+00,0.00000e+00,
-2.81475e-01,1.59113e-01,-4.53214e-01,5.47530e-02,1.50597e-01,1.19967e-01,3.06253e-02,-1.93268e-01,-1.22593e-03,5.35370e-02,0.00000e+00,0.00000e+00,0.00000e+00,0.00000e+00,0.00000e+00,0.00000e+00,0.00000e+00,0.00000e+00,0.00000e+00,0.00000e+00,0.00000e+00,0.00000e+00,0.00000e+00,0.00000e+00,0.00000e+00,0.00000e+00,0.00000e+00,0.00000e+00,0.00000e+00,0.00000e+00,1.64528e-01,-1.89953e-01,-2.58843e-01,8.18192e-02,-1.77632e-01,1.08593e-01,-1.80484e-01,-8.56712e-03,6.98937e-02,-7.13380e-03,1.16947e-01,3.08397e-02,7.12057e-01,-1.36572e-01,2.70350e-02,-2.28561e-01,1.49858e-01,2.01835e-01,-6.86678e-02,-4.64032e-02,0.00000e+00,0.00000e+00,0.00000e+00,0.00000e+00,0.00000e+00,0.00000e+00,0.00000e+00,0.00000e+00,0.00000e+00,0.00000e+00,0.00000e+00,0.00000e+00,0.00000e+00,0.00000e+00,0.00000e+00,0.00000e+00,0.00000e+00,0.00000e+00,0.00000e+00,0.00000e+00,
-2.53489e-01,4.36800e-01,1.49849e-01,2.19303e-01,1.24542e-01,-2.75223e-02,-1.99440e-01,2.56061e-01,1.25480e-01,-1.09258e-01,0.00000e+00,0.00000e+00,0.00000e+00,0.00000e+00,0.00000e+00,0.00000e+00,0.00000e+00,0.00000e+00,0.00000e+00,0.00000e+00,0.00000e+00,0.00000e+00,0.00000e+00,0.00000e+00,0.00000e+00,0.00000e+00,0.00000e+00,0.00000e+00,0.00000e+00,0.00000e+00,1.19288e-02,-8.58144e-02,-6.35607e-02,1.10800e-01,1.28735e-01,1.97416e-01,-6.12855e-02,6.35613e-02,-4.15764e-02,-2.90208e-02,2.41560e-01,-3.50985e-01,-8.62883e-02,-3.30103e-01,-2.53277e-01,-1.69894e-01,2.60725e-01,-3.19623e-01,-8.39035e-02,1.38278e-01,0.00000e+00,0.00000e+00,0.00000e+00,0.00000e+00,0.00000e+00,0.00000e+00,0.00000e+00,0.00000e+00,0.00000e+00,0.00000e+00,0.00000e+00,0.00000e+00,0.00000e+00,0.00000e+00,0.00000e+00,0.00000e+00,0.00000e+00,0.00000e+00,0.00000e+00,0.00000e+00,
-3.86193e-02,7.46682e-02,-3.30171e-02,-1.83923e-01,-7.74497e-02,2.42542e-02,-3.25796e-03,1.48668e-01,3.29405e-03,2.56199e-01,0.00000e+00,0.00000e+00,0.00000e+00,0.00000e+00,0.00000e+00,0.00000e+00,0.00000e+00,0.00000e+00,0.00000e+00,0.00000e+00,0.00000e+00,0.00000e+00,0.00000e+00,0.00000e+00,0.00000e+00,0.00000e+00,0.00000e+00,0.00000e+00,0.00000e+00,0.00000e+00,5.44240e-01,1.31036e-02,-6.37354e-02,-6.96255e-02,-1.46259e-01,1.54299e-01,3.44064e-02,-3.87351e-02,-9.66158e-02,1.92914e-02,-5.05620e-01,-8.77719e-02,9.67525e-02,2.53549e-01,2.23709e-01,-1.78553e-01,-3.11484e-02,-1.09933e-01,9.33217e-02,-2.75490e-01,0.00000e+00,0.00000e+00,0.00000e+00,0.00000e+00,0.00000e+00,0.00000e+00,0.00000e+00,0.00000e+00,0.00000e+00,0.00000e+00,0.00000e+00,0.00000e+00,0.00000e+00,0.00000e+00,0.00000e+00,0.00000e+00,0.00000e+00,0.00000e+00,0.00000e+00,0.00000e+00,
-8.81002e-02,-3.37311e-01,-5.11677e-02,-1.66132e-01,-3.54063e-01,-1.33349e-01,2.19122e-01,-1.23319e-01,2.61835e-01,1.83186e-01,0.00000e+00,0.00000e+00,0.00000e+00,0.00000e+00,0.00000e+00,0.00000e+00,0.00000e+00,0.00000e+00,0.00000e+00,0.00000e+00,0.00000e+00,0.00000e+00,0.00000e+00,0.00000e+00,0.00000e+00,0.00000e+00,0.00000e+00,0.00000e+00,0.00000e+00,0.00000e+00,1.98292e-01,1.54513e-01,6.95122e-02,3.27964e-02,1.58290e-01,2.27713e-01,1.17624e-04,2.42251e-01,-1.45104e-01,-2.10275e-01,-1.10192e-01,1.82798e-01,-1.83445e-02,1.33336e-01,1.95773e-01,-9.43632e-02,-2.19240e-01,-1.18933e-01,-1.16731e-01,2.70887e-02,0.00000e+00,0.00000e+00,0.00000e+00,0.00000e+00,0.00000e+00,0.00000e+00,0.00000e+00,0.00000e+00,0.00000e+00,0.00000e+00,0.00000e+00,0.00000e+00,0.00000e+00,0.00000e+00,0.00000e+00,0.00000e+00,0.00000e+00,0.00000e+00,0.00000e+00,0.00000e+00,
-8.47952e-02,-5.64405e-02,3.25153e-03,2.00251e-01,1.79315e-01,4.65951e-01,-1.52138e-01,1.76253e-02,-1.44258e-01,-1.30959e-02,0.00000e+00,0.00000e+00,0.00000e+00,0.00000e+00,0.00000e+00,0.00000e+00,0.00000e+00,0.00000e+00,0.00000e+00,0.00000e+00,0.00000e+00,0.00000e+00,0.00000e+00,0.00000e+00,0.00000e+00,0.00000e+00,0.00000e+00,0.00000e+00,0.00000e+00,0.00000e+00,2.88494e-01,-2.40678e-01,-3.24188e-02,-3.00879e-01,-2.51130e-01,-3.62293e-01,2.77459e-01,-1.63576e-01,1.85802e-01,9.26970e-02,-2.03699e-01,2.97119e-01,2.91673e-02,1.00628e-01,7.18142e-02,-1.03658e-01,-1.25322e-01,1.45951e-01,-4.15439e-02,-7.96011e-02,0.00000e+00,0.00000e+00,0.00000e+00,0.00000e+00,0.00000e+00,0.00000e+00,0.00000e+00,0.00000e+00,0.00000e+00,0.00000e+00,0.00000e+00,0.00000e+00,0.00000e+00,0.00000e+00,0.00000e+00,0.00000e+00,0.00000e+00,0.00000e+00,0.00000e+00,0.00000e+00,
-1.57039e-01,3.17803e-01,-8.13227e-02,9.10992e-02,1.67404e-01,-1.10870e-01,1.49422e-01,9.06902e-02,-8.19257e-03,9.77156e-02,0.00000e+00,0.00000e+00,0.00000e+00,0.00000e+00,0.00000e+00,0.00000e+00,0.00000e+00,0.00000e+00,0.00000e+00,0.00000e+00,0.00000e+00,0.00000e+00,0.00000e+00,0.00000e+00,0.00000e+00,0.00000e+00,0.00000e+00,0.00000e+00,0.00000e+00,0.00000e+00,7.12509e-02,-2.74490e-01,-3.57653e-02,1.19054e-01,7.36132e-02,3.75973e-02,-2.38304e-01,-2.26805e-02,-1.70844e-01,1.98581e-01,8.57885e-02,-4.33134e-02,1.17088e-01,-2.10153e-01,-2.41017e-01,7.32725e-02,8.88821e-02,-6.80097e-02,1.79037e-01,-2.96297e-01,0.00000e+00,0.00000e+00,0.00000e+00,0.00000e+00,0.00000e+00,0.00000e+00,0.00000e+00,0.00000e+00,0.00000e+00,0.00000e+00,0.00000e+00,0.00000e+00,0.00000e+00,0.00000e+00,0.00000e+00,0.00000e+00,0.00000e+00,0.00000e+00,0.00000e+00,0.00000e+00,
-1.96629e-01,1.37680e-01,-1.36061e-01,1.84032e-01,2.81212e-01,2.64072e-01,1.36330e-01,2.97267e-01,1.18926e-01,-5.05967e-02,0.00000e+00,0.00000e+00,0.00000e+00,0.00000e+00,0.00000e+00,0.00000e+00,0.00000e+00,0.00000e+00,0.00000e+00,0.00000e+00,0.00000e+00,0.00000e+00,0.00000e+00,0.00000e+00,0.00000e+00,0.00000e+00,0.00000e+00,0.00000e+00,0.00000e+00,0.00000e+00,1.27122e-02,-1.18668e-01,-1.08201e-03,6.27548e-02,-2.49996e-01,-1.96407e-01,-1.16026e-01,-6.69404e-02,1.66060e-01,3.29356e-01,1.83917e-01,-1.90116e-02,1.37143e-01,-2.46787e-01,-3.12158e-02,-6.76650e-02,-2.03036e-02,-2.30327e-01,-2.84987e-01,-2.78760e-01,0.00000e+00,0.00000e+00,0.00000e+00,0.00000e+00,0.00000e+00,0.00000e+00,0.00000e+00,0.00000e+00,0.00000e+00,0.00000e+00,0.00000e+00,0.00000e+00,0.00000e+00,0.00000e+00,0.00000e+00,0.00000e+00,0.00000e+00,0.00000e+00,0.00000e+00,0.00000e+00,
1.92985e-02,4.24971e-01,1.84696e-01,-2.83093e-01,-1.65288e-01,-4.67618e-01,-6.41988e-02,2.25330e-02,-1.61137e-01,-4.71513e-01,0.00000e+00,0.00000e+00,0.00000e+00,0.00000e+00,0.00000e+00,0.00000e+00,0.00000e+00,0.00000e+00,0.00000e+00,0.00000e+00,0.00000e+00,0.00000e+00,0.00000e+00,0.00000e+00,0.00000e+00,0.00000e+00,0.00000e+00,0.00000e+00,0.00000e+00,0.00000e+00,-2.55873e-01,-3.00270e-01,-1.05591e-02,1.49917e-01,1.54146e-01,4.36492e-02,-2.15244e-02,1.63207e-01,-1.61898e-01,-2.48549e-01,2.36574e-01,-1.24701e-01,-1.74137e-01,1.33176e-01,1.11427e-02,4.23969e-01,8.57231e-02,-1.85740e-01,3.23036e-01,7.20062e-01,0.00000e+00,0.00000e+00,0.00000e+00,0.00000e+00,0.00000e+00,0.00000e+00,0.00000e+00,0.00000e+00,0.00000e+00,0.00000e+00,0.00000e+00,0.00000e+00,0.00000e+00,0.00000e+00,0.00000e+00,0.00000e+00,0.00000e+00,0.00000e+00,0.00000e+00,0.00000e+00,
7.48928e-02,-1.48313e-01,1.30662e-01,2.96982e-01,2.24212e-01,1.25962e-01,-5.67133e-02,1.55492e-01,-8.82603e-02,6.39869e-02,0.00000e+00,0.00000e+00,0.00000e+00,0.00000e+00,0.00000e+00,0.00000e+00,0.00000e+00,0.00000e+00,0.00000e+00,0.00000e+00,0.00000e+00,0.00000e+00,0.00000e+00,0.00000e+00,0.00000e+00,0.00000e+00,0.00000e+00,0.00000e+00,0.00000e+00,0.00000e+00,2.01736e-01,1.13637e-01,-6.72803e-02,-7.24437e-02,-3.79360e-01,-2.62323e-01,-3.03012e-02,-2.50125e-01,1.18670e-01,1.66050e-01,-2.76629e-01,3.46768e-02,-6.33816e-02,-2.24538e-01,1.55148e-01,1.36361e-01,8.70144e-02,9.46336e-02,-3.04096e-02,-2.30036e-01,0.00000e+00,0.00000e+00,0.00000e+00,0.00000e+00,0.00000e+00,0.00000e+00,0.00000e+00,0.00000e+00,0.00000e+00,0.00000e+00,0.00000e+00,0.00000e+00,0.00000e+00,0.00000e+00,0.00000e+00,0.00000e+00,0.00000e+00,0.00000e+00,0.00000e+00,0.00000e+00,
-2.81617e-01,3.34367e-01,-1.36907e-01,-1.32398e-01,-5.09287e-02,-1.55816e-01,-8.94230e-02,1.11030e-01,3.58966e-02,1.12116e-01,0.00000e+00,0.00000e+00,0.00000e+00,0.00000e+00,0.00000e+00,0.00000e+00,0.00000e+00,0.00000e+00,0.00000e+00,0.00000e+00,0.00000e+00,0.00000e+00,0.00000e+00,0.00000e+00,0.00000e+00,0.00000e+00,0.00000e+00,0.00000e+00,0.00000e+00,0.00000e+00,1.47840e-01,-2.28898e-01,-1.26866e-01,1.06558e-01,9.88074e-02,-6.06968e-02,9.43568e-02,-2.11359e-01,-1.85544e-01,1.86665e-01,1.33777e-01,-1.05470e-01,2.63773e-01,2.58402e-02,-4.78787e-02,2.16513e-01,-4.93379e-03,1.00329e-01,1.49648e-01,-2.98781e-01,0.00000e+00,0.00000e+00,0.00000e+00,0.00000e+00,0.00000e+00,0.00000e+00,0.00000e+00,0.00000e+00,0.00000e+00,0.00000e+00,0.00000e+00,0.00000e+00,0.00000e+00,0.00000e+00,0.00000e+00,0.00000e+00,0.00000e+00,0.00000e+00,0.00000e+00,0.00000e+00,
-1.38536e-01,4.20235e-02,-1.91122e-01,-1.47926e-01,-1.27821e-01,-1.90887e-02,8.22900e-02,1.83651e-01,-1.60326e-01,2.05244e-01,0.00000e+00,0.00000e+00,0.00000e+00,0.00000e+00,0.00000e+00,0.00000e+00,0.00000e+00,0.00000e+00,0.00000e+00,0.00000e+00,0.00000e+00,0.00000e+00,0.00000e+00,0.00000e+00,0.00000e+00,0.00000e+00,0.00000e+00,0.00000e+00,0.00000e+00,0.00000e+00,2.09926e-01,-1.89305e-01,-8.65077e-02,1.15272e-01,-1.26527e-01,-5.69787e-02,-9.42328e-02,-2.50611e-02,-1.23952e-01,-1.73258e-02,-7.13899e-02,1.47282e-01,2.77629e-01,3.26531e-02,2.54348e-01,7.60674e-02,1.19429e-02,-1.58589e-01,2.84277e-01,-1.87918e-01,0.00000e+00,0.00000e+00,0.00000e+00,0.00000e+00,0.00000e+00,0.00000e+00,0.00000e+00,0.00000e+00,0.00000e+00,0.00000e+00,0.00000e+00,0.00000e+00,0.00000e+00,0.00000e+00,0.00000e+00,0.00000e+00,0.00000e+00,0.00000e+00,0.00000e+00,0.00000e+00,
-1.14267e-01,-2.71192e-01,3.05516e-01,2.24736e-01,-2.02111e-01,-4.83127e-02,3.97080e-02,1.05010e-01,2.69871e-02,-2.15670e-02,0.00000e+00,0.00000e+00,0.00000e+00,0.00000e+00,0.00000e+00,0.00000e+00,0.00000e+00,0.00000e+00,0.00000e+00,0.00000e+00,0.00000e+00,0.00000e+00,0.00000e+00,0.00000e+00,0.00000e+00,0.00000e+00,0.00000e+00,0.00000e+00,0.00000e+00,0.00000e+00,2.26726e-01,2.33372e-02,8.84688e-02,6.31964e-02,1.59367e-01,1.52160e-01,-2.75258e-02,-1.30766e-01,-1.09246e-01,1.32046e-01,-1.12459e-01,2.47854e-01,-3.93984e-01,-2.87932e-01,4.27433e-02,-1.03847e-01,-1.21822e-02,2.57560e-02,8.22586e-02,-1.10479e-01,0.00000e+00,0.00000e+00,0.00000e+00,0.00000e+00,0.00000e+00,0.00000e+00,0.00000e+00,0.00000e+00,0.00000e+00,0.00000e+00,0.00000e+00,0.00000e+00,0.00000e+00,0.00000e+00,0.00000e+00,0.00000e+00,0.00000e+00,0.00000e+00,0.00000e+00,0.00000e+00,
-4.02398e-01,2.32961e-01,-1.84395e-01,8.97069e-02,6.87520e-02,1.38678e-01,5.98445e-02,5.86618e-02,1.36359e-01,-8.04932e-02,0.00000e+00,0.00000e+00,0.00000e+00,0.00000e+00,0.00000e+00,0.00000e+00,0.00000e+00,0.00000e+00,0.00000e+00,0.00000e+00,0.00000e+00,0.00000e+00,0.00000e+00,0.00000e+00,0.00000e+00,0.00000e+00,0.00000e+00,0.00000e+00,0.00000e+00,0.00000e+00,2.05815e-03,-1.08097e-01,3.65770e-01,6.23462e-02,-1.24288e-01,-3.87216e-02,-1.08048e-01,-2.16890e-02,-2.14814e-01,-4.98303e-02,4.00340e-01,-1.24864e-01,-1.81376e-01,-1.52053e-01,5.55356e-02,-9.99568e-02,4.82034e-02,-3.69727e-02,7.84551e-02,1.30323e-01,0.00000e+00,0.00000e+00,0.00000e+00,0.00000e+00,0.00000e+00,0.00000e+00,0.00000e+00,0.00000e+00,0.00000e+00,0.00000e+00,0.00000e+00,0.00000e+00,0.00000e+00,0.00000e+00,0.00000e+00,0.00000e+00,0.00000e+00,0.00000e+00,0.00000e+00,0.00000e+00,
1.10271e-01,1.84063e-01,-1.08490e-01,1.31899e-01,-2.28859e-01,4.45868e-01,-2.26822e-01,6.94334e-02,-7.60254e-02,3.83562e-03,0.00000e+00,0.00000e+00,0.00000e+00,0.00000e+00,0.00000e+00,0.00000e+00,0.00000e+00,0.00000e+00,0.00000e+00,0.00000e+00,0.00000e+00,0.00000e+00,0.00000e+00,0.00000e+00,0.00000e+00,0.00000e+00,0.00000e+00,0.00000e+00,0.00000e+00,0.00000e+00,-4.04810e-02,3.32220e-01,-1.60509e-01,2.61923e-01,-7.09978e-02,2.45490e-01,1.67383e-01,1.85404e-01,-1.31954e-01,1.78106e-01,-6.97899e-02,-5.16283e-01,2.68999e-01,-3.93822e-01,2.99856e-01,-6.91358e-01,5.94387e-02,-2.54837e-01,2.07980e-01,-1.81941e-01,0.00000e+00,0.00000e+00,0.00000e+00,0.00000e+00,0.00000e+00,0.00000e+00,0.00000e+00,0.00000e+00,0.00000e+00,0.00000e+00,0.00000e+00,0.00000e+00,0.00000e+00,0.00000e+00,0.00000e+00,0.00000e+00,0.00000e+00,0.00000e+00,0.00000e+00,0.00000e+00,
1.48712e-01,-3.73444e-02,-2.08345e-01,-2.57983e-01,3.12889e-02,-2.26251e-01,5.34174e-02,2.94166e-01,-3.34125e-02,5.13311e-02,0.00000e+00,0.00000e+00,0.00000e+00,0.00000e+00,0.00000e+00,0.00000e+00,0.00000e+00,0.00000e+00,0.00000e+00,0.00000e+00,0.00000e+00,0.00000e+00,0.00000e+00,0.00000e+00,0.00000e+00,0.00000e+00,0.00000e+00,0.00000e+00,0.00000e+00,0.00000e+00,2.61275e-01,6.26949e-02,6.76975e-03,-2.45626e-01,1.32599e-01,2.24799e-01,1.17800e-01,-2.39574e-01,-4.95474e-02,-5.61427e-02,-4.09987e-01,-2.53505e-02,2.01575e-01,5.03609e-01,-1.63888e-01,1.45172e-03,-1.71217e-01,-5.45918e-02,8.29599e-02,4.81155e-03,0.00000e+00,0.00000e+00,0.00000e+00,0.00000e+00,0.00000e+00,0.00000e+00,0.00000e+00,0.00000e+00,0.00000e+00,0.00000e+00,0.00000e+00,0.00000e+00,0.00000e+00,0.00000e+00,0.00000e+00,0.00000e+00,0.00000e+00,0.00000e+00,0.00000e+00,0.00000e+00,
-1.50810e-01,4.08706e-01,1.15996e-01,2.15280e-01,-8.52261e-02,3.15795e-01,2.40802e-01,-3.85449e-02,-2.22196e-01,-5.42759e-03,0.00000e+00,0.00000e+00,0.00000e+00,0.00000e+00,0.00000e+00,0.00000e+00,0.00000e+00,0.00000e+00,0.00000e+00,0.00000e+00,0.00000e+00,0.00000e+00,0.00000e+00,0.00000e+00,0.00000e+00,0.00000e+00,0.00000e+00,0.00000e+00,0.00000e+00,0.00000e+00,1.81635e-01,-4.59557e-01,-2.22488e-01,6.56120e-02,-1.34016e-02,9.35986e-02,-7.91524e-02,-1.53366e-01,1.25267e-01,2.49317e-01,-3.08245e-02,5.08516e-02,1.06492e-01,-2.80892e-01,9.86278e-02,-4.09393e-01,-1.61649e-01,1.91911e-01,9.69286e-02,-2.43890e-01,0.00000e+00,0.00000e+00,0.00000e+00,0.00000e+00,0.00000e+00,0.00000e+00,0.00000e+00,0.00000e+00,0.00000e+00,0.00000e+00,0.00000e+00,0.00000e+00,0.00000e+00,0.00000e+00,0.00000e+00,0.00000e+00,0.00000e+00,0.00000e+00,0.00000e+00,0.00000e+00,
7.01268e-02,2.37185e-01,2.13973e-01,1.94171e-01,-3.39766e-01,1.29027e-01,3.41559e-01,-1.87371e-02,-7.85964e-02,1.65813e-01,0.00000e+00,0.00000e+00,0.00000e+00,0.00000e+00,0.00000e+00,0.00000e+00,0.00000e+00,0.00000e+00,0.00000e+00,0.00000e+00,0.00000e+00,0.00000e+00,0.00000e+00,0.00000e+00,0.00000e+00,0.00000e+00,0.00000e+00,0.00000e+00,0.00000e+00,0.00000e+00,-5.34085e-03,6.32269e-02,-1.43018e-01,-5.81854e-02,2.40452e-01,-1.67807e-01,1.76214e-01,1.39767e-01,-1.18662e-01,2.03711e-01,-6.47859e-02,-3.00412e-01,-7.09549e-02,-1.35986e-01,9.93136e-02,3.87796e-02,-5.17773e-01,-1.21030e-01,1.97259e-01,-3.69525e-01,0.00000e+00,0.00000e+00,0.00000e+00,0.00000e+00,0.00000e+00,0.00000e+00,0.00000e+00,0.00000e+00,0.00000e+00,0.00000e+00,0.00000e+00,0.00000e+00,0.00000e+00,0.00000e+00,0.00000e+00,0.00000e+00,0.00000e+00,0.00000e+00,0.00000e+00,0.00000e+00,
-3.34814e-01,1.99527e-02,5.14005e-02,-2.36544e-01,-2.36344e-01,1.16014e-01,9.48146e-02,-3.16461e-01,-7.73033e-02,3.01934e-01,0.00000e+00,0.00000e+00,0.00000e+00,0.00000e+00,0.00000e+00,0.00000e+00,0.00000e+00,0.00000e+00,0.00000e+00,0.00000e+00,0.00000e+00,0.00000e+00,0.00000e+00,0.00000e+00,0.00000e+00,0.00000e+00,0.00000e+00,0.00000e+00,0.00000e+00,0.00000e+00,7.27968e-02,-2.13342e-01,-1.26213e-01,-1.61841e-01,3.46199e-02,-1.12900e-01,-1.94561e-01,3.68850e-03,4.53487e-02,-1.96230e-02,2.62017e-01,1.93390e-01,7.48127e-02,3.98386e-01,2.01724e-01,-3.11399e-03,9.97465e-02,3.12772e-01,3.19546e-02,-2.82311e-01,0.00000e+00,0.00000e+00,0.00000e+00,0.00000e+00,0.00000e+00,0.00000e+00,0.00000e+00,0.00000e+00,0.00000e+00,0.00000e+00,0.00000e+00,0.00000e+00,0.00000e+00,0.00000e+00,0.00000e+00,0.00000e+00,0.00000e+00,0.00000e+00,0.00000e+00,0.00000e+00,
-1.02683e-01,4.29151e-02,3.36958e-02,4.45728e-02,-7.47883e-02,-4.15099e-02,1.47309e-01,2.46388e-01,-1.51008e-01,2.85058e-01,0.00000e+00,0.00000e+00,0.00000e+00,0.00000e+00,0.00000e+00,0.00000e+00,0.00000e+00,0.00000e+00,0.00000e+00,0.00000e+00,0.00000e+00,0.00000e+00,0.00000e+00,0.00000e+00,0.00000e+00,0.00000e+00,0.00000e+00,0.00000e+00,0.00000e+00,0.00000e+00,2.44073e-02,-5.17199e-02,1.19710e-01,-2.21415e-01,8.23362e-02,-1.05672e-01,-2.24506e-01,-4.88831e-02,-9.79853e-02,1.10914e-01,7.82753e-02,8.80476e-03,-1.53406e-01,1.76842e-01,-7.54783e-03,1.47182e-01,7.71976e-02,-1.97505e-01,2.48994e-01,-3.95972e-01,0.00000e+00,0.00000e+00,0.00000e+00,0.00000e+00,0.00000e+00,0.00000e+00,0.00000e+00,0.00000e+00,0.00000e+00,0.00000e+00,0.00000e+00,0.00000e+00,0.00000e+00,0.00000e+00,0.00000e+00,0.00000e+00,0.00000e+00,0.00000e+00,0.00000e+00,0.00000e+00,
-1.64995e-01,2.08436e-01,-3.36825e-01,2.47318e-01,-7.37855e-02,3.88493e-02,4.44398e-02,1.19246e-01,1.61903e-01,-1.43837e-01,0.00000e+00,0.00000e+00,0.00000e+00,0.00000e+00,0.00000e+00,0.00000e+00,0.00000e+00,0.00000e+00,0.00000e+00,0.00000e+00,0.00000e+00,0.00000e+00,0.00000e+00,0.00000e+00,0.00000e+00,0.00000e+00,0.00000e+00,0.00000e+00,0.00000e+00,0.00000e+00,4.48367e-02,-5.51545e-02,1.39879e-01,1.12179e-01,1.49070e-01,-9.33436e-02,4.21883e-02,5.97404e-02,-1.25746e-01,1.29060e-01,1.20158e-01,-1.53282e-01,1.96946e-01,-3.59498e-01,-7.52845e-02,5.44943e-02,-8.66281e-02,-1.78987e-01,-3.61569e-02,1.47770e-02,0.00000e+00,0.00000e+00,0.00000e+00,0.00000e+00,0.00000e+00,0.00000e+00,0.00000e+00,0.00000e+00,0.00000e+00,0.00000e+00,0.00000e+00,0.00000e+00,0.00000e+00,0.00000e+00,0.00000e+00,0.00000e+00,0.00000e+00,0.00000e+00,0.00000e+00,0.00000e+00,
-2.14548e-02,6.14694e-01,-1.51092e-01,-5.23531e-02,3.34362e-02,7.27593e-02,2.85796e-01,-8.91920e-02,1.19040e-01,3.83661e-02,0.00000e+00,0.00000e+00,0.00000e+00,0.00000e+00,0.00000e+00,0.00000e+00,0.00000e+00,0.00000e+00,0.00000e+00,0.00000e+00,0.00000e+00,0.00000e+00,0.00000e+00,0.00000e+00,0.00000e+00,0.00000e+00,0.00000e+00,0.00000e+00,0.00000e+00,0.00000e+00,1.51663e-01,-4.31089e-01,-1.50831e-01,4.65229e-02,-3.31582e-01,7.38268e-02,-2.13495e-01,-1.24470e-01,5.98234e-02,-2.79298e-02,-1.30208e-01,-1.83605e-01,3.01922e-01,5.83012e-03,2.98146e-01,-1.46586e-01,-7.23012e-02,2.13662e-01,-1.78863e-01,-1.04363e-02,0.00000e+00,0.00000e+00,0.00000e+00,0.00000e+00,0.00000e+00,0.00000e+00,0.00000e+00,0.00000e+00,0.00000e+00,0.00000e+00,0.00000e+00,0.00000e+00,0.00000e+00,0.00000e+00,0.00000e+00,0.00000e+00,0.00000e+00,0.00000e+00,0.00000e+00,0.00000e+00,
6.98158e-02,-4.17916e-02,1.76679e-02,-3.40566e-01,-3.33105e-01,1.67678e-01,5.23919e-02,4.01481e-02,-2.18004e-02,3.86560e-01,0.00000e+00,0.00000e+00,0.00000e+00,0.00000e+00,0.00000e+00,0.00000e+00,0.00000e+00,0.00000e+00,0.00000e+00,0.00000e+00,0.00000e+00,0.00000e+00,0.00000e+00,0.00000e+00,0.00000e+00,0.00000e+00,0.00000e+00,0.00000e+00,0.00000e+00,0.00000e+00,1.45623e-01,-4.55107e-02,-4.07302e-01,-8.46429e-02,-2.10940e-02,1.29458e-01,1.56566e-01,5.49059e-02,2.97486e-01,2.84382e-01,-2.15439e-01,8.73023e-02,3.89634e-01,4.25209e-01,3.54199e-01,-2.97136e-01,-2.08958e-01,-9.50540e-02,-2.75685e-01,-6.70943e-01,0.00000e+00,0.00000e+00,0.00000e+00,0.00000e+00,0.00000e+00,0.00000e+00,0.00000e+00,0.00000e+00,0.00000e+00,0.00000e+00,0.00000e+00,0.00000e+00,0.00000e+00,0.00000e+00,0.00000e+00,0.00000e+00,0.00000e+00,0.00000e+00,0.00000e+00,0.00000e+00,
-6.57710e-02,-5.45442e-01,3.22256e-01,-8.59799e-02,-1.64844e-01,5.53304e-02,3.17211e-01,1.93834e-01,7.90689e-02,1.26840e-04,0.00000e+00,0.00000e+00,0.00000e+00,0.00000e+00,0.00000e+00,0.00000e+00,0.00000e+00,0.00000e+00,0.00000e+00,0.00000e+00,0.00000e+00,0.00000e+00,0.00000e+00,0.00000e+00,0.00000e+00,0.00000e+00,0.00000e+00,0.00000e+00,0.00000e+00,0.00000e+00,1.62731e-01,3.03258e-01,-2.70751e-01,1.40890e-01,2.45344e-01,-1.08039e-01,3.27089e-01,-4.28211e-02,-1.38859e-02,-1.92102e-02,-9.69603e-02,2.42184e-01,-5.15054e-02,-5.49103e-02,-8.04996e-02,5.27085e-02,-6.44300e-01,-1.51013e-01,-6.51830e-02,1.90834e-02,0.00000e+00,0.00000e+00,0.00000e+00,0.00000e+00,0.00000e+00,0.00000e+00,0.00000e+00,0.00000e+00,0.00000e+00,0.00000e+00,0.00000e+00,0.00000e+00,0.00000e+00,0.00000e+00,0.00000e+00,0.00000e+00,0.00000e+00,0.00000e+00,0.00000e+00,0.00000e+00,
-2.46401e-02,3.31118e-01,5.05575e-02,1.22335e-01,1.32737e-01,3.32725e-01,1.62040e-01,-4.83052e-02,-2.36636e-01,1.42558e-01,0.00000e+00,0.00000e+00,0.00000e+00,0.00000e+00,0.00000e+00,0.00000e+00,0.00000e+00,0.00000e+00,0.00000e+00,0.00000e+00,0.00000e+00,0.00000e+00,0.00000e+00,0.00000e+00,0.00000e+00,0.00000e+00,0.00000e+00,0.00000e+00,0.00000e+00,0.00000e+00,-1.82481e-02,-2.47354e-01,-9.89856e-03,-5.02116e-02,1.24477e-01,-2.59177e-02,-1.15742e-01,-1.50346e-01,-7.82611e-02,-6.41568e-03,4.28882e-02,-8.37635e-02,-4.06590e-02,-7.21237e-02,-2.57214e-01,-3.06807e-01,-4.62979e-02,1.98651e-01,3.14897e-01,-1.36142e-01,0.00000e+00,0.00000e+00,0.00000e+00,0.00000e+00,0.00000e+00,0.00000e+00,0.00000e+00,0.00000e+00,0.00000e+00,0.00000e+00,0.00000e+00,0.00000e+00,0.00000e+00,0.00000e+00,0.00000e+00,0.00000e+00,0.00000e+00,0.00000e+00,0.00000e+00,0.00000e+00,
1.58466e-01,3.46886e-01,4.20763e-01,7.55756e-03,-4.85874e-02,9.23150e-02,-2.17516e-01,1.34321e-01,-2.20237e-02,-2.74633e-01,0.00000e+00,0.00000e+00,0.00000e+00,0.00000e+00,0.00000e+00,0.00000e+00,0.00000e+00,0.00000e+00,0.00000e+00,0.00000e+00,0.00000e+00,0.00000e+00,0.00000e+00,0.00000e+00,0.00000e+00,0.00000e+00,0.00000e+00,0.00000e+00,0.00000e+00,0.00000e+00,-9.68029e-02,3.76914e-01,-8.64702e-03,6.02572e-02,2.88571e-01,-1.77507e-01,5.90030e-02,8.17275e-02,-1.13306e-01,-8.75694e-02,-6.16635e-02,-7.23799e-01,-4.12116e-01,-6.78148e-02,-2.39983e-01,8.51922e-02,1.58513e-01,-2.16048e-01,1.35330e-01,3.62203e-01,0.00000e+00,0.00000e+00,0.00000e+00,0.00000e+00,0.00000e+00,0.00000e+00,0.00000e+00,0.00000e+00,0.00000e+00,0.00000e+00,0.00000e+00,0.00000e+00,0.00000e+00,0.00000e+00,0.00000e+00,0.00000e+00,0.00000e+00,0.00000e+00,0.00000e+00,0.00000e+00,
-4.15420e-01,1.97329e-01,-7.47244e-02,4.48819e-02,1.31907e-01,9.99537e-02,3.96379e-03,1.76335e-01,-1.16092e-01,1.00430e-01,0.00000e+00,0.00000e+00,0.00000e+00,0.00000e+00,0.00000e+00,0.00000e+00,0.00000e+00,0.00000e+00,0.00000e+00,0.00000e+00,0.00000e+00,0.00000e+00,0.00000e+00,0.00000e+00,0.00000e+00,0.00000e+00,0.00000e+00,0.00000e+00,0.00000e+00,0.00000e+00,3.52455e-01,-1.97128e-01,-1.66732e-01,-3.24281e-02,-8.70613e-02,-7.86279e-02,-1.11025e-01,-1.06931e-02,8.04912e-03,-5.93136e-02,6.29649e-02,-2.00957e-04,2.41456e-01,-1.24538e-02,-4.48454e-02,-2.13258e-02,1.07061e-01,-1.65642e-01,1.08043e-01,-4.11161e-02,0.00000e+00,0.00000e+00,0.00000e+00,0.00000e+00,0.00000e+00,0.00000e+00,0.00000e+00,0.00000e+00,0.00000e+00,0.00000e+00,0.00000e+00,0.00000e+00,0.00000e+00,0.00000e+00,0.00000e+00,0.00000e+00,0.00000e+00,0.00000e+00,0.00000e+00,0.00000e+00,
-3.85896e-01,-6.26476e-02,-1.16623e-01,-6.71463e-02,-2.02684e-01,1.82636e-01,-9.08387e-02,-1.34467e-01,-1.20462e-01,1.41851e-01,0.00000e+00,0.00000e+00,0.00000e+00,0.00000e+00,0.00000e+00,0.00000e+00,0.00000e+00,0.00000e+00,0.00000e+00,0.00000e+00,0.00000e+00,0.00000e+00,0.00000e+00,0.00000e+00,0.00000e+00,0.00000e+00,0.00000e+00,0.00000e+00,0.00000e+00,0.00000e+00,-7.47665e-02,-1.78354e-01,2.42916e-01,1.56689e-01,1.82878e-01,-2.25161e-01,-1.46581e-01,-9.43908e-02,1.57352e-01,-4.32004e-02,4.60663e-01,2.41002e-01,-1.26293e-01,-8.95427e-02,1.98060e-02,4.25255e-02,2.37419e-01,2.28858e-01,-3.68896e-02,-9.86507e-02,0.00000e+00,0.00000e+00,0.00000e+00,0.00000e+00,0.00000e+00,0.00000e+00,0.00000e+00,0.00000e+00,0.00000e+00,0.00000e+00,0.00000e+00,0.00000e+00,0.00000e+00,0.00000e+00,0.00000e+00,0.00000e+00,0.00000e+00,0.00000e+00,0.00000e+00,0.00000e+00,
-4.09104e-01,1.12489e-01,-2.33404e-01,-1.12826e-01,-1.62246e-01,4.45453e-01,2.45837e-01,-4.34482e-02,-4.46294e-02,7.27150e-02,0.00000e+00,0.00000e+00,0.00000e+00,0.00000e+00,0.00000e+00,0.00000e+00,0.00000e+00,0.00000e+00,0.00000e+00,0.00000e+00,0.00000e+00,0.00000e+00,0.00000e+00,0.00000e+00,0.00000e+00,0.00000e+00,0.00000e+00,0.00000e+00,0.00000e+00,0.00000e+00,1.15070e-01,-1.98363e-01,1.02863e-01,2.99215e-02,2.01271e-01,-2.67182e-01,-1.76986e-01,3.93312e-02,1.30073e-01,1.35598e-01,2.94034e-01,8.58743e-02,1.30541e-01,8.29047e-02,-3.90246e-02,-1.78271e-01,-6.88510e-02,4.11704e-03,-8.54438e-02,-2.08313e-01,0.00000e+00,0.00000e+00,0.00000e+00,0.00000e+00,0.00000e+00,0.00000e+00,0.00000e+00,0.00000e+00,0.00000e+00,0.00000e+00,0.00000e+00,0.00000e+00,0.00000e+00,0.00000e+00,0.00000e+00,0.00000e+00,0.00000e+00,0.00000e+00,0.00000e+00,0.00000e+00,
-1.74955e-01,4.62422e-02,2.59497e-01,3.54320e-01,-2.57155e-01,-2.07476e-01,-2.98980e-01,3.13707e-01,-6.16671e-02,7.38566e-02,0.00000e+00,0.00000e+00,0.00000e+00,0.00000e+00,0.00000e+00,0.00000e+00,0.00000e+00,0.00000e+00,0.00000e+00,0.00000e+00,0.00000e+00,0.00000e+00,0.00000e+00,0.00000e+00,0.00000e+00,0.00000e+00,0.00000e+00,0.00000e+00,0.00000e+00,0.00000e+00,1.01232e-01,3.07909e-01,-1.15158e-01,-2.61070e-01,2.87985e-01,6.29367e-02,5.42546e-02,-1.02305e-02,-1.07872e-01,-1.49432e-01,7.37237e-02,-3.54152e-01,-1.44339e-01,-9.32500e-02,-3.08300e-02,1.44539e-01,2.44726e-01,-3.03476e-01,1.69539e-01,7.55759e-02,0.00000e+00,0.00000e+00,0.00000e+00,0.00000e+00,0.00000e+00,0.00000e+00,0.00000e+00,0.00000e+00,0.00000e+00,0.00000e+00,0.00000e+00,0.00000e+00,0.00000e+00,0.00000e+00,0.00000e+00,0.00000e+00,0.00000e+00,0.00000e+00,0.00000e+00,0.00000e+00,
