// Neural Network File Format by Kyle Julian, Stanford 2016
3,70,6,384,
70,384,384,6,
0,
-10000000.0,-10000000.0,-10000000.0,-10000000.0,-10000000.0,-10000000.0,-10000000.0,-10000000.0,-10000000.0,-10000000.0,-10000000.0,-10000000.0,-10000000.0,-10000000.0,-10000000.0,-10000000.0,-10000000.0,-10000000.0,-10000000.0,-10000000.0,-10000000.0,-10000000.0,-10000000.0,-10000000.0,-10000000.0,-10000000.0,-10000000.0,-10000000.0,-10000000.0,-10000000.0,-10000000.0,-10000000.0,-10000000.0,-10000000.0,-10000000.0,-10000000.0,-10000000.0,-10000000.0,-10000000.0,-10000000.0,-10000000.0,-10000000.0,-10000000.0,-10000000.0,-10000000.0,-10000000.0,-10000000.0,-10000000.0,-10000000.0,-10000000.0,-10000000.0,-10000000.0,-10000000.0,-10000000.0,-10000000.0,-10000000.0,-10000000.0,-10000000.0,-10000000.0,-10000000.0,-10000000.0,-10000000.0,-10000000.0,-10000000.0,-10000000.0,-10000000.0,-10000000.0,-10000000.0,-10000000.0,-10000000.0,
10000000.0,10000000.0,10000000.0,10000000.0,10000000.0,10000000.0,10000000.0,10000000.0,10000000.0,10000000.0,10000000.0,10000000.0,10000000.0,10000000.0,10000000.0,10000000.0,10000000.0,10000000.0,10000000.0,10000000.0,10000000.0,10000000.0,10000000.0,10000000.0,10000000.0,10000000.0,10000000.0,10000000.0,10000000.0,10000000.0,10000000.0,10000000.0,10000000.0,10000000.0,10000000.0,10000000.0,10000000.0,10000000.0,10000000.0,10000000.0,10000000.0,10000000.0,10000000.0,10000000.0,10000000.0,10000000.0,10000000.0,10000000.0,10000000.0,10000000.0,10000000.0,10000000.0,10000000.0,10000000.0,10000000.0,10000000.0,10000000.0,10000000.0,10000000.0,10000000.0,10000000.0,10000000.0,10000000.0,10000000.0,10000000.0,10000000.0,10000000.0,10000000.0,10000000.0,10000000.0,
0.0,0.0,0.0,0.0,0.0,0.0,0.0,0.0,0.0,0.0,0.0,0.0,0.0,0.0,0.0,0.0,0.0,0.0,0.0,0.0,0.0,0.0,0.0,0.0,0.0,0.0,0.0,0.0,0.0,0.0,0.0,0.0,0.0,0.0,0.0,0.0,0.0,0.0,0.0,0.0,0.0,0.0,0.0,0.0,0.0,0.0,0.0,0.0,0.0,0.0,0.0,0.0,0.0,0.0,0.0,0.0,0.0,0.0,0.0,0.0,0.0,0.0,0.0,0.0,0.0,0.0,0.0,0.0,0.0,0.0,0.0,
0.0,0.0,0.0,0.0,0.0,0.0,0.0,0.0,0.0,0.0,0.0,0.0,0.0,0.0,0.0,0.0,0.0,0.0,0.0,0.0,0.0,0.0,0.0,0.0,0.0,0.0,0.0,0.0,0.0,0.0,0.0,0.0,0.0,0.0,0.0,0.0,0.0,0.0,0.0,0.0,0.0,0.0,0.0,0.0,0.0,0.0,0.0,0.0,0.0,0.0,0.0,0.0,0.0,0.0,0.0,0.0,0.0,0.0,0.0,0.0,0.0,0.0,0.0,0.0,0.0,0.0,0.0,0.0,0.0,0.0,1.0,
8.94867e-02,4.67989e-01,-3.18197e-02,4.06920e-01,-1.21202e-01,-4.18065e-02,-1.49905e-01,2.74136e-01,1.15427e-01,-1.57708e-01,-3.81299e-01,-4.74200e-01,-5.48136e-02,-5.26668e-01,1.72727e-02,8.87602e-02,-1.86250e-02,-1.71181e-01,5.32756e-02,6.66017e-02,2.91813e-01,6.21162e-03,8.66333e-02,1.19748e-01,1.03929e-01,-4.69536e-02,1.68530e-01,-1.02955e-01,-1.68703e-01,9.11066e-02,0.00000e+00,0.00000e+00,0.00000e+00,0.00000e+00,0.00000e+00,0.00000e+00,0.00000e+00,0.00000e+00,0.00000e+00,0.00000e+00,0.00000e+00,0.00000e+00,0.00000e+00,0.00000e+00,0.00000e+00,0.00000e+00,0.00000e+00,0.00000e+00,0.00000e+00,0.00000e+00,0.00000e+00,0.00000e+00,0.00000e+00,0.00000e+00,0.00000e+00,0.00000e+00,0.00000e+00,0.00000e+00,0.00000e+00,0.00000e+00,0.00000e+00,0.00000e+00,0.00000e+00,0.00000e+00,0.00000e+00,0.00000e+00,0.00000e+00,0.00000e+00,0.00000e+00,0.00000e+00,
-3.31112e-01,3.19077e-02,-5.68513e-04,2.48810e-01,-2.26092e-01,-1.19102e-01,1.31616e-03,-7.24836e-02,5.36887e-02,-1.44836e-01,1.03704e-01,2.34756e-02,-2.20259e-01,-3.33999e-01,1.59426e-01,-1.36188e-02,-1.86135e-04,-5.14468e-02,-1.26488e-01,1.65794e-01,2.27409e-01,-5.53833e-02,2.20828e-01,8.51894e-02,6.66656e-02,1.32721e-01,-1.13003e-03,1.23930e-01,7.27993e-02,-2.09587e-02,0.00000e+00,0.00000e+00,0.00000e+00,0.00000e+00,0.00000e+00,0.00000e+00,0.00000e+00,0.00000e+00,0.00000e+00,0.00000e+00,0.00000e+00,0.00000e+00,0.00000e+00,0.00000e+00,0.00000e+00,0.00000e+00,0.00000e+00,0.00000e+00,0.00000e+00,0.00000e+00,0.00000e+00,0.00000e+00,0.00000e+00,0.00000e+00,0.00000e+00,0.00000e+00,0.00000e+00,0.00000e+00,0.00000e+00,0.00000e+00,0.00000e+00,0.00000e+00,0.00000e+00,0.00000e+00,0.00000e+00,0.00000e+00,0.00000e+00,0.00000e+00,0.00000e+00,0.00000e+00,
-6.49784e-02,5.18252e-03,1.25952e-01,2.66474e-01,2.99312e-01,-9.37406e-02,3.45815e-01,2.69250e-01,7.86277e-02,-1.19038e-01,4.60420e-01,1.95052e-01,3.14859e-03,-5.48357e-01,-4.19638e-01,-1.09160e-01,-4.39497e-01,-1.86336e-01,-1.69630e-01,3.77091e-01,-3.95441e-01,-2.00234e-01,-1.29101e-01,2.81883e-01,1.20326e-01,2.02901e-01,9.36827e-02,-8.29142e-02,9.10019e-02,-2.58053e-01,0.00000e+00,0.00000e+00,0.00000e+00,0.00000e+00,0.00000e+00,0.00000e+00,0.00000e+00,0.00000e+00,0.00000e+00,0.00000e+00,0.00000e+00,0.00000e+00,0.00000e+00,0.00000e+00,0.00000e+00,0.00000e+00,0.00000e+00,0.00000e+00,0.00000e+00,0.00000e+00,0.00000e+00,0.00000e+00,0.00000e+00,0.00000e+00,0.00000e+00,0.00000e+00,0.00000e+00,0.00000e+00,0.00000e+00,0.00000e+00,0.00000e+00,0.00000e+00,0.00000e+00,0.00000e+00,0.00000e+00,0.00000e+00,0.00000e+00,0.00000e+00,0.00000e+00,0.00000e+00,
-2.38325e-01,-4.45544e-02,2.43377e-01,-7.14246e-02,2.19633e-01,1.16803e-01,1.47707e-01,-9.36792e-02,-1.05403e-01,-3.02433e-02,5.41654e-02,2.48121e-01,-4.53244e-01,2.49443e-01,-2.09739e-02,1.35631e-01,1.24018e-01,5.67778e-02,7.39998e-02,-1.29039e-01,1.84159e-01,-2.03566e-01,2.09867e-01,-1.78018e-01,-1.98659e-01,-2.52434e-01,-2.71725e-01,3.69013e-02,3.14033e-02,1.59282e-01,0.00000e+00,0.00000e+00,0.00000e+00,0.00000e+00,0.00000e+00,0.00000e+00,0.00000e+00,0.00000e+00,0.00000e+00,0.00000e+00,0.00000e+00,0.00000e+00,0.00000e+00,0.00000e+00,0.00000e+00,0.00000e+00,0.00000e+00,0.00000e+00,0.00000e+00,0.00000e+00,0.00000e+00,0.00000e+00,0.00000e+00,0.00000e+00,0.00000e+00,0.00000e+00,0.00000e+00,0.00000e+00,0.00000e+00,0.00000e+00,0.00000e+00,0.00000e+00,0.00000e+00,0.00000e+00,0.00000e+00,0.00000e+00,0.00000e+00,0.00000e+00,0.00000e+00,0.00000e+00,
-2.95730e-01,-1.32133e-01,6.15650e-02,-6.21566e-02,2.87069e-02,2.22549e-01,1.52095e-01,-1.69967e-01,-7.02725e-02,2.16233e-01,2.35796e-01,3.53416e-01,-1.76057e-01,-2.20089e-01,9.08603e-02,-3.77350e-02,-3.44004e-01,1.97866e-01,8.09749e-02,7.80085e-02,5.99342e-02,-2.21283e-01,1.14492e-01,2.82246e-01,-1.19567e-01,-1.84814e-01,1.91909e-01,-2.78981e-02,-1.07024e-02,-2.94242e-01,0.00000e+00,0.00000e+00,0.00000e+00,0.00000e+00,0.00000e+00,0.00000e+00,0.00000e+00,0.00000e+00,0.00000e+00,0.00000e+00,0.00000e+00,0.00000e+00,0.00000e+00,0.00000e+00,0.00000e+00,0.00000e+00,0.00000e+00,0.00000e+00,0.00000e+00,0.00000e+00,0.00000e+00,0.00000e+00,0.00000e+00,0.00000e+00,0.00000e+00,0.00000e+00,0.00000e+00,0.00000e+00,0.00000e+00,0.00000e+00,0.00000e+00,0.00000e+00,0.00000e+00,0.00000e+00,0.00000e+00,0.00000e+00,0.00000e+00,0.00000e+00,0.00000e+00,0.00000e+00,
-2.82802e-01,1.51584e-01,1.16376e-01,-2.62658e-01,-3.90718e-02,-7.95320e-02,-1.73203e-01,-7.80454e-02,-1.07048e-01,3.35210e-03,-3.68855e-02,-6.49770e-02,-2.41519e-01,5.04941e-01,1.87678e-01,1.08371e-01,1.44604e-01,2.34081e-01,2.16692e-01,1.87252e-01,3.19687e-01,-8.66070e-02,1.25143e-01,-2.42282e-01,-1.48606e-01,-2.88395e-02,2.85990e-02,-1.56036e-01,-1.09644e-01,-1.90605e-01,0.00000e+00,0.00000e+00,0.00000e+00,0.00000e+00,0.00000e+00,0.00000e+00,0.00000e+00,0.00000e+00,0.00000e+00,0.00000e+00,0.00000e+00,0.00000e+00,0.00000e+00,0.00000e+00,0.00000e+00,0.00000e+00,0.00000e+00,0.00000e+00,0.00000e+00,0.00000e+00,0.00000e+00,0.00000e+00,0.00000e+00,0.00000e+00,0.00000e+00,0.00000e+00,0.00000e+00,0.00000e+00,0.00000e+00,0.00000e+00,0.00000e+00,0.00000e+00,0.00000e+00,0.00000e+00,0.00000e+00,0.00000e+00,0.00000e+00,0.00000e+00,0.00000e+00,0.00000e+00,
-2.18418e-01,-5.61086e-02,7.03818e-02,-1.69043e-01,-2.09954e-01,-9.20899e-02,-8.75384e-03,-1.28863e-01,9.93383e-02,3.63440e-02,6.94057e-02,-4.60392e-02,4.62391e-02,-6.75537e-02,1.66976e-01,1.04062e-01,1.99489e-01,3.70653e-01,-9.94333e-02,8.37696e-02,1.49013e-01,1.02148e-01,-1.16621e-01,2.36596e-01,4.29781e-02,-1.19717e-02,-1.90735e-01,-2.41790e-01,9.50146e-05,-1.20114e-01,0.00000e+00,0.00000e+00,0.00000e+00,0.00000e+00,0.00000e+00,0.00000e+00,0.00000e+00,0.00000e+00,0.00000e+00,0.00000e+00,0.00000e+00,0.00000e+00,0.00000e+00,0.00000e+00,0.00000e+00,0.00000e+00,0.00000e+00,0.00000e+00,0.00000e+00,0.00000e+00,0.00000e+00,0.00000e+00,0.00000e+00,0.00000e+00,0.00000e+00,0.00000e+00,0.00000e+00,0.00000e+00,0.00000e+00,0.00000e+00,0.00000e+00,0.00000e+00,0.00000e+00,0.00000e+00,0.00000e+00,0.00000e+00,0.00000e+00,0.00000e+00,0.00000e+00,0.00000e+00,
-7.80706e-02,-6.35479e-01,2.28330e-01,-8.15262e-02,-1.48963e-01,5.05739e-02,2.72270e-01,1.47937e-01,1.90216e-01,-2.36604e-02,-1.17320e-01,6.01925e-01,-7.47159e-04,2.31593e-02,-2.32976e-01,8.40448e-02,-4.70295e-01,-2.12700e-01,-1.62590e-01,7.43016e-02,1.95390e-01,3.35531e-02,-2.27583e-01,5.83669e-02,3.81939e-01,-1.34619e-01,1.98025e-01,6.47629e-02,-2.76261e-02,-5.06412e-02,0.00000e+00,0.00000e+00,0.00000e+00,0.00000e+00,0.00000e+00,0.00000e+00,0.00000e+00,0.00000e+00,0.00000e+00,0.00000e+00,0.00000e+00,0.00000e+00,0.00000e+00,0.00000e+00,0.00000e+00,0.00000e+00,0.00000e+00,0.00000e+00,0.00000e+00,0.00000e+00,0.00000e+00,0.00000e+00,0.00000e+00,0.00000e+00,0.00000e+00,0.00000e+00,0.00000e+00,0.00000e+00,0.00000e+00,0.00000e+00,0.00000e+00,0.00000e+00,0.00000e+00,0.00000e+00,0.00000e+00,0.00000e+00,0.00000e+00,0.00000e+00,0.00000e+00,0.00000e+00,
1.30484e-01,3.45504e-01,1.05927e-01,-1.69729e-01,-7.65269e-02,-1.59476e-01,-1.65652e-01,4.99986e-01,1.50478e-01,-3.36203e-01,9.92626e-02,-4.39485e-01,-2.96288e-01,1.35066e-01,4.31492e-01,1.72689e-01,2.75720e-01,-8.07959e-01,-3.38178e-01,4.25630e-01,-2.29747e-01,9.39807e-02,1.90361e-01,3.46627e-02,-3.54965e-01,-1.32128e-02,-1.10068e-01,3.07972e-01,1.87700e-01,-8.94273e-02,0.00000e+00,0.00000e+00,0.00000e+00,0.00000e+00,0.00000e+00,0.00000e+00,0.00000e+00,0.00000e+00,0.00000e+00,0.00000e+00,0.00000e+00,0.00000e+00,0.00000e+00,0.00000e+00,0.00000e+00,0.00000e+00,0.00000e+00,0.00000e+00,0.00000e+00,0.00000e+00,0.00000e+00,0.00000e+00,0.00000e+00,0.00000e+00,0.00000e+00,0.00000e+00,0.00000e+00,0.00000e+00,0.00000e+00,0.00000e+00,0.00000e+00,0.00000e+00,0.00000e+00,0.00000e+00,0.00000e+00,0.00000e+00,0.00000e+00,0.00000e+00,0.00000e+00,0.00000e+00,
-1.87718e-03,4.47520e-01,-7.38895e-02,-8.75105e-02,1.48445e-01,1.91021e-01,8.83676e-02,-4.37974e-02,-1.20585e-01,6.97656e-02,-5.06820e-02,-5.21600e-02,-1.96852e-02,-3.86483e-02,8.69338e-03,-2.83164e-01,-5.80411e-02,8.93985e-02,1.10984e-01,-1.66738e-01,5.25592e-02,-3.95360e-01,9.35747e-02,1.26159e-01,-1.57138e-01,9.21434e-02,-3.03264e-02,-4.56011e-02,9.60082e-03,9.69728e-02,0.00000e+00,0.00000e+00,0.00000e+00,0.00000e+00,0.00000e+00,0.00000e+00,0.00000e+00,0.00000e+00,0.00000e+00,0.00000e+00,0.00000e+00,0.00000e+00,0.00000e+00,0.00000e+00,0.00000e+00,0.00000e+00,0.00000e+00,0.00000e+00,0.00000e+00,0.00000e+00,0.00000e+00,0.00000e+00,0.00000e+00,0.00000e+00,0.00000e+00,0.00000e+00,0.00000e+00,0.00000e+00,0.00000e+00,0.00000e+00,0.00000e+00,0.00000e+00,0.00000e+00,0.00000e+00,0.00000e+00,0.00000e+00,0.00000e+00,0.00000e+00,0.00000e+00,0.00000e+00,
-4.56462e-01,-1.63504e-01,2.57832e-01,4.64535e-02,-7.31837e-02,-1.46020e-01,-7.48632e-02,-1.66353e-01,-4.32740e-02,9.98403e-02,1.16181e-01,1.07363e-01,8.05157e-02,2.03108e-02,3.66462e-02,-6.42531e-02,-3.86771e-02,1.89963e-01,-5.23223e-02,4.32362e-02,3.40281e-01,5.61406e-02,-3.38347e-01,-6.67643e-02,3.65375e-02,2.10273e-01,1.13540e-01,-2.36102e-02,9.55963e-02,-1.43076e-01,0.00000e+00,0.00000e+00,0.00000e+00,0.00000e+00,0.00000e+00,0.00000e+00,0.00000e+00,0.00000e+00,0.00000e+00,0.00000e+00,0.00000e+00,0.00000e+00,0.00000e+00,0.00000e+00,0.00000e+00,0.00000e+00,0.00000e+00,0.00000e+00,0.00000e+00,0.00000e+00,0.00000e+00,0.00000e+00,0.00000e+00,0.00000e+00,0.00000e+00,0.00000e+00,0.00000e+00,0.00000e+00,0.00000e+00,0.00000e+00,0.00000e+00,0.00000e+00,0.00000e+00,0.00000e+00,0.00000e+00,0.00000e+00,0.00000e+00,0.00000e+00,0.00000e+00,0.00000e+00,
-2.90009e-01,4.50740e-01,6.76463e-02,-4.00920e-03,-1.66041e-01,2.32163e-01,6.24782e-02,1.90913e-01,-1.87839e-01,-1.48064e-01,4.17185e-01,-5.70297e-01,-2.40785e-01,-1.72529e-01,1.77264e-02,-3.01013e-01,5.47850e-02,6.43216e-02,4.83557e-01,3.68850e-01,-1.27176e-01,1.19557e-01,1.73138e-01,1.76538e-01,1.48315e-01,6.88497e-02,-1.17263e-01,-2.55235e-01,-2.95717e-01,-2.20786e-01,0.00000e+00,0.00000e+00,0.00000e+00,0.00000e+00,0.00000e+00,0.00000e+00,0.00000e+00,0.00000e+00,0.00000e+00,0.00000e+00,0.00000e+00,0.00000e+00,0.00000e+00,0.00000e+00,0.00000e+00,0.00000e+00,0.00000e+00,0.00000e+00,0.00000e+00,0.00000e+00,0.00000e+00,0.00000e+00,0.00000e+00,0.00000e+00,0.00000e+00,0.00000e+00,0.00000e+00,0.00000e+00,0.00000e+00,0.00000e+00,0.00000e+00,0.00000e+00,0.00000e+00,0.00000e+00,0.00000e+00,0.00000e+00,0.00000e+00,0.00000e+00,0.00000e+00,0.00000e+00,
-3.54717e-02,7.53104e-02,9.23016e-03,-2.85846e-01,-1.24760e-01,-4.93266e-02,-3.96927e-02,1.22850e-01,-1.24511e-01,3.34976e-01,3.29801e-02,1.24568e-01,7.71544e-02,5.59301e-01,1.29157e-01,2.15672e-01,-1.55010e-01,6.16437e-02,1.02842e-03,-4.96918e-01,2.49166e-03,-1.99878e-01,-8.63846e-02,-2.73456e-01,-4.39681e-03,-1.66346e-01,1.94703e-01,-1.84494e-01,1.23482e-01,1.61942e-01,0.00000e+00,0.00000e+00,0.00000e+00,0.00000e+00,0.00000e+00,0.00000e+00,0.00000e+00,0.00000e+00,0.00000e+00,0.00000e+00,0.00000e+00,0.00000e+00,0.00000e+00,0.00000e+00,0.00000e+00,0.00000e+00,0.00000e+00,0.00000e+00,0.00000e+00,0.00000e+00,0.00000e+00,0.00000e+00,0.00000e+00,0.00000e+00,0.00000e+00,0.00000e+00,0.00000e+00,0.00000e+00,0.00000e+00,0.00000e+00,0.00000e+00,0.00000e+00,0.00000e+00,0.00000e+00,0.00000e+00,0.00000e+00,0.00000e+00,0.00000e+00,0.00000e+00,0.00000e+00,
1.16162e-01,-6.20869e-03,2.12186e-01,-5.39146e-03,7.83400e-02,4.52023e-01,-1.37810e-03,6.16011e-02,1.09305e-02,-6.27878e-02,-1.47949e-01,2.48407e-01,-4.03492e-01,-2.58598e-01,-2.22969e-01,-4.56082e-01,2.95503e-01,8.37926e-03,-1.61083e-01,2.90755e-01,3.17869e-02,-2.42199e-01,1.91306e-01,2.63989e-01,1.44629e-01,4.05925e-03,-2.94125e-01,-6.99804e-02,1.50152e-01,-2.27968e-01,0.00000e+00,0.00000e+00,0.00000e+00,0.00000e+00,0.00000e+00,0.00000e+00,0.00000e+00,0.00000e+00,0.00000e+00,0.00000e+00,0.00000e+00,0.00000e+00,0.00000e+00,0.00000e+00,0.00000e+00,0.00000e+00,0.00000e+00,0.00000e+00,0.00000e+00,0.00000e+00,0.00000e+00,0.00000e+00,0.00000e+00,0.00000e+00,0.00000e+00,0.00000e+00,0.00000e+00,0.00000e+00,0.00000e+00,0.00000e+00,0.00000e+00,0.00000e+00,0.00000e+00,0.00000e+00,0.00000e+00,0.00000e+00,0.00000e+00,0.00000e+00,0.00000e+00,0.00000e+00,
-2.40797e-01,-1.33257e-01,1.52095e-01,-2.13399e-01,-9.69766e-02,7.79532e-02,-2.31434e-01,2.50851e-01,2.25677e-01,1.08134e-01,2.22960e-01,2.31939e-01,3.16543e-02,4.27718e-01,-1.25302e-03,-5.42169e-02,4.26675e-01,-2.18831e-01,-9.27828e-02,1.22053e-02,1.78374e-02,-9.86817e-02,-1.83749e-01,-2.14319e-01,9.82296e-02,-2.37363e-02,-1.95241e-01,-3.20201e-02,-1.32894e-01,-1.20340e-01,0.00000e+00,0.00000e+00,0.00000e+00,0.00000e+00,0.00000e+00,0.00000e+00,0.00000e+00,0.00000e+00,0.00000e+00,0.00000e+00,0.00000e+00,0.00000e+00,0.00000e+00,0.00000e+00,0.00000e+00,0.00000e+00,0.00000e+00,0.00000e+00,0.00000e+00,0.00000e+00,0.00000e+00,0.00000e+00,0.00000e+00,0.00000e+00,0.00000e+00,0.00000e+00,0.00000e+00,0.00000e+00,0.00000e+00,0.00000e+00,0.00000e+00,0.00000e+00,0.00000e+00,0.00000e+00,0.00000e+00,0.00000e+00,0.00000e+00,0.00000e+00,0.00000e+00,0.00000e+00,
-2.03143e-01,3.27469e-02,8.85702e-02,-2.86997e-01,-2.16760e-01,1.97815e-01,-5.17743e-02,1.37793e-01,-3.44766e-02,2.13851e-01,-2.88715e-02,-9.83739e-02,1.29706e-01,2.15498e-01,-2.85816e-02,-2.68688e-01,5.14491e-03,-3.11334e-01,1.02733e-01,-2.20482e-01,2.32014e-01,6.56270e-02,-2.18276e-01,7.14986e-02,2.45342e-01,7.08731e-02,4.66294e-02,1.73541e-01,-6.82562e-02,6.63106e-03,0.00000e+00,0.00000e+00,0.00000e+00,0.00000e+00,0.00000e+00,0.00000e+00,0.00000e+00,0.00000e+00,0.00000e+00,0.00000e+00,0.00000e+00,0.00000e+00,0.00000e+00,0.00000e+00,0.00000e+00,0.00000e+00,0.00000e+00,0.00000e+00,0.00000e+00,0.00000e+00,0.00000e+00,0.00000e+00,0.00000e+00,0.00000e+00,0.00000e+00,0.00000e+00,0.00000e+00,0.00000e+00,0.00000e+00,0.00000e+00,0.00000e+00,0.00000e+00,0.00000e+00,0.00000e+00,0.00000e+00,0.00000e+00,0.00000e+00,0.00000e+00,0.00000e+00,0.00000e+00,
-4.24852e-01,-1.58102e-01,2.08457e-01,7.79981e-02,-2.37416e-01,-8.90076e-02,-5.40797e-02,-2.02180e-01,-1.18382e-01,-2.47985e-02,2.81458e-01,-3.31457e-02,1.00152e-01,3.47915e-02,-3.01088e-03,1.77770e-01,-4.24856e-03,8.40974e-02,2.25289e-01,1.39519e-01,1.43394e-01,1.91247e-01,-3.08609e-01,-1.12790e-01,2.40427e-01,-8.87619e-02,5.83282e-02,1.18083e-01,-1.06907e-01,-1.14721e-01,0.00000e+00,0.00000e+00,0.00000e+00,0.00000e+00,0.00000e+00,0.00000e+00,0.00000e+00,0.00000e+00,0.00000e+00,0.00000e+00,0.00000e+00,0.00000e+00,0.00000e+00,0.00000e+00,0.00000e+00,0.00000e+00,0.00000e+00,0.00000e+00,0.00000e+00,0.00000e+00,0.00000e+00,0.00000e+00,0.00000e+00,0.00000e+00,0.00000e+00,0.00000e+00,0.00000e+00,0.00000e+00,0.00000e+00,0.00000e+00,0.00000e+00,0.00000e+00,0.00000e+00,0.00000e+00,0.00000e+00,0.00000e+00,0.00000e+00,0.00000e+00,0.00000e+00,0.00000e+00,
-2.42057e-01,1.57896e-01,2.89594e-02,-2.47118e-01,-2.94771e-01,-8.65591e-02,1.27530e-01,-1.51813e-01,-2.10865e-01,2.80917e-02,1.43389e-01,-4.06936e-01,-1.56001e-01,6.33278e-02,3.34541e-01,1.52381e-01,-2.38563e-01,3.03239e-01,4.74633e-01,-1.78965e-01,9.86676e-02,2.49040e-01,1.27042e-01,1.83790e-01,-3.97705e-02,-6.58220e-02,1.11032e-01,-1.51425e-01,-2.63768e-01,1.50873e-01,0.00000e+00,0.00000e+00,0.00000e+00,0.00000e+00,0.00000e+00,0.00000e+00,0.00000e+00,0.00000e+00,0.00000e+00,0.00000e+00,0.00000e+00,0.00000e+00,0.00000e+00,0.00000e+00,0.00000e+00,0.00000e+00,0.00000e+00,0.00000e+00,0.00000e+00,0.00000e+00,0.00000e+00,0.00000e+00,0.00000e+00,0.00000e+00,0.00000e+00,0.00000e+00,0.00000e+00,0.00000e+00,0.00000e+00,0.00000e+00,0.00000e+00,0.00000e+00,0.00000e+00,0.00000e+00,0.00000e+00,0.00000e+00,0.00000e+00,0.00000e+00,0.00000e+00,0.00000e+00,
-3.44003e-01,-6.19774e-02,-2.33365e-01,-3.32803e-02,-3.69051e-02,2.51521e-01,5.24571e-02,-2.30257e-01,-1.05287e-01,1.59071e-01,-1.27338e-02,-9.78733e-02,4.71642e-01,-1.25849e-01,1.60672e-01,-2.13239e-01,-4.31243e-02,1.83611e-01,-9.29986e-02,7.25317e-02,3.56737e-01,1.59851e-01,-2.38277e-01,1.59130e-01,-1.23766e-01,-3.82827e-02,-9.33285e-03,4.66456e-02,1.98286e-01,-2.31603e-01,0.00000e+00,0.00000e+00,0.00000e+00,0.00000e+00,0.00000e+00,0.00000e+00,0.00000e+00,0.00000e+00,0.00000e+00,0.00000e+00,0.00000e+00,0.00000e+00,0.00000e+00,0.00000e+00,0.00000e+00,0.00000e+00,0.00000e+00,0.00000e+00,0.00000e+00,0.00000e+00,0.00000e+00,0.00000e+00,0.00000e+00,0.00000e+00,0.00000e+00,0.00000e+00,0.00000e+00,0.00000e+00,0.00000e+00,0.00000e+00,0.00000e+00,0.00000e+00,0.00000e+00,0.00000e+00,0.00000e+00,0.00000e+00,0.00000e+00,0.00000e+00,0.00000e+00,0.00000e+00,
7.27688e-02,9.20232e-02,1.72172e-01,2.03621e-01,-1.10229e-01,3.22700e-01,-1.99669e-01,1.10204e-02,1.79441e-01,4.21050e-02,-5.89369e-02,-5.52436e-02,-2.06458e-01,-3.16525e-01,-5.67405e-03,-2.42635e-01,3.73284e-01,-3.43365e-02,-2.74722e-01,3.04582e-02,-1.38319e-02,-3.67796e-02,3.42858e-02,1.12903e-01,1.15903e-01,-8.00646e-02,-1.73615e-01,2.33161e-02,9.52812e-02,-7.25632e-02,0.00000e+00,0.00000e+00,0.00000e+00,0.00000e+00,0.00000e+00,0.00000e+00,0.00000e+00,0.00000e+00,0.00000e+00,0.00000e+00,0.00000e+00,0.00000e+00,0.00000e+00,0.00000e+00,0.00000e+00,0.00000e+00,0.00000e+00,0.00000e+00,0.00000e+00,0.00000e+00,0.00000e+00,0.00000e+00,0.00000e+00,0.00000e+00,0.00000e+00,0.00000e+00,0.00000e+00,0.00000e+00,0.00000e+00,0.00000e+00,0.00000e+00,0.00000e+00,0.00000e+00,0.00000e+00,0.00000e+00,0.00000e+00,0.00000e+00,0.00000e+00,0.00000e+00,0.00000e+00,
-2.10054e-01,4.14994e-01,1.26225e-02,-2.01235e-02,-9.96564e-02,-1.77063e-01,-1.28103e-01,-4.19013e-02,-2.36727e-02,8.71660e-02,2.30968e-01,-3.26482e-01,-1.74987e-01,-4.18437e-02,-1.53290e-01,1.77322e-01,1.22419e-01,-2.75779e-02,2.30053e-01,8.57505e-02,-2.09142e-02,-8.85112e-02,1.62364e-01,6.19673e-02,2.52946e-01,-2.59314e-04,5.68325e-03,6.94792e-02,-2.06380e-01,-1.72916e-01,0.00000e+00,0.00000e+00,0.00000e+00,0.00000e+00,0.00000e+00,0.00000e+00,0.00000e+00,0.00000e+00,0.00000e+00,0.00000e+00,0.00000e+00,0.00000e+00,0.00000e+00,0.00000e+00,0.00000e+00,0.00000e+00,0.00000e+00,0.00000e+00,0.00000e+00,0.00000e+00,0.00000e+00,0.00000e+00,0.00000e+00,0.00000e+00,0.00000e+00,0.00000e+00,0.00000e+00,0.00000e+00,0.00000e+00,0.00000e+00,0.00000e+00,0.00000e+00,0.00000e+00,0.00000e+00,0.00000e+00,0.00000e+00,0.00000e+00,0.00000e+00,0.00000e+00,0.00000e+00,
-2.63416e-01,1.82808e-01,-4.11238e-01,5.69076e-02,1.25040e-01,1.87669e-01,2.20941e-02,-2.09189e-01,-2.15842e-02,6.17329e-02,1.32682e-01,-5.06371e-04,6.51907e-01,-1.24742e-01,6.25397e-02,-2.88139e-01,1.63278e-01,2.21655e-01,-3.96960e-02,-5.95977e-02,1.30734e-01,-1.82302e-01,-2.40669e-01,6.78347e-02,-1.87580e-01,1.00471e-01,-1.85372e-01,-1.24662e-02,6.12801e-02,-2.13517e-03,0.00000e+00,0.00000e+00,0.00000e+00,0.00000e+00,0.00000e+00,0.00000e+00,0.00000e+00,0.00000e+00,0.00000e+00,0.00000e+00,0.00000e+00,0.00000e+00,0.00000e+00,0.00000e+00,0.00000e+00,0.00000e+00,0.00000e+00,0.00000e+00,0.00000e+00,0.00000e+00,0.00000e+00,0.00000e+00,0.00000e+00,0.00000e+00,0.00000e+00,0.00000e+00,0.00000e+00,0.00000e+00,0.00000e+00,0.00000e+00,0.00000e+00,0.00000e+00,0.00000e+00,0.00000e+00,0.00000e+00,0.00000e+00,0.00000e+00,0.00000e+00,0.00000e+00,0.00000e+00,
-2.46556e-01,4.39225e-01,1.49242e-01,2.05470e-01,1.44493e-01,-6.32885e-02,-2.30976e-01,2.58875e-01,1.69449e-01,-1.04298e-01,2.48093e-01,-3.82540e-01,-8.73487e-02,-3.22373e-01,-2.93171e-01,-1.21405e-01,3.03735e-01,-3.22071e-01,-1.26841e-01,1.80216e-01,-1.53687e-03,-5.66847e-02,-6.18937e-02,1.16903e-01,1.48678e-01,1.84694e-01,-7.27588e-02,6.31957e-02,-4.26080e-02,-7.59171e-02,0.00000e+00,0.00000e+00,0.00000e+00,0.00000e+00,0.00000e+00,0.00000e+00,0.00000e+00,0.00000e+00,0.00000e+00,0.00000e+00,0.00000e+00,0.00000e+00,0.00000e+00,0.00000e+00,0.00000e+00,0.00000e+00,0.00000e+00,0.00000e+00,0.00000e+00,0.00000e+00,0.00000e+00,0.00000e+00,0.00000e+00,0.00000e+00,0.00000e+00,0.00000e+00,0.00000e+00,0.00000e+00,0.00000e+00,0.00000e+00,0.00000e+00,0.00000e+00,0.00000e+00,0.00000e+00,0.00000e+00,0.00000e+00,0.00000e+00,0.00000e+00,0.00000e+00,0.00000e+00,
-9.36970e-02,2.36881e-01,1.07478e-01,-2.01845e-01,-3.17063e-02,-6.59049e-02,-1.05534e-01,-3.91658e-02,1.27687e-01,2.79022e-01,-2.33099e-01,-3.92255e-01,-1.79156e-01,3.19771e-01,1.60802e-01,-1.06964e-01,1.93958e-01,1.92738e-01,-4.00334e-02,-3.32295e-01,3.26796e-01,1.55374e-01,7.16788e-02,-1.17925e-01,-1.29096e-01,1.72869e-01,-8.84239e-02,-1.53572e-01,-8.76535e-02,5.32728e-02,0.00000e+00,0.00000e+00,0.00000e+00,0.00000e+00,0.00000e+00,0.00000e+00,0.00000e+00,0.00000e+00,0.00000e+00,0.00000e+00,0.00000e+00,0.00000e+00,0.00000e+00,0.00000e+00,0.00000e+00,0.00000e+00,0.00000e+00,0.00000e+00,0.00000e+00,0.00000e+00,0.00000e+00,0.00000e+00,0.00000e+00,0.00000e+00,0.00000e+00,0.00000e+00,0.00000e+00,0.00000e+00,0.00000e+00,0.00000e+00,0.00000e+00,0.00000e+00,0.00000e+00,0.00000e+00,0.00000e+00,0.00000e+00,0.00000e+00,0.00000e+00,0.00000e+00,0.00000e+00,
-8.55434e-02,-3.26941e-01,-7.06889e-02,-1.45878e-01,-3.35003e-01,-1.22469e-01,2.32084e-01,-9.05299e-02,2.38219e-01,2.00767e-01,-8.56530e-02,1.93618e-01,-1.24796e-02,7.90010e-02,1.78269e-01,-7.27414e-02,-2.77914e-01,-1.43645e-01,-1.04061e-01,3.13921e-02,1.71196e-01,1.33323e-01,8.31685e-02,6.68771e-02,1.56735e-01,1.95210e-01,4.58300e-02,2.34175e-01,-1.34158e-01,-2.32159e-01,0.00000e+00,0.00000e+00,0.00000e+00,0.00000e+00,0.00000e+00,0.00000e+00,0.00000e+00,0.00000e+00,0.00000e+00,0.00000e+00,0.00000e+00,0.00000e+00,0.00000e+00,0.00000e+00,0.00000e+00,0.00000e+00,0.00000e+00,0.00000e+00,0.00000e+00,0.00000e+00,0.00000e+00,0.00000e+00,0.00000e+00,0.00000e+00,0.00000e+00,0.00000e+00,0.00000e+00,0.00000e+00,0.00000e+00,0.00000e+00,0.00000e+00,0.00000e+00,0.00000e+00,0.00000e+00,0.00000e+00,0.00000e+00,0.00000e+00,0.00000e+00,0.00000e+00,0.00000e+00,
-1.19234e-01,-1.44582e-02,2.78366e-03,2.09520e-01,1.67984e-01,3.68502e-01,-1.72072e-01,2.21097e-02,-1.48812e-01,-1.07911e-02,-1.13485e-01,2.51743e-01,-9.74000e-04,6.41491e-02,7.49180e-02,-2.73605e-02,-9.40423e-02,1.47373e-01,-3.33475e-02,-8.95639e-02,2.32720e-01,-2.37285e-01,-1.80966e-03,-2.73669e-01,-2.42902e-01,-3.41141e-01,2.66115e-01,-1.69482e-01,1.82160e-01,1.00355e-01,0.00000e+00,0.00000e+00,0.00000e+00,0.00000e+00,0.00000e+00,0.00000e+00,0.00000e+00,0.00000e+00,0.00000e+00,0.00000e+00,0.00000e+00,0.00000e+00,0.00000e+00,0.00000e+00,0.00000e+00,0.00000e+00,0.00000e+00,0.00000e+00,0.00000e+00,0.00000e+00,0.00000e+00,0.00000e+00,0.00000e+00,0.00000e+00,0.00000e+00,0.00000e+00,0.00000e+00,0.00000e+00,0.00000e+00,0.00000e+00,0.00000e+00,0.00000e+00,0.00000e+00,0.00000e+00,0.00000e+00,0.00000e+00,0.00000e+00,0.00000e+00,0.00000e+00,0.00000e+00,
-1.59163e-01,3.43530e-01,-5.36763e-02,1.10804e-01,1.79752e-01,-1.33116e-01,1.33027e-01,7.76103e-02,-7.87524e-03,1.15775e-01,1.21091e-01,-9.48116e-02,7.55821e-02,-2.62149e-01,-2.76338e-01,1.02223e-01,1.18337e-01,-4.92606e-02,1.85793e-01,-3.38141e-01,3.80726e-02,-2.48718e-01,-2.19058e-02,1.51345e-01,9.65863e-02,3.08932e-02,-2.51364e-01,-2.83497e-02,-1.77917e-01,2.22366e-01,0.00000e+00,0.00000e+00,0.00000e+00,0.00000e+00,0.00000e+00,0.00000e+00,0.00000e+00,0.00000e+00,0.00000e+00,0.00000e+00,0.00000e+00,0.00000e+00,0.00000e+00,0.00000e+00,0.00000e+00,0.00000e+00,0.00000e+00,0.00000e+00,0.00000e+00,0.00000e+00,0.00000e+00,0.00000e+00,0.00000e+00,0.00000e+00,0.00000e+00,0.00000e+00,0.00000e+00,0.00000e+00,0.00000e+00,0.00000e+00,0.00000e+00,0.00000e+00,0.00000e+00,0.00000e+00,0.00000e+00,0.00000e+00,0.00000e+00,0.00000e+00,0.00000e+00,0.00000e+00,
-1.98635e-01,1.51922e-01,-1.16321e-01,1.72618e-01,2.64721e-01,2.38047e-01,1.19864e-01,3.01875e-01,1.26743e-01,-3.13091e-02,2.17027e-01,-5.32474e-02,1.12922e-01,-2.36827e-01,-5.64252e-02,-1.41629e-02,-8.43560e-03,-2.31700e-01,-2.96553e-01,-3.12480e-01,-1.83926e-02,-9.86741e-02,3.39888e-03,6.42089e-02,-2.08296e-01,-2.23884e-01,-1.11429e-01,-7.01743e-02,1.69810e-01,3.43789e-01,0.00000e+00,0.00000e+00,0.00000e+00,0.00000e+00,0.00000e+00,0.00000e+00,0.00000e+00,0.00000e+00,0.00000e+00,0.00000e+00,0.00000e+00,0.00000e+00,0.00000e+00,0.00000e+00,0.00000e+00,0.00000e+00,0.00000e+00,0.00000e+00,0.00000e+00,0.00000e+00,0.00000e+00,0.00000e+00,0.00000e+00,0.00000e+00,0.00000e+00,0.00000e+00,0.00000e+00,0.00000e+00,0.00000e+00,0.00000e+00,0.00000e+00,0.00000e+00,0.00000e+00,0.00000e+00,0.00000e+00,0.00000e+00,0.00000e+00,0.00000e+00,0.00000e+00,0.00000e+00,
3.43647e-02,4.24475e-01,1.84455e-01,-2.79941e-01,-1.58432e-01,-4.45286e-01,-9.35370e-02,2.37830e-02,-1.59835e-01,-4.31631e-01,2.18974e-01,-1.53176e-01,-1.76004e-01,1.31110e-01,1.29640e-05,4.00727e-01,1.16940e-01,-1.95789e-01,3.32188e-01,6.79409e-01,-2.53339e-01,-2.71299e-01,-8.45040e-03,1.48831e-01,1.58419e-01,4.45596e-02,-2.34030e-02,1.72006e-01,-1.72353e-01,-2.47779e-01,0.00000e+00,0.00000e+00,0.00000e+00,0.00000e+00,0.00000e+00,0.00000e+00,0.00000e+00,0.00000e+00,0.00000e+00,0.00000e+00,0.00000e+00,0.00000e+00,0.00000e+00,0.00000e+00,0.00000e+00,0.00000e+00,0.00000e+00,0.00000e+00,0.00000e+00,0.00000e+00,0.00000e+00,0.00000e+00,0.00000e+00,0.00000e+00,0.00000e+00,0.00000e+00,0.00000e+00,0.00000e+00,0.00000e+00,0.00000e+00,0.00000e+00,0.00000e+00,0.00000e+00,0.00000e+00,0.00000e+00,0.00000e+00,0.00000e+00,0.00000e+00,0.00000e+00,0.00000e+00,
7.91661e-02,-1.49191e-01,1.50926e-01,2.90002e-01,1.86262e-01,1.37050e-01,-5.40357e-02,1.45709e-01,-1.03917e-01,7.08006e-02,-2.37329e-01,2.70513e-02,-9.06990e-02,-2.21409e-01,1.50231e-01,1.41668e-01,7.83471e-02,1.10856e-01,-8.60136e-03,-2.39865e-01,1.58163e-01,1.22139e-01,-6.02269e-02,-6.85923e-02,-3.36492e-01,-2.78717e-01,-2.43114e-02,-2.56565e-01,1.12518e-01,1.69064e-01,0.00000e+00,0.00000e+00,0.00000e+00,0.00000e+00,0.00000e+00,0.00000e+00,0.00000e+00,0.00000e+00,0.00000e+00,0.00000e+00,0.00000e+00,0.00000e+00,0.00000e+00,0.00000e+00,0.00000e+00,0.00000e+00,0.00000e+00,0.00000e+00,0.00000e+00,0.00000e+00,0.00000e+00,0.00000e+00,0.00000e+00,0.00000e+00,0.00000e+00,0.00000e+00,0.00000e+00,0.00000e+00,0.00000e+00,0.00000e+00,0.00000e+00,0.00000e+00,0.00000e+00,0.00000e+00,0.00000e+00,0.00000e+00,0.00000e+00,0.00000e+00,0.00000e+00,0.00000e+00,
-2.81402e-01,3.66205e-01,-1.25033e-01,-1.23593e-01,-1.73084e-02,-1.86279e-01,-1.33975e-01,8.11511e-02,4.35241e-02,1.90027e-01,1.73172e-01,-2.11237e-01,2.22826e-01,5.66342e-03,-1.24887e-01,3.01105e-01,5.02462e-02,1.60771e-01,1.58661e-01,-4.12928e-01,1.08230e-01,-1.54967e-01,-9.77932e-02,1.17930e-01,1.42196e-01,-1.14826e-01,8.37287e-02,-2.41922e-01,-2.02185e-01,2.22901e-01,0.00000e+00,0.00000e+00,0.00000e+00,0.00000e+00,0.00000e+00,0.00000e+00,0.00000e+00,0.00000e+00,0.00000e+00,0.00000e+00,0.00000e+00,0.00000e+00,0.00000e+00,0.00000e+00,0.00000e+00,0.00000e+00,0.00000e+00,0.00000e+00,0.00000e+00,0.00000e+00,0.00000e+00,0.00000e+00,0.00000e+00,0.00000e+00,0.00000e+00,0.00000e+00,0.00000e+00,0.00000e+00,0.00000e+00,0.00000e+00,0.00000e+00,0.00000e+00,0.00000e+00,0.00000e+00,0.00000e+00,0.00000e+00,0.00000e+00,0.00000e+00,0.00000e+00,0.00000e+00,
-1.93480e-01,1.34499e-01,-1.33536e-01,-1.81106e-01,-5.04478e-02,-4.25120e-02,5.63422e-02,2.08722e-01,-1.84158e-01,1.48270e-01,3.04970e-01,3.04270e-02,9.66532e-02,4.82179e-02,1.29245e-01,4.43890e-02,7.23416e-02,-1.28027e-01,3.72846e-01,-4.32082e-02,-1.11491e-01,-1.64926e-01,3.68831e-02,1.32888e-01,-7.87970e-02,-1.87708e-03,-1.28684e-01,-8.06954e-02,-1.88688e-01,-1.05062e-01,0.00000e+00,0.00000e+00,0.00000e+00,0.00000e+00,0.00000e+00,0.00000e+00,0.00000e+00,0.00000e+00,0.00000e+00,0.00000e+00,0.00000e+00,0.00000e+00,0.00000e+00,0.00000e+00,0.00000e+00,0.00000e+00,0.00000e+00,0.00000e+00,0.00000e+00,0.00000e+00,0.00000e+00,0.00000e+00,0.00000e+00,0.00000e+00,0.00000e+00,0.00000e+00,0.00000e+00,0.00000e+00,0.00000e+00,0.00000e+00,0.00000e+00,0.00000e+00,0.00000e+00,0.00000e+00,0.00000e+00,0.00000e+00,0.00000e+00,0.00000e+00,0.00000e+00,0.00000e+00,
-1.11057e-01,-2.77229e-01,3.19379e-01,2.16231e-01,-2.19569e-01,-2.93543e-02,3.58894e-02,9.74135e-02,3.05264e-02,-2.59104e-02,-1.10494e-01,2.80447e-01,-4.15012e-01,-2.79144e-01,5.47350e-02,-1.19663e-01,-1.61530e-03,3.60162e-02,7.05816e-02,-1.15068e-01,2.21551e-01,-3.21733e-03,9.56330e-02,6.29125e-02,1.64834e-01,1.49017e-01,-3.42741e-02,-1.33430e-01,-1.01108e-01,1.40978e-01,0.00000e+00,0.00000e+00,0.00000e+00,0.00000e+00,0.00000e+00,0.00000e+00,0.00000e+00,0.00000e+00,0.00000e+00,0.00000e+00,0.00000e+00,0.00000e+00,0.00000e+00,0.00000e+00,0.00000e+00,0.00000e+00,0.00000e+00,0.00000e+00,0.00000e+00,0.00000e+00,0.00000e+00,0.00000e+00,0.00000e+00,0.00000e+00,0.00000e+00,0.00000e+00,0.00000e+00,0.00000e+00,0.00000e+00,0.00000e+00,0.00000e+00,0.00000e+00,0.00000e+00,0.00000e+00,0.00000e+00,0.00000e+00,0.00000e+00,0.00000e+00,0.00000e+00,0.00000e+00,
-3.90467e-01,2.30371e-01,-1.72744e-01,9.37017e-02,8.29991e-02,1.29184e-01,3.39433e-02,3.96551e-02,1.32897e-01,-9.16019e-02,4.10314e-01,-1.41020e-01,-2.02745e-01,-1.85485e-01,2.79268e-02,-1.09585e-01,8.19431e-02,-9.37426e-03,9.40219e-02,1.60552e-01,-1.98471e-02,-8.93510e-02,3.75489e-01,9.17832e-02,-1.10926e-01,-1.95992e-02,-1.15886e-01,-3.02809e-02,-2.26919e-01,-6.89502e-02,0.00000e+00,0.00000e+00,0.00000e+00,0.00000e+00,0.00000e+00,0.00000e+00,0.00000e+00,0.00000e+00,0.00000e+00,0.00000e+00,0.00000e+00,0.00000e+00,0.00000e+00,0.00000e+00,0.00000e+00,0.00000e+00,0.00000e+00,0.00000e+00,0.00000e+00,0.00000e+00,0.00000e+00,0.00000e+00,0.00000e+00,0.00000e+00,0.00000e+00,0.00000e+00,0.00000e+00,0.00000e+00,0.00000e+00,0.00000e+00,0.00000e+00,0.00000e+00,0.00000e+00,0.00000e+00,0.00000e+00,0.00000e+00,0.00000e+00,0.00000e+00,0.00000e+00,0.00000e+00,
5.25114e-02,2.05380e-01,-1.29467e-01,9.60993e-02,-1.80996e-01,3.85015e-01,-2.58753e-01,2.70004e-02,-1.57045e-01,-1.85081e-02,-1.57120e-02,-6.23531e-01,2.66894e-01,-3.44788e-01,1.43780e-01,-6.30829e-01,9.89629e-02,-1.98569e-01,3.30079e-01,-1.19564e-01,-3.67994e-02,4.18151e-01,-1.37427e-01,2.48689e-01,3.72152e-02,2.45814e-01,1.59790e-01,1.71568e-01,-1.73035e-01,1.38072e-01,0.00000e+00,0.00000e+00,0.00000e+00,0.00000e+00,0.00000e+00,0.00000e+00,0.00000e+00,0.00000e+00,0.00000e+00,0.00000e+00,0.00000e+00,0.00000e+00,0.00000e+00,0.00000e+00,0.00000e+00,0.00000e+00,0.00000e+00,0.00000e+00,0.00000e+00,0.00000e+00,0.00000e+00,0.00000e+00,0.00000e+00,0.00000e+00,0.00000e+00,0.00000e+00,0.00000e+00,0.00000e+00,0.00000e+00,0.00000e+00,0.00000e+00,0.00000e+00,0.00000e+00,0.00000e+00,0.00000e+00,0.00000e+00,0.00000e+00,0.00000e+00,0.00000e+00,0.00000e+00,
7.80190e-02,1.02145e-01,-8.20313e-02,-3.27744e-01,6.60449e-02,-1.68265e-01,3.23865e-02,2.72349e-01,-1.28945e-01,7.12062e-02,-1.62108e-01,-2.92059e-01,8.83532e-03,6.29608e-01,-2.51007e-01,-1.39607e-01,-1.15572e-01,-2.12675e-02,2.45234e-01,1.48414e-02,8.40889e-02,1.89914e-01,7.31960e-02,-3.01864e-01,1.84962e-01,3.07872e-01,8.31857e-02,-2.51082e-01,-1.16289e-01,-8.60476e-02,0.00000e+00,0.00000e+00,0.00000e+00,0.00000e+00,0.00000e+00,0.00000e+00,0.00000e+00,0.00000e+00,0.00000e+00,0.00000e+00,0.00000e+00,0.00000e+00,0.00000e+00,0.00000e+00,0.00000e+00,0.00000e+00,0.00000e+00,0.00000e+00,0.00000e+00,0.00000e+00,0.00000e+00,0.00000e+00,0.00000e+00,0.00000e+00,0.00000e+00,0.00000e+00,0.00000e+00,0.00000e+00,0.00000e+00,0.00000e+00,0.00000e+00,0.00000e+00,0.00000e+00,0.00000e+00,0.00000e+00,0.00000e+00,0.00000e+00,0.00000e+00,0.00000e+00,0.00000e+00,
-1.40742e-01,4.02095e-01,1.12893e-01,2.19365e-01,-8.22152e-02,2.61220e-01,2.22293e-01,-4.34954e-02,-2.20830e-01,-3.01405e-03,-1.09544e-02,4.46314e-02,9.33792e-02,-2.90913e-01,7.09967e-02,-3.45519e-01,-1.40099e-01,2.08891e-01,9.73982e-02,-2.59480e-01,1.51697e-01,-4.46726e-01,-2.06273e-01,7.15479e-02,1.12185e-02,8.42986e-02,-8.21941e-02,-1.65396e-01,1.23431e-01,2.62494e-01,0.00000e+00,0.00000e+00,0.00000e+00,0.00000e+00,0.00000e+00,0.00000e+00,0.00000e+00,0.00000e+00,0.00000e+00,0.00000e+00,0.00000e+00,0.00000e+00,0.00000e+00,0.00000e+00,0.00000e+00,0.00000e+00,0.00000e+00,0.00000e+00,0.00000e+00,0.00000e+00,0.00000e+00,0.00000e+00,0.00000e+00,0.00000e+00,0.00000e+00,0.00000e+00,0.00000e+00,0.00000e+00,0.00000e+00,0.00000e+00,0.00000e+00,0.00000e+00,0.00000e+00,0.00000e+00,0.00000e+00,0.00000e+00,0.00000e+00,0.00000e+00,0.00000e+00,0.00000e+00,
2.61940e-02,2.37334e-01,1.85490e-01,2.49152e-01,-2.53305e-01,7.12605e-02,2.79355e-01,-6.81679e-02,-1.04352e-01,2.20338e-01,1.36144e-02,-3.39408e-01,-8.34405e-02,-2.37557e-01,-1.04908e-02,1.21331e-01,-3.97511e-01,-2.72234e-02,2.44666e-01,-4.64081e-01,-3.98083e-02,1.02074e-01,-1.02050e-01,-1.15946e-02,2.63795e-01,-1.92591e-01,1.18155e-01,9.53913e-02,-1.40314e-01,2.43743e-01,0.00000e+00,0.00000e+00,0.00000e+00,0.00000e+00,0.00000e+00,0.00000e+00,0.00000e+00,0.00000e+00,0.00000e+00,0.00000e+00,0.00000e+00,0.00000e+00,0.00000e+00,0.00000e+00,0.00000e+00,0.00000e+00,0.00000e+00,0.00000e+00,0.00000e+00,0.00000e+00,0.00000e+00,0.00000e+00,0.00000e+00,0.00000e+00,0.00000e+00,0.00000e+00,0.00000e+00,0.00000e+00,0.00000e+00,0.00000e+00,0.00000e+00,0.00000e+00,0.00000e+00,0.00000e+00,0.00000e+00,0.00000e+00,0.00000e+00,0.00000e+00,0.00000e+00,0.00000e+00,
-3.16239e-01,2.36927e-02,5.10513e-02,-2.30294e-01,-2.59544e-01,1.66865e-01,1.08388e-01,-3.07492e-01,-8.66342e-02,2.85998e-01,2.56192e-01,1.32810e-01,7.96326e-02,3.68477e-01,2.32669e-01,-2.83034e-02,7.96589e-02,2.97445e-01,3.17260e-02,-2.74139e-01,6.00472e-02,-1.56502e-01,-1.30684e-01,-1.38183e-01,2.68749e-02,-1.38562e-01,-1.88047e-01,1.00475e-02,5.49082e-02,-1.18592e-02,0.00000e+00,0.00000e+00,0.00000e+00,0.00000e+00,0.00000e+00,0.00000e+00,0.00000e+00,0.00000e+00,0.00000e+00,0.00000e+00,0.00000e+00,0.00000e+00,0.00000e+00,0.00000e+00,0.00000e+00,0.00000e+00,0.00000e+00,0.00000e+00,0.00000e+00,0.00000e+00,0.00000e+00,0.00000e+00,0.00000e+00,0.00000e+00,0.00000e+00,0.00000e+00,0.00000e+00,0.00000e+00,0.00000e+00,0.00000e+00,0.00000e+00,0.00000e+00,0.00000e+00,0.00000e+00,0.00000e+00,0.00000e+00,0.00000e+00,0.00000e+00,0.00000e+00,0.00000e+00,
-1.25064e-01,6.08488e-02,5.85582e-02,6.86698e-02,-6.78117e-02,-4.89667e-02,1.44883e-01,1.88531e-01,-1.56446e-01,3.31850e-01,1.55438e-01,-3.95566e-02,-2.18488e-01,1.62534e-01,-4.00959e-02,1.88768e-01,1.03678e-01,-1.14417e-01,2.72337e-01,-5.26771e-01,-3.03739e-02,-2.12922e-02,1.59929e-01,-2.31204e-01,1.07908e-01,-1.39802e-01,-2.48561e-01,-7.41135e-02,-1.15891e-01,1.94921e-01,0.00000e+00,0.00000e+00,0.00000e+00,0.00000e+00,0.00000e+00,0.00000e+00,0.00000e+00,0.00000e+00,0.00000e+00,0.00000e+00,0.00000e+00,0.00000e+00,0.00000e+00,0.00000e+00,0.00000e+00,0.00000e+00,0.00000e+00,0.00000e+00,0.00000e+00,0.00000e+00,0.00000e+00,0.00000e+00,0.00000e+00,0.00000e+00,0.00000e+00,0.00000e+00,0.00000e+00,0.00000e+00,0.00000e+00,0.00000e+00,0.00000e+00,0.00000e+00,0.00000e+00,0.00000e+00,0.00000e+00,0.00000e+00,0.00000e+00,0.00000e+00,0.00000e+00,0.00000e+00,
-1.61638e-01,2.23644e-01,-3.03621e-01,2.56975e-01,-6.39760e-02,2.20156e-02,3.60264e-02,1.41050e-01,1.83125e-01,-1.50867e-01,1.43763e-01,-1.67695e-01,1.59785e-01,-3.85730e-01,-1.03810e-01,9.35089e-02,-1.03093e-01,-2.00552e-01,-3.29771e-02,2.99791e-02,1.78754e-02,-5.59493e-02,1.43836e-01,1.28754e-01,1.67786e-01,-1.15525e-01,6.70666e-02,5.95024e-02,-1.50148e-01,1.20888e-01,0.00000e+00,0.00000e+00,0.00000e+00,0.00000e+00,0.00000e+00,0.00000e+00,0.00000e+00,0.00000e+00,0.00000e+00,0.00000e+00,0.00000e+00,0.00000e+00,0.00000e+00,0.00000e+00,0.00000e+00,0.00000e+00,0.00000e+00,0.00000e+00,0.00000e+00,0.00000e+00,0.00000e+00,0.00000e+00,0.00000e+00,0.00000e+00,0.00000e+00,0.00000e+00,0.00000e+00,0.00000e+00,0.00000e+00,0.00000e+00,0.00000e+00,0.00000e+00,0.00000e+00,0.00000e+00,0.00000e+00,0.00000e+00,0.00000e+00,0.00000e+00,0.00000e+00,0.00000e+00,
-8.91041e-03,6.01413e-01,-1.38586e-01,-6.01315e-02,-1.24911e-02,8.67034e-02,2.85385e-01,-1.02698e-01,9.71566e-02,3.58016e-02,-1.16620e-01,-2.21524e-01,2.75801e-01,1.01882e-02,3.09988e-01,-1.88191e-01,-8.74223e-02,2.24585e-01,-1.58619e-01,-6.88015e-03,1.25531e-01,-3.79889e-01,-1.37214e-01,4.99433e-02,-2.97497e-01,1.01488e-01,-1.97962e-01,-1.21887e-01,6.14629e-02,-2.89214e-02,0.00000e+00,0.00000e+00,0.00000e+00,0.00000e+00,0.00000e+00,0.00000e+00,0.00000e+00,0.00000e+00,0.00000e+00,0.00000e+00,0.00000e+00,0.00000e+00,0.00000e+00,0.00000e+00,0.00000e+00,0.00000e+00,0.00000e+00,0.00000e+00,0.00000e+00,0.00000e+00,0.00000e+00,0.00000e+00,0.00000e+00,0.00000e+00,0.00000e+00,0.00000e+00,0.00000e+00,0.00000e+00,0.00000e+00,0.00000e+00,0.00000e+00,0.00000e+00,0.00000e+00,0.00000e+00,0.00000e+00,0.00000e+00,0.00000e+00,0.00000e+00,0.00000e+00,0.00000e+00,
3.97586e-02,-2.10545e-02,3.13736e-02,-3.68721e-01,-3.05127e-01,1.29771e-01,4.73427e-02,6.88766e-02,-3.29577e-02,3.98761e-01,-1.46396e-01,8.40888e-02,3.46264e-01,4.96470e-01,3.58506e-01,-2.78700e-01,-1.92435e-01,-6.00753e-02,-2.75879e-01,-7.02818e-01,1.06637e-01,-6.30343e-02,-3.77638e-01,-1.27749e-01,-5.33784e-02,1.48929e-01,1.45093e-01,-8.80130e-03,3.08837e-01,3.04057e-01,0.00000e+00,0.00000e+00,0.00000e+00,0.00000e+00,0.00000e+00,0.00000e+00,0.00000e+00,0.00000e+00,0.00000e+00,0.00000e+00,0.00000e+00,0.00000e+00,0.00000e+00,0.00000e+00,0.00000e+00,0.00000e+00,0.00000e+00,0.00000e+00,0.00000e+00,0.00000e+00,0.00000e+00,0.00000e+00,0.00000e+00,0.00000e+00,0.00000e+00,0.00000e+00,0.00000e+00,0.00000e+00,0.00000e+00,0.00000e+00,0.00000e+00,0.00000e+00,0.00000e+00,0.00000e+00,0.00000e+00,0.00000e+00,0.00000e+00,0.00000e+00,0.00000e+00,0.00000e+00,
-6.11987e-02,-5.06472e-01,3.01675e-01,-7.89042e-02,-1.09269e-01,2.78945e-02,3.03560e-01,1.72354e-01,1.09100e-01,3.47622e-02,-4.15161e-02,2.33655e-01,-1.08937e-01,-6.16638e-02,-1.07960e-01,9.27053e-02,-6.16390e-01,-1.51375e-01,-1.03412e-01,-6.06220e-03,1.02715e-01,2.72816e-01,-1.92739e-01,1.40568e-01,2.17229e-01,-1.20600e-01,3.12830e-01,-2.09789e-02,-5.68733e-03,-2.87000e-02,0.00000e+00,0.00000e+00,0.00000e+00,0.00000e+00,0.00000e+00,0.00000e+00,0.00000e+00,0.00000e+00,0.00000e+00,0.00000e+00,0.00000e+00,0.00000e+00,0.00000e+00,0.00000e+00,0.00000e+00,0.00000e+00,0.00000e+00,0.00000e+00,0.00000e+00,0.00000e+00,0.00000e+00,0.00000e+00,0.00000e+00,0.00000e+00,0.00000e+00,0.00000e+00,0.00000e+00,0.00000e+00,0.00000e+00,0.00000e+00,0.00000e+00,0.00000e+00,0.00000e+00,0.00000e+00,0.00000e+00,0.00000e+00,0.00000e+00,0.00000e+00,0.00000e+00,0.00000e+00,
-1.43032e-02,3.42194e-01,4.93839e-02,1.21330e-01,1.51079e-01,3.48259e-01,1.58651e-01,-5.69778e-02,-2.43297e-01,1.44617e-01,5.47964e-02,-1.15598e-01,-3.91467e-02,-7.26364e-02,-2.96074e-01,-3.23146e-01,-4.27865e-02,2.11557e-01,3.23458e-01,-1.45828e-01,-4.04932e-02,-2.26595e-01,-1.02371e-02,-4.86935e-02,1.44995e-01,-2.51131e-02,-1.15865e-01,-1.54579e-01,-8.01611e-02,1.21125e-03,0.00000e+00,0.00000e+00,0.00000e+00,0.00000e+00,0.00000e+00,0.00000e+00,0.00000e+00,0.00000e+00,0.00000e+00,0.00000e+00,0.00000e+00,0.00000e+00,0.00000e+00,0.00000e+00,0.00000e+00,0.00000e+00,0.00000e+00,0.00000e+00,0.00000e+00,0.00000e+00,0.00000e+00,0.00000e+00,0.00000e+00,0.00000e+00,0.00000e+00,0.00000e+00,0.00000e+00,0.00000e+00,0.00000e+00,0.00000e+00,0.00000e+00,0.00000e+00,0.00000e+00,0.00000e+00,0.00000e+00,0.00000e+00,0.00000e+00,0.00000e+00,0.00000e+00,0.00000e+00,
1.21236e-01,3.47850e-01,3.84308e-01,1.75538e-02,-7.74277e-03,5.44994e-02,-2.49629e-01,1.49269e-01,-7.19013e-03,-2.58377e-01,4.81809e-02,-7.38872e-01,-4.41211e-01,-1.27788e-01,-3.03774e-01,1.21882e-01,2.07174e-01,-2.11177e-01,1.38714e-01,3.84720e-01,-1.69417e-01,3.91022e-01,5.69028e-02,1.10234e-01,3.11517e-01,-1.76381e-01,4.24547e-02,6.19081e-02,-1.31524e-01,-1.26343e-01,0.00000e+00,0.00000e+00,0.00000e+00,0.00000e+00,0.00000e+00,0.00000e+00,0.00000e+00,0.00000e+00,0.00000e+00,0.00000e+00,0.00000e+00,0.00000e+00,0.00000e+00,0.00000e+00,0.00000e+00,0.00000e+00,0.00000e+00,0.00000e+00,0.00000e+00,0.00000e+00,0.00000e+00,0.00000e+00,0.00000e+00,0.00000e+00,0.00000e+00,0.00000e+00,0.00000e+00,0.00000e+00,0.00000e+00,0.00000e+00,0.00000e+00,0.00000e+00,0.00000e+00,0.00000e+00,0.00000e+00,0.00000e+00,0.00000e+00,0.00000e+00,0.00000e+00,0.00000e+00,
-4.06298e-01,2.07424e-01,-6.70549e-02,3.76579e-02,1.34498e-01,8.97112e-02,-3.37155e-03,1.92300e-01,-1.08798e-01,7.27599e-02,7.98432e-02,-2.41398e-02,2.23102e-01,-1.39865e-02,-5.44049e-02,-1.94007e-02,1.18488e-01,-1.87130e-01,1.05854e-01,-4.94778e-04,3.26455e-01,-1.83284e-01,-1.56047e-01,-2.36714e-02,-8.00927e-02,-7.03104e-02,-1.15117e-01,-5.17002e-03,2.94396e-03,-7.22651e-02,0.00000e+00,0.00000e+00,0.00000e+00,0.00000e+00,0.00000e+00,0.00000e+00,0.00000e+00,0.00000e+00,0.00000e+00,0.00000e+00,0.00000e+00,0.00000e+00,0.00000e+00,0.00000e+00,0.00000e+00,0.00000e+00,0.00000e+00,0.00000e+00,0.00000e+00,0.00000e+00,0.00000e+00,0.00000e+00,0.00000e+00,0.00000e+00,0.00000e+00,0.00000e+00,0.00000e+00,0.00000e+00,0.00000e+00,0.00000e+00,0.00000e+00,0.00000e+00,0.00000e+00,0.00000e+00,0.00000e+00,0.00000e+00,0.00000e+00,0.00000e+00,0.00000e+00,0.00000e+00,
-3.76787e-01,-5.94385e-02,-1.02509e-01,-7.49938e-02,-2.13293e-01,1.64418e-01,-8.80821e-02,-1.44983e-01,-1.06387e-01,1.53248e-01,4.70337e-01,2.32343e-01,-1.49522e-01,-6.62858e-02,3.19378e-02,8.98736e-02,2.37782e-01,2.40929e-01,-6.49136e-02,-1.27335e-01,-9.35499e-02,-1.72904e-01,2.52031e-01,1.41280e-01,1.81355e-01,-2.54291e-01,-1.49700e-01,-9.59453e-02,1.71301e-01,-2.59130e-02,0.00000e+00,0.00000e+00,0.00000e+00,0.00000e+00,0.00000e+00,0.00000e+00,0.00000e+00,0.00000e+00,0.00000e+00,0.00000e+00,0.00000e+00,0.00000e+00,0.00000e+00,0.00000e+00,0.00000e+00,0.00000e+00,0.00000e+00,0.00000e+00,0.00000e+00,0.00000e+00,0.00000e+00,0.00000e+00,0.00000e+00,0.00000e+00,0.00000e+00,0.00000e+00,0.00000e+00,0.00000e+00,0.00000e+00,0.00000e+00,0.00000e+00,0.00000e+00,0.00000e+00,0.00000e+00,0.00000e+00,0.00000e+00,0.00000e+00,0.00000e+00,0.00000e+00,0.00000e+00,
-3.91134e-01,1.00723e-01,-2.08751e-01,-1.19640e-01,-1.56218e-01,3.68204e-01,2.15861e-01,-5.60608e-02,-3.36695e-02,7.95959e-02,2.86794e-01,1.16765e-01,9.49679e-02,1.76135e-01,-1.89001e-02,-1.67540e-01,-4.27031e-02,-9.69245e-03,-1.00420e-01,-2.49674e-01,1.04340e-01,-2.17488e-01,1.13783e-01,-5.64958e-02,1.75118e-01,-2.00664e-01,-1.73158e-01,6.57532e-02,1.34090e-01,1.70078e-01,0.00000e+00,0.00000e+00,0.00000e+00,0.00000e+00,0.00000e+00,0.00000e+00,0.00000e+00,0.00000e+00,0.00000e+00,0.00000e+00,0.00000e+00,0.00000e+00,0.00000e+00,0.00000e+00,0.00000e+00,0.00000e+00,0.00000e+00,0.00000e+00,0.00000e+00,0.00000e+00,0.00000e+00,0.00000e+00,0.00000e+00,0.00000e+00,0.00000e+00,0.00000e+00,0.00000e+00,0.00000e+00,0.00000e+00,0.00000e+00,0.00000e+00,0.00000e+00,0.00000e+00,0.00000e+00,0.00000e+00,0.00000e+00,0.00000e+00,0.00000e+00,0.00000e+00,0.00000e+00,
-1.37939e-01,6.40235e-02,2.61242e-01,2.94385e-01,-2.59141e-01,-1.40005e-01,-2.91362e-01,2.93230e-01,2.14373e-02,5.19080e-02,8.48057e-02,-3.92367e-01,-1.44774e-01,-7.49889e-02,-5.11897e-02,1.30531e-01,2.64472e-01,-2.50281e-01,1.03032e-01,1.14631e-01,5.31334e-02,3.28344e-01,-1.16469e-01,-2.19396e-01,3.10331e-01,9.47410e-03,2.68898e-02,-4.29496e-02,-1.24469e-01,-1.66539e-01,0.00000e+00,0.00000e+00,0.00000e+00,0.00000e+00,0.00000e+00,0.00000e+00,0.00000e+00,0.00000e+00,0.00000e+00,0.00000e+00,0.00000e+00,0.00000e+00,0.00000e+00,0.00000e+00,0.00000e+00,0.00000e+00,0.00000e+00,0.00000e+00,0.00000e+00,0.00000e+00,0.00000e+00,0.00000e+00,0.00000e+00,0.00000e+00,0.00000e+00,0.00000e+00,0.00000e+00,0.00000e+00,0.00000e+00,0.00000e+00,0.00000e+00,0.00000e+00,0.00000e+00,0.00000e+00,0.00000e+00,0.00000e+00,0.00000e+00,0.00000e+00,0.00000e+00,0.00000e+00,
-2.41739e-02,5.79712e-02,2.40477e-02,8.87905e-02,-3.82856e-01,-1.41059e-01,-8.47923e-02,-2.63341e-02,-6.93790e-02,3.22040e-02,8.61718e-02,5.63871e-02,1.19070e-01,-4.74872e-02,2.45878e-01,1.19197e-01,2.77574e-01,-2.25248e-02,-1.52925e-01,-2.76607e-01,-6.19979e-02,-1.14358e-01,-1.43118e-01,-4.13033e-02,1.36978e-01,2.18613e-02,-1.92782e-01,4.88589e-02,2.22304e-01,2.44403e-01,0.00000e+00,0.00000e+00,0.00000e+00,0.00000e+00,0.00000e+00,0.00000e+00,0.00000e+00,0.00000e+00,0.00000e+00,0.00000e+00,0.00000e+00,0.00000e+00,0.00000e+00,0.00000e+00,0.00000e+00,0.00000e+00,0.00000e+00,0.00000e+00,0.00000e+00,0.00000e+00,0.00000e+00,0.00000e+00,0.00000e+00,0.00000e+00,0.00000e+00,0.00000e+00,0.00000e+00,0.00000e+00,0.00000e+00,0.00000e+00,0.00000e+00,0.00000e+00,0.00000e+00,0.00000e+00,0.00000e+00,0.00000e+00,0.00000e+00,0.00000e+00,0.00000e+00,0.00000e+00,
-4.79563e-01,1.42391e-01,-3.46920e-01,-1.71158e-01,4.56365e-02,1.65923e-01,6.86089e-02,-2.30768e-01,8.76403e-02,4.79962e-02,4.56049e-01,8.87990e-02,2.77431e-01,3.08184e-01,-5.73759e-02,-2.35140e-01,-5.36509e-02,3.96361e-01,-1.03101e-01,-2.86974e-03,2.35135e-02,-2.31190e-01,6.94881e-02,-1.37027e-01,1.17394e-02,6.92171e-02,-1.49580e-02,-1.65594e-01,1.54604e-02,-4.51265e-02,0.00000e+00,0.00000e+00,0.00000e+00,0.00000e+00,0.00000e+00,0.00000e+00,0.00000e+00,0.00000e+00,0.00000e+00,0.00000e+00,0.00000e+00,0.00000e+00,0.00000e+00,0.00000e+00,0.00000e+00,0.00000e+00,0.00000e+00,0.00000e+00,0.00000e+00,0.00000e+00,0.00000e+00,0.00000e+00,0.00000e+00,0.00000e+00,0.00000e+00,0.00000e+00,0.00000e+00,0.00000e+00,0.00000e+00,0.00000e+00,0.00000e+00,0.00000e+00,0.00000e+00,0.00000e+00,0.00000e+00,0.00000e+00,0.00000e+00,0.00000e+00,0.00000e+00,0.00000e+00,
-3.35150e-01,3.73105e-01,1.06025e-01,5.56633e-02,-1.05766e-01,-2.99924e-02,-5.06976e-03,1.57188e-01,9.60243e-02,-9.17728e-03,1.45972e-02,-3.10488e-01,2.38111e-03,-1.36405e-02,-1.65198e-01,-7.73107e-02,8.21589e-02,-2.86754e-02,1.79271e-02,2.06308e-01,3.20553e-01,-6.26170e-02,-1.08406e-01,-4.20228e-02,2.70964e-01,1.07303e-01,-7.70891e-02,-1.28513e-01,-1.13951e-01,-1.97131e-01,0.00000e+00,0.00000e+00,0.00000e+00,0.00000e+00,0.00000e+00,0.00000e+00,0.00000e+00,0.00000e+00,0.00000e+00,0.00000e+00,0.00000e+00,0.00000e+00,0.00000e+00,0.00000e+00,0.00000e+00,0.00000e+00,0.00000e+00,0.00000e+00,0.00000e+00,0.00000e+00,0.00000e+00,0.00000e+00,0.00000e+00,0.00000e+00,0.00000e+00,0.00000e+00,0.00000e+00,0.00000e+00,0.00000e+00,0.00000e+00,0.00000e+00,0.00000e+00,0.00000e+00,0.00000e+00,0.00000e+00,0.00000e+00,0.00000e+00,0.00000e+00,0.00000e+00,0.00000e+00,
-3.90027e-01,3.41935e-01,3.10796e-01,1.44148e-01,-1.11770e-01,2.03735e-01,-8.32571e-02,2.39815e-01,1.22305e-01,1.39623e-01,2.31525e-01,-4.76170e-01,-3.32112e-01,-2.17197e-01,5.82444e-02,-3.84190e-01,1.19291e-01,-2.34406e-01,1.33144e-01,1.14818e-02,1.58502e-01,1.34236e-01,2.13157e-02,7.30487e-02,5.35261e-02,1.80455e-01,-3.60343e-02,-5.40903e-03,-2.55449e-01,-1.51104e-01,0.00000e+00,0.00000e+00,0.00000e+00,0.00000e+00,0.00000e+00,0.00000e+00,0.00000e+00,0.00000e+00,0.00000e+00,0.00000e+00,0.00000e+00,0.00000e+00,0.00000e+00,0.00000e+00,0.00000e+00,0.00000e+00,0.00000e+00,0.00000e+00,0.00000e+00,0.00000e+00,0.00000e+00,0.00000e+00,0.00000e+00,0.00000e+00,0.00000e+00,0.00000e+00,0.00000e+00,0.00000e+00,0.00000e+00,0.00000e+00,0.00000e+00,0.00000e+00,0.00000e+00,0.00000e+00,0.00000e+00,0.00000e+00,0.00000e+00,0.00000e+00,0.00000e+00,0.00000e+00,
-2.80036e-01,-4.67857e-02,-8.78539e-02,-3.28425e-01,-7.70936e-02,8.90423e-02,3.00205e-01,6.46495e-02,-3.93912e-02,-1.19999e-01,3.83801e-02,1.59553e-01,3.12037e-01,2.20525e-01,-5.41919e-02,-1.58152e-01,-8.87781e-02,-1.58048e-01,-2.40208e-02,3.49580e-02,2.41656e-01,-1.12768e-01,-2.24183e-01,1.07900e-01,1.31285e-01,6.91094e-02,-2.11426e-01,9.33980e-02,6.34120e-02,8.50413e-02,0.00000e+00,0.00000e+00,0.00000e+00,0.00000e+00,0.00000e+00,0.00000e+00,0.00000e+00,0.00000e+00,0.00000e+00,0.00000e+00,0.00000e+00,0.00000e+00,0.00000e+00,0.00000e+00,0.00000e+00,0.00000e+00,0.00000e+00,0.00000e+00,0.00000e+00,0.00000e+00,0.00000e+00,0.00000e+00,0.00000e+00,0.00000e+00,0.00000e+00,0.00000e+00,0.00000e+00,0.00000e+00,0.00000e+00,0.00000e+00,0.00000e+00,0.00000e+00,0.00000e+00,0.00000e+00,0.00000e+00,0.00000e+00,0.00000e+00,0.00000e+00,0.00000e+00,0.00000e+00,
-2.79885e-01,2.38923e-01,-4.14882e-02,2.64044e-01,-5.59671e-02,2.73374e-01,4.47641e-02,1.88145e-01,-1.43900e-02,1.17059e-01,3.04335e-01,1.27521e-01,1.03779e-01,-3.74279e-01,1.24484e-01,-3.00193e-01,1.68810e-01,-3.29816e-01,-1.86224e-01,-2.41118e-01,-2.44498e-02,-3.66444e-01,-6.22906e-02,1.10236e-01,-6.85172e-02,2.68189e-02,-2.13575e-01,1.41671e-01,2.00614e-01,1.24059e-01,0.00000e+00,0.00000e+00,0.00000e+00,0.00000e+00,0.00000e+00,0.00000e+00,0.00000e+00,0.00000e+00,0.00000e+00,0.00000e+00,0.00000e+00,0.00000e+00,0.00000e+00,0.00000e+00,0.00000e+00,0.00000e+00,0.00000e+00,0.00000e+00,0.00000e+00,0.00000e+00,0.00000e+00,0.00000e+00,0.00000e+00,0.00000e+00,0.00000e+00,0.00000e+00,0.00000e+00,0.00000e+00,0.00000e+00,0.00000e+00,0.00000e+00,0.00000e+00,0.00000e+00,0.00000e+00,0.00000e+00,0.00000e+00,0.00000e+00,0.00000e+00,0.00000e+00,0.00000e+00,
-3.23794e-01,-2.00231e-01,6.81148e-02,-2.31222e-01,1.64231e-01,-2.62738e-01,1.76511e-01,1.99009e-01,1.22266e-01,1.08649e-01,5.08014e-01,-4.70424e-02,-4.73936e-02,4.02378e-01,-4.93203e-01,4.35361e-01,-1.62664e-01,-2.12441e-01,9.60982e-02,5.87347e-02,-1.84220e-01,2.47274e-01,-2.07212e-02,-1.71155e-01,3.28972e-01,-1.72623e-01,-1.38472e-02,1.34320e-02,-2.18365e-01,-1.67384e-01,0.00000e+00,0.00000e+00,0.00000e+00,0.00000e+00,0.00000e+00,0.00000e+00,0.00000e+00,0.00000e+00,0.00000e+00,0.00000e+00,0.00000e+00,0.00000e+00,0.00000e+00,0.00000e+00,0.00000e+00,0.00000e+00,0.00000e+00,0.00000e+00,0.00000e+00,0.00000e+00,0.00000e+00,0.00000e+00,0.00000e+00,0.00000e+00,0.00000e+00,0.00000e+00,0.00000e+00,0.00000e+00,0.00000e+00,0.00000e+00,0.00000e+00,0.00000e+00,0.00000e+00,0.00000e+00,0.00000e+00,0.00000e+00,0.00000e+00,0.00000e+00,0.00000e+00,0.00000e+00,
-6.39727e-02,4.11899e-02,4.75750e-02,-2.96751e-01,-7.02075e-02,-7.52810e-02,-9.27089e-02,-1.31116e-01,1.14158e-01,2.40814e-01,3.32680e-01,-1.97017e-01,-2.19447e-01,4.26159e-01,1.67643e-01,2.23896e-02,-5.18172e-02,-1.47362e-02,5.04471e-02,-5.39513e-01,-2.68708e-01,1.55827e-01,1.71873e-01,-1.29408e-01,-9.74354e-02,5.28914e-02,1.44526e-01,1.45853e-01,-1.64605e-01,2.98700e-01,0.00000e+00,0.00000e+00,0.00000e+00,0.00000e+00,0.00000e+00,0.00000e+00,0.00000e+00,0.00000e+00,0.00000e+00,0.00000e+00,0.00000e+00,0.00000e+00,0.00000e+00,0.00000e+00,0.00000e+00,0.00000e+00,0.00000e+00,0.00000e+00,0.00000e+00,0.00000e+00,0.00000e+00,0.00000e+00,0.00000e+00,0.00000e+00,0.00000e+00,0.00000e+00,0.00000e+00,0.00000e+00,0.00000e+00,0.00000e+00,0.00000e+00,0.00000e+00,0.00000e+00,0.00000e+00,0.00000e+00,0.00000e+00,0.00000e+00,0.00000e+00,0.00000e+00,0.00000e+00,
-1.41157e-01,2.71180e-01,3.25342e-01,2.50515e-01,-2.04173e-01,3.06399e-01,-1.87137e-01,1.79825e-01,-1.76085e-01,3.11973e-02,1.13594e-01,-2.28771e-01,-2.98602e-01,-2.42932e-01,-5.69574e-02,-5.04447e-01,1.71964e-01,-2.62943e-01,3.29853e-02,-5.53060e-02,2.75626e-02,-4.24087e-02,-2.67408e-02,-7.58277e-03,2.61131e-01,1.98048e-01,1.51728e-02,8.31180e-02,1.43100e-01,2.41087e-02,0.00000e+00,0.00000e+00,0.00000e+00,0.00000e+00,0.00000e+00,0.00000e+00,0.00000e+00,0.00000e+00,0.00000e+00,0.00000e+00,0.00000e+00,0.00000e+00,0.00000e+00,0.00000e+00,0.00000e+00,0.00000e+00,0.00000e+00,0.00000e+00,0.00000e+00,0.00000e+00,0.00000e+00,0.00000e+00,0.00000e+00,0.00000e+00,0.00000e+00,0.00000e+00,0.00000e+00,0.00000e+00,0.00000e+00,0.00000e+00,0.00000e+00,0.00000e+00,0.00000e+00,0.00000e+00,0.00000e+00,0.00000e+00,0.00000e+00,0.00000e+00,0.00000e+00,0.00000e+00,
-7.51366e-02,3.23858e-01,-1.70880e-01,-3.33875e-01,-1.93181e-02,-1.12906e-01,1.49357e-01,1.24031e-02,3.28173e-02,2.22352e-01,1.04253e-02,-4.47605e-01,3.99847e-02,5.46396e-01,1.38756e-01,1.52391e-01,-1.55017e-01,1.64378e-01,-3.98955e-02,-2.18500e-01,6.47113e-02,1.23747e-01,1.30895e-01,-2.12521e-01,-1.19438e-01,-3.94852e-02,5.65972e-03,-1.76781e-01,7.07814e-03,-3.85252e-03,0.00000e+00,0.00000e+00,0.00000e+00,0.00000e+00,0.00000e+00,0.00000e+00,0.00000e+00,0.00000e+00,0.00000e+00,0.00000e+00,0.00000e+00,0.00000e+00,0.00000e+00,0.00000e+00,0.00000e+00,0.00000e+00,0.00000e+00,0.00000e+00,0.00000e+00,0.00000e+00,0.00000e+00,0.00000e+00,0.00000e+00,0.00000e+00,0.00000e+00,0.00000e+00,0.00000e+00,0.00000e+00,0.00000e+00,0.00000e+00,0.00000e+00,0.00000e+00,0.00000e+00,0.00000e+00,0.00000e+00,0.00000e+00,0.00000e+00,0.00000e+00,0.00000e+00,0.00000e+00,
-2.78174e-01,-5.16843e-02,-8.00874e-02,2.52317e-01,-2.24333e-01,-4.35473e-02,1.91943e-01,1.15693e-01,1.93982e-01,1.84872e-01,-2.40290e-02,2.80744e-01,-3.97724e-02,-4.48885e-01,4.23346e-01,-1.13245e-01,-3.49548e-01,-9.25545e-02,-3.31950e-01,-4.42045e-02,3.02203e-01,-2.29060e-01,1.19860e-01,1.96568e-01,-1.99013e-01,1.56792e-01,1.57605e-01,-2.31390e-02,1.37968e-01,-1.40667e-01,0.00000e+00,0.00000e+00,0.00000e+00,0.00000e+00,0.00000e+00,0.00000e+00,0.00000e+00,0.00000e+00,0.00000e+00,0.00000e+00,0.00000e+00,0.00000e+00,0.00000e+00,0.00000e+00,0.00000e+00,0.00000e+00,0.00000e+00,0.00000e+00,0.00000e+00,0.00000e+00,0.00000e+00,0.00000e+00,0.00000e+00,0.00000e+00,0.00000e+00,0.00000e+00,0.00000e+00,0.00000e+00,0.00000e+00,0.00000e+00,0.00000e+00,0.00000e+00,0.00000e+00,0.00000e+00,0.00000e+00,0.00000e+00,0.00000e+00,0.00000e+00,0.00000e+00,0.00000e+00,
-3.60553e-01,1.19905e-01,1.61075e-01,-2.31374e-01,7.85469e-02,-2.37956e-01,1.84189e-01,3.97697e-01,1.06379e-01,-8.82657e-02,1.92794e-01,-7.30527e-02,-3.10439e-01,2.40128e-02,-1.83049e-01,1.19532e-01,-2.49106e-03,-2.90543e-01,-4.18090e-02,-2.10707e-02,1.67758e-01,-4.68523e-02,1.49364e-01,2.07361e-01,1.04502e-01,1.18423e-01,-1.81698e-01,-1.07154e-01,-6.45701e-02,1.09336e-01,0.00000e+00,0.00000e+00,0.00000e+00,0.00000e+00,0.00000e+00,0.00000e+00,0.00000e+00,0.00000e+00,0.00000e+00,0.00000e+00,0.00000e+00,0.00000e+00,0.00000e+00,0.00000e+00,0.00000e+00,0.00000e+00,0.00000e+00,0.00000e+00,0.00000e+00,0.00000e+00,0.00000e+00,0.00000e+00,0.00000e+00,0.00000e+00,0.00000e+00,0.00000e+00,0.00000e+00,0.00000e+00,0.00000e+00,0.00000e+00,0.00000e+00,0.00000e+00,0.00000e+00,0.00000e+00,0.00000e+00,0.00000e+00,0.00000e+00,0.00000e+00,0.00000e+00,0.00000e+00,
-2.64090e-01,1.64408e-01,1.79231e-01,-1.31336e-01,7.37914e-02,1.36006e-01,-1.46014e-01,2.47550e-02,-4.04532e-02,1.80836e-01,2.62635e-01,1.49206e-01,-1.34043e-01,1.22851e-01,-1.80390e-02,-3.04374e-01,1.78390e-01,-1.90722e-01,-2.03619e-02,2.23038e-02,1.45439e-03,-3.13614e-01,-4.51877e-02,8.48486e-03,-5.57524e-02,1.68368e-01,-3.23765e-02,1.65967e-01,6.08152e-02,-2.03140e-01,0.00000e+00,0.00000e+00,0.00000e+00,0.00000e+00,0.00000e+00,0.00000e+00,0.00000e+00,0.00000e+00,0.00000e+00,0.00000e+00,0.00000e+00,0.00000e+00,0.00000e+00,0.00000e+00,0.00000e+00,0.00000e+00,0.00000e+00,0.00000e+00,0.00000e+00,0.00000e+00,0.00000e+00,0.00000e+00,0.00000e+00,0.00000e+00,0.00000e+00,0.00000e+00,0.00000e+00,0.00000e+00,0.00000e+00,0.00000e+00,0.00000e+00,0.00000e+00,0.00000e+00,0.00000e+00,0.00000e+00,0.00000e+00,0.00000e+00,0.00000e+00,0.00000e+00,0.00000e+00,
1.00717e-03,5.64168e-01,-1.19513e-01,-2.30835e-01,2.53828e-01,-1.29840e-01,-6.27816e-02,1.62530e-01,2.48509e-03,-2.17848e-01,-6.72579e-02,-2.59849e-01,2.58676e-02,9.31581e-02,1.59937e-01,-2.33347e-02,4.46201e-03,-8.67149e-02,-6.33712e-02,3.24942e-02,6.62507e-02,-3.04319e-01,9.36453e-02,1.37676e-01,-4.13765e-01,1.53175e-01,5.83196e-02,-7.58155e-02,6.08861e-02,1.85354e-01,0.00000e+00,0.00000e+00,0.00000e+00,0.00000e+00,0.00000e+00,0.00000e+00,0.00000e+00,0.00000e+00,0.00000e+00,0.00000e+00,0.00000e+00,0.00000e+00,0.00000e+00,0.00000e+00,0.00000e+00,0.00000e+00,0.00000e+00,0.00000e+00,0.00000e+00,0.00000e+00,0.00000e+00,0.00000e+00,0.00000e+00,0.00000e+00,0.00000e+00,0.00000e+00,0.00000e+00,0.00000e+00,0.00000e+00,0.00000e+00,0.00000e+00,0.00000e+00,0.00000e+00,0.00000e+00,0.00000e+00,0.00000e+00,0.00000e+00,0.00000e+00,0.00000e+00,0.00000e+00,
8.94867e-02,4.67989e-01,-3.18197e-02,4.06920e-01,-1.21202e-01,-4.18065e-02,-1.49905e-01,2.74136e-01,1.15427e-01,-1.57708e-01,-3.81299e-01,-4.74200e-01,-5.48136e-02,-5.26668e-01,1.72727e-02,8.87602e-02,-1.86250e-02,-1.71181e-01,5.32756e-02,6.66017e-02,0.00000e+00,0.00000e+00,0.00000e+00,0.00000e+00,0.00000e+00,0.00000e+00,0.00000e+00,0.00000e+00,0.00000e+00,0.00000e+00,2.91813e-01,6.21162e-03,8.66333e-02,1.19748e-01,1.03929e-01,-4.69536e-02,1.68530e-01,-1.02955e-01,-1.68703e-01,9.11066e-02,0.00000e+00,0.00000e+00,0.00000e+00,0.00000e+00,0.00000e+00,0.00000e+00,0.00000e+00,0.00000e+00,0.00000e+00,0.00000e+00,0.00000e+00,0.00000e+00,0.00000e+00,0.00000e+00,0.00000e+00,0.00000e+00,0.00000e+00,0.00000e+00,0.00000e+00,0.00000e+00,0.00000e+00,0.00000e+00,0.00000e+00,0.00000e+00,0.00000e+00,0.00000e+00,0.00000e+00,0.00000e+00,0.00000e+00,0.00000e+00,
-3.31112e-01,3.19077e-02,-5.68513e-04,2.48810e-01,-2.26092e-01,-1.19102e-01,1.31616e-03,-7.24836e-02,5.36887e-02,-1.44836e-01,1.03704e-01,2.34756e-02,-2.20259e-01,-3.33999e-01,1.59426e-01,-1.36188e-02,-1.86135e-04,-5.14468e-02,-1.26488e-01,1.65794e-01,0.00000e+00,0.00000e+00,0.00000e+00,0.00000e+00,0.00000e+00,0.00000e+00,0.00000e+00,0.00000e+00,0.00000e+00,0.00000e+00,2.27409e-01,-5.53833e-02,2.20828e-01,8.51894e-02,6.66656e-02,1.32721e-01,-1.13003e-03,1.23930e-01,7.27993e-02,-2.09587e-02,0.00000e+00,0.00000e+00,0.00000e+00,0.00000e+00,0.00000e+00,0.00000e+00,0.00000e+00,0.00000e+00,0.00000e+00,0.00000e+00,0.00000e+00,0.00000e+00,0.00000e+00,0.00000e+00,0.00000e+00,0.00000e+00,0.00000e+00,0.00000e+00,0.00000e+00,0.00000e+00,0.00000e+00,0.00000e+00,0.00000e+00,0.00000e+00,0.00000e+00,0.00000e+00,0.00000e+00,0.00000e+00,0.00000e+00,0.00000e+00,
-6.49784e-02,5.18252e-03,1.25952e-01,2.66474e-01,2.99312e-01,-9.37406e-02,3.45815e-01,2.69250e-01,7.86277e-02,-1.19038e-01,4.60420e-01,1.95052e-01,3.14859e-03,-5.48357e-01,-4.19638e-01,-1.09160e-01,-4.39497e-01,-1.86336e-01,-1.69630e-01,3.77091e-01,0.00000e+00,0.00000e+00,0.00000e+00,0.00000e+00,0.00000e+00,0.00000e+00,0.00000e+00,0.00000e+00,0.00000e+00,0.00000e+00,-3.95441e-01,-2.00234e-01,-1.29101e-01,2.81883e-01,1.20326e-01,2.02901e-01,9.36827e-02,-8.29142e-02,9.10019e-02,-2.58053e-01,0.00000e+00,0.00000e+00,0.00000e+00,0.00000e+00,0.00000e+00,0.00000e+00,0.00000e+00,0.00000e+00,0.00000e+00,0.00000e+00,0.00000e+00,0.00000e+00,0.00000e+00,0.00000e+00,0.00000e+00,0.00000e+00,0.00000e+00,0.00000e+00,0.00000e+00,0.00000e+00,0.00000e+00,0.00000e+00,0.00000e+00,0.00000e+00,0.00000e+00,0.00000e+00,0.00000e+00,0.00000e+00,0.00000e+00,0.00000e+00,
-2.38325e-01,-4.45544e-02,2.43377e-01,-7.14246e-02,2.19633e-01,1.16803e-01,1.47707e-01,-9.36792e-02,-1.05403e-01,-3.02433e-02,5.41654e-02,2.48121e-01,-4.53244e-01,2.49443e-01,-2.09739e-02,1.35631e-01,1.24018e-01,5.67778e-02,7.39998e-02,-1.29039e-01,0.00000e+00,0.00000e+00,0.00000e+00,0.00000e+00,0.00000e+00,0.00000e+00,0.00000e+00,0.00000e+00,0.00000e+00,0.00000e+00,1.84159e-01,-2.03566e-01,2.09867e-01,-1.78018e-01,-1.98659e-01,-2.52434e-01,-2.71725e-01,3.69013e-02,3.14033e-02,1.59282e-01,0.00000e+00,0.00000e+00,0.00000e+00,0.00000e+00,0.00000e+00,0.00000e+00,0.00000e+00,0.00000e+00,0.00000e+00,0.00000e+00,0.00000e+00,0.00000e+00,0.00000e+00,0.00000e+00,0.00000e+00,0.00000e+00,0.00000e+00,0.00000e+00,0.00000e+00,0.00000e+00,0.00000e+00,0.00000e+00,0.00000e+00,0.00000e+00,0.00000e+00,0.00000e+00,0.00000e+00,0.00000e+00,0.00000e+00,0.00000e+00,
-2.95730e-01,-1.32133e-01,6.15650e-02,-6.21566e-02,2.87069e-02,2.22549e-01,1.52095e-01,-1.69967e-01,-7.02725e-02,2.16233e-01,2.35796e-01,3.53416e-01,-1.76057e-01,-2.20089e-01,9.08603e-02,-3.77350e-02,-3.44004e-01,1.97866e-01,8.09749e-02,7.80085e-02,0.00000e+00,0.00000e+00,0.00000e+00,0.00000e+00,0.00000e+00,0.00000e+00,0.00000e+00,0.00000e+00,0.00000e+00,0.00000e+00,5.99342e-02,-2.21283e-01,1.14492e-01,2.82246e-01,-1.19567e-01,-1.84814e-01,1.91909e-01,-2.78981e-02,-1.07024e-02,-2.94242e-01,0.00000e+00,0.00000e+00,0.00000e+00,0.00000e+00,0.00000e+00,0.00000e+00,0.00000e+00,0.00000e+00,0.00000e+00,0.00000e+00,0.00000e+00,0.00000e+00,0.00000e+00,0.00000e+00,0.00000e+00,0.00000e+00,0.00000e+00,0.00000e+00,0.00000e+00,0.00000e+00,0.00000e+00,0.00000e+00,0.00000e+00,0.00000e+00,0.00000e+00,0.00000e+00,0.00000e+00,0.00000e+00,0.00000e+00,0.00000e+00,
-2.82802e-01,1.51584e-01,1.16376e-01,-2.62658e-01,-3.90718e-02,-7.95320e-02,-1.73203e-01,-7.80454e-02,-1.07048e-01,3.35210e-03,-3.68855e-02,-6.49770e-02,-2.41519e-01,5.04941e-01,1.87678e-01,1.08371e-01,1.44604e-01,2.34081e-01,2.16692e-01,1.87252e-01,0.00000e+00,0.00000e+00,0.00000e+00,0.00000e+00,0.00000e+00,0.00000e+00,0.00000e+00,0.00000e+00,0.00000e+00,0.00000e+00,3.19687e-01,-8.66070e-02,1.25143e-01,-2.42282e-01,-1.48606e-01,-2.88395e-02,2.85990e-02,-1.56036e-01,-1.09644e-01,-1.90605e-01,0.00000e+00,0.00000e+00,0.00000e+00,0.00000e+00,0.00000e+00,0.00000e+00,0.00000e+00,0.00000e+00,0.00000e+00,0.00000e+00,0.00000e+00,0.00000e+00,0.00000e+00,0.00000e+00,0.00000e+00,0.00000e+00,0.00000e+00,0.00000e+00,0.00000e+00,0.00000e+00,0.00000e+00,0.00000e+00,0.00000e+00,0.00000e+00,0.00000e+00,0.00000e+00,0.00000e+00,0.00000e+00,0.00000e+00,0.00000e+00,
-2.18418e-01,-5.61086e-02,7.03818e-02,-1.69043e-01,-2.09954e-01,-9.20899e-02,-8.75384e-03,-1.28863e-01,9.93383e-02,3.63440e-02,6.94057e-02,-4.60392e-02,4.62391e-02,-6.75537e-02,1.66976e-01,1.04062e-01,1.99489e-01,3.70653e-01,-9.94333e-02,8.37696e-02,0.00000e+00,0.00000e+00,0.00000e+00,0.00000e+00,0.00000e+00,0.00000e+00,0.00000e+00,0.00000e+00,0.00000e+00,0.00000e+00,1.49013e-01,1.02148e-01,-1.16621e-01,2.36596e-01,4.29781e-02,-1.19717e-02,-1.90735e-01,-2.41790e-01,9.50146e-05,-1.20114e-01,0.00000e+00,0.00000e+00,0.00000e+00,0.00000e+00,0.00000e+00,0.00000e+00,0.00000e+00,0.00000e+00,0.00000e+00,0.00000e+00,0.00000e+00,0.00000e+00,0.00000e+00,0.00000e+00,0.00000e+00,0.00000e+00,0.00000e+00,0.00000e+00,0.00000e+00,0.00000e+00,0.00000e+00,0.00000e+00,0.00000e+00,0.00000e+00,0.00000e+00,0.00000e+00,0.00000e+00,0.00000e+00,0.00000e+00,0.00000e+00,
-7.80706e-02,-6.35479e-01,2.28330e-01,-8.15262e-02,-1.48963e-01,5.05739e-02,2.72270e-01,1.47937e-01,1.90216e-01,-2.36604e-02,-1.17320e-01,6.01925e-01,-7.47159e-04,2.31593e-02,-2.32976e-01,8.40448e-02,-4.70295e-01,-2.12700e-01,-1.62590e-01,7.43016e-02,0.00000e+00,0.00000e+00,0.00000e+00,0.00000e+00,0.00000e+00,0.00000e+00,0.00000e+00,0.00000e+00,0.00000e+00,0.00000e+00,1.95390e-01,3.35531e-02,-2.27583e-01,5.83669e-02,3.81939e-01,-1.34619e-01,1.98025e-01,6.47629e-02,-2.76261e-02,-5.06412e-02,0.00000e+00,0.00000e+00,0.00000e+00,0.00000e+00,0.00000e+00,0.00000e+00,0.00000e+00,0.00000e+00,0.00000e+00,0.00000e+00,0.00000e+00,0.00000e+00,0.00000e+00,0.00000e+00,0.00000e+00,0.00000e+00,0.00000e+00,0.00000e+00,0.00000e+00,0.00000e+00,0.00000e+00,0.00000e+00,0.00000e+00,0.00000e+00,0.00000e+00,0.00000e+00,0.00000e+00,0.00000e+00,0.00000e+00,0.00000e+00,
1.30484e-01,3.45504e-01,1.05927e-01,-1.69729e-01,-7.65269e-02,-1.59476e-01,-1.65652e-01,4.99986e-01,1.50478e-01,-3.36203e-01,9.92626e-02,-4.39485e-01,-2.96288e-01,1.35066e-01,4.31492e-01,1.72689e-01,2.75720e-01,-8.07959e-01,-3.38178e-01,4.25630e-01,0.00000e+00,0.00000e+00,0.00000e+00,0.00000e+00,0.00000e+00,0.00000e+00,0.00000e+00,0.00000e+00,0.00000e+00,0.00000e+00,-2.29747e-01,9.39807e-02,1.90361e-01,3.46627e-02,-3.54965e-01,-1.32128e-02,-1.10068e-01,3.07972e-01,1.87700e-01,-8.94273e-02,0.00000e+00,0.00000e+00,0.00000e+00,0.00000e+00,0.00000e+00,0.00000e+00,0.00000e+00,0.00000e+00,0.00000e+00,0.00000e+00,0.00000e+00,0.00000e+00,0.00000e+00,0.00000e+00,0.00000e+00,0.00000e+00,0.00000e+00,0.00000e+00,0.00000e+00,0.00000e+00,0.00000e+00,0.00000e+00,0.00000e+00,0.00000e+00,0.00000e+00,0.00000e+00,0.00000e+00,0.00000e+00,0.00000e+00,0.00000e+00,
-1.87718e-03,4.47520e-01,-7.38895e-02,-8.75105e-02,1.48445e-01,1.91021e-01,8.83676e-02,-4.37974e-02,-1.20585e-01,6.97656e-02,-5.06820e-02,-5.21600e-02,-1.96852e-02,-3.86483e-02,8.69338e-03,-2.83164e-01,-5.80411e-02,8.93985e-02,1.10984e-01,-1.66738e-01,0.00000e+00,0.00000e+00,0.00000e+00,0.00000e+00,0.00000e+00,0.00000e+00,0.00000e+00,0.00000e+00,0.00000e+00,0.00000e+00,5.25592e-02,-3.95360e-01,9.35747e-02,1.26159e-01,-1.57138e-01,9.21434e-02,-3.03264e-02,-4.56011e-02,9.60082e-03,9.69728e-02,0.00000e+00,0.00000e+00,0.00000e+00,0.00000e+00,0.00000e+00,0.00000e+00,0.00000e+00,0.00000e+00,0.00000e+00,0.00000e+00,0.00000e+00,0.00000e+00,0.00000e+00,0.00000e+00,0.00000e+00,0.00000e+00,0.00000e+00,0.00000e+00,0.00000e+00,0.00000e+00,0.00000e+00,0.00000e+00,0.00000e+00,0.00000e+00,0.00000e+00,0.00000e+00,0.00000e+00,0.00000e+00,0.00000e+00,0.00000e+00,
-4.56462e-01,-1.63504e-01,2.57832e-01,4.64535e-02,-7.31837e-02,-1.46020e-01,-7.48632e-02,-1.66353e-01,-4.32740e-02,9.98403e-02,1.16181e-01,1.07363e-01,8.05157e-02,2.03108e-02,3.66462e-02,-6.42531e-02,-3.86771e-02,1.89963e-01,-5.23223e-02,4.32362e-02,0.00000e+00,0.00000e+00,0.00000e+00,0.00000e+00,0.00000e+00,0.00000e+00,0.00000e+00,0.00000e+00,0.00000e+00,0.00000e+00,3.40281e-01,5.61406e-02,-3.38347e-01,-6.67643e-02,3.65375e-02,2.10273e-01,1.13540e-01,-2.36102e-02,9.55963e-02,-1.43076e-01,0.00000e+00,0.00000e+00,0.00000e+00,0.00000e+00,0.00000e+00,0.00000e+00,0.00000e+00,0.00000e+00,0.00000e+00,0.00000e+00,0.00000e+00,0.00000e+00,0.00000e+00,0.00000e+00,0.00000e+00,0.00000e+00,0.00000e+00,0.00000e+00,0.00000e+00,0.00000e+00,0.00000e+00,0.00000e+00,0.00000e+00,0.00000e+00,0.00000e+00,0.00000e+00,0.00000e+00,0.00000e+00,0.00000e+00,0.00000e+00,
-2.90009e-01,4.50740e-01,6.76463e-02,-4.00920e-03,-1.66041e-01,2.32163e-01,6.24782e-02,1.90913e-01,-1.87839e-01,-1.48064e-01,4.17185e-01,-5.70297e-01,-2.40785e-01,-1.72529e-01,1.77264e-02,-3.01013e-01,5.47850e-02,6.43216e-02,4.83557e-01,3.68850e-01,0.00000e+00,0.00000e+00,0.00000e+00,0.00000e+00,0.00000e+00,0.00000e+00,0.00000e+00,0.00000e+00,0.00000e+00,0.00000e+00,-1.27176e-01,1.19557e-01,1.73138e-01,1.76538e-01,1.48315e-01,6.88497e-02,-1.17263e-01,-2.55235e-01,-2.95717e-01,-2.20786e-01,0.00000e+00,0.00000e+00,0.00000e+00,0.00000e+00,0.00000e+00,0.00000e+00,0.00000e+00,0.00000e+00,0.00000e+00,0.00000e+00,0.00000e+00,0.00000e+00,0.00000e+00,0.00000e+00,0.00000e+00,0.00000e+00,0.00000e+00,0.00000e+00,0.00000e+00,0.00000e+00,0.00000e+00,0.00000e+00,0.00000e+00,0.00000e+00,0.00000e+00,0.00000e+00,0.00000e+00,0.00000e+00,0.00000e+00,0.00000e+00,
-3.54717e-02,7.53104e-02,9.23016e-03,-2.85846e-01,-1.24760e-01,-4.93266e-02,-3.96927e-02,1.22850e-01,-1.24511e-01,3.34976e-01,3.29801e-02,1.24568e-01,7.71544e-02,5.59301e-01,1.29157e-01,2.15672e-01,-1.55010e-01,6.16437e-02,1.02842e-03,-4.96918e-01,0.00000e+00,0.00000e+00,0.00000e+00,0.00000e+00,0.00000e+00,0.00000e+00,0.00000e+00,0.00000e+00,0.00000e+00,0.00000e+00,2.49166e-03,-1.99878e-01,-8.63846e-02,-2.73456e-01,-4.39681e-03,-1.66346e-01,1.94703e-01,-1.84494e-01,1.23482e-01,1.61942e-01,0.00000e+00,0.00000e+00,0.00000e+00,0.00000e+00,0.00000e+00,0.00000e+00,0.00000e+00,0.00000e+00,0.00000e+00,0.00000e+00,0.00000e+00,0.00000e+00,0.00000e+00,0.00000e+00,0.00000e+00,0.00000e+00,0.00000e+00,0.00000e+00,0.00000e+00,0.00000e+00,0.00000e+00,0.00000e+00,0.00000e+00,0.00000e+00,0.00000e+00,0.00000e+00,0.00000e+00,0.00000e+00,0.00000e+00,0.00000e+00,
1.16162e-01,-6.20869e-03,2.12186e-01,-5.39146e-03,7.83400e-02,4.52023e-01,-1.37810e-03,6.16011e-02,1.09305e-02,-6.27878e-02,-1.47949e-01,2.48407e-01,-4.03492e-01,-2.58598e-01,-2.22969e-01,-4.56082e-01,2.95503e-01,8.37926e-03,-1.61083e-01,2.90755e-01,0.00000e+00,0.00000e+00,0.00000e+00,0.00000e+00,0.00000e+00,0.00000e+00,0.00000e+00,0.00000e+00,0.00000e+00,0.00000e+00,3.17869e-02,-2.42199e-01,1.91306e-01,2.63989e-01,1.44629e-01,4.05925e-03,-2.94125e-01,-6.99804e-02,1.50152e-01,-2.27968e-01,0.00000e+00,0.00000e+00,0.00000e+00,0.00000e+00,0.00000e+00,0.00000e+00,0.00000e+00,0.00000e+00,0.00000e+00,0.00000e+00,0.00000e+00,0.00000e+00,0.00000e+00,0.00000e+00,0.00000e+00,0.00000e+00,0.00000e+00,0.00000e+00,0.00000e+00,0.00000e+00,0.00000e+00,0.00000e+00,0.00000e+00,0.00000e+00,0.00000e+00,0.00000e+00,0.00000e+00,0.00000e+00,0.00000e+00,0.00000e+00,
-2.40797e-01,-1.33257e-01,1.52095e-01,-2.13399e-01,-9.69766e-02,7.79532e-02,-2.31434e-01,2.50851e-01,2.25677e-01,1.08134e-01,2.22960e-01,2.31939e-01,3.16543e-02,4.27718e-01,-1.25302e-03,-5.42169e-02,4.26675e-01,-2.18831e-01,-9.27828e-02,1.22053e-02,0.00000e+00,0.00000e+00,0.00000e+00,0.00000e+00,0.00000e+00,0.00000e+00,0.00000e+00,0.00000e+00,0.00000e+00,0.00000e+00,1.78374e-02,-9.86817e-02,-1.83749e-01,-2.14319e-01,9.82296e-02,-2.37363e-02,-1.95241e-01,-3.20201e-02,-1.32894e-01,-1.20340e-01,0.00000e+00,0.00000e+00,0.00000e+00,0.00000e+00,0.00000e+00,0.00000e+00,0.00000e+00,0.00000e+00,0.00000e+00,0.00000e+00,0.00000e+00,0.00000e+00,0.00000e+00,0.00000e+00,0.00000e+00,0.00000e+00,0.00000e+00,0.00000e+00,0.00000e+00,0.00000e+00,0.00000e+00,0.00000e+00,0.00000e+00,0.00000e+00,0.00000e+00,0.00000e+00,0.00000e+00,0.00000e+00,0.00000e+00,0.00000e+00,
-2.03143e-01,3.27469e-02,8.85702e-02,-2.86997e-01,-2.16760e-01,1.97815e-01,-5.17743e-02,1.37793e-01,-3.44766e-02,2.13851e-01,-2.88715e-02,-9.83739e-02,1.29706e-01,2.15498e-01,-2.85816e-02,-2.68688e-01,5.14491e-03,-3.11334e-01,1.02733e-01,-2.20482e-01,0.00000e+00,0.00000e+00,0.00000e+00,0.00000e+00,0.00000e+00,0.00000e+00,0.00000e+00,0.00000e+00,0.00000e+00,0.00000e+00,2.32014e-01,6.56270e-02,-2.18276e-01,7.14986e-02,2.45342e-01,7.08731e-02,4.66294e-02,1.73541e-01,-6.82562e-02,6.63106e-03,0.00000e+00,0.00000e+00,0.00000e+00,0.00000e+00,0.00000e+00,0.00000e+00,0.00000e+00,0.00000e+00,0.00000e+00,0.00000e+00,0.00000e+00,0.00000e+00,0.00000e+00,0.00000e+00,0.00000e+00,0.00000e+00,0.00000e+00,0.00000e+00,0.00000e+00,0.00000e+00,0.00000e+00,0.00000e+00,0.00000e+00,0.00000e+00,0.00000e+00,0.00000e+00,0.00000e+00,0.00000e+00,0.00000e+00,0.00000e+00,
-4.24852e-01,-1.58102e-01,2.08457e-01,7.79981e-02,-2.37416e-01,-8.90076e-02,-5.40797e-02,-2.02180e-01,-1.18382e-01,-2.47985e-02,2.81458e-01,-3.31457e-02,1.00152e-01,3.47915e-02,-3.01088e-03,1.77770e-01,-4.24856e-03,8.40974e-02,2.25289e-01,1.39519e-01,0.00000e+00,0.00000e+00,0.00000e+00,0.00000e+00,0.00000e+00,0.00000e+00,0.00000e+00,0.00000e+00,0.00000e+00,0.00000e+00,1.43394e-01,1.91247e-01,-3.08609e-01,-1.12790e-01,2.40427e-01,-8.87619e-02,5.83282e-02,1.18083e-01,-1.06907e-01,-1.14721e-01,0.00000e+00,0.00000e+00,0.00000e+00,0.00000e+00,0.00000e+00,0.00000e+00,0.00000e+00,0.00000e+00,0.00000e+00,0.00000e+00,0.00000e+00,0.00000e+00,0.00000e+00,0.00000e+00,0.00000e+00,0.00000e+00,0.00000e+00,0.00000e+00,0.00000e+00,0.00000e+00,0.00000e+00,0.00000e+00,0.00000e+00,0.00000e+00,0.00000e+00,0.00000e+00,0.00000e+00,0.00000e+00,0.00000e+00,0.00000e+00,
-2.42057e-01,1.57896e-01,2.89594e-02,-2.47118e-01,-2.94771e-01,-8.65591e-02,1.27530e-01,-1.51813e-01,-2.10865e-01,2.80917e-02,1.43389e-01,-4.06936e-01,-1.56001e-01,6.33278e-02,3.34541e-01,1.52381e-01,-2.38563e-01,3.03239e-01,4.74633e-01,-1.78965e-01,0.00000e+00,0.00000e+00,0.00000e+00,0.00000e+00,0.00000e+00,0.00000e+00,0.00000e+00,0.00000e+00,0.00000e+00,0.00000e+00,9.86676e-02,2.49040e-01,1.27042e-01,1.83790e-01,-3.97705e-02,-6.58220e-02,1.11032e-01,-1.51425e-01,-2.63768e-01,1.50873e-01,0.00000e+00,0.00000e+00,0.00000e+00,0.00000e+00,0.00000e+00,0.00000e+00,0.00000e+00,0.00000e+00,0.00000e+00,0.00000e+00,0.00000e+00,0.00000e+00,0.00000e+00,0.00000e+00,0.00000e+00,0.00000e+00,0.00000e+00,0.00000e+00,0.00000e+00,0.00000e+00,0.00000e+00,0.00000e+00,0.00000e+00,0.00000e+00,0.00000e+00,0.00000e+00,0.00000e+00,0.00000e+00,0.00000e+00,0.00000e+00,
-3.44003e-01,-6.19774e-02,-2.33365e-01,-3.32803e-02,-3.69051e-02,2.51521e-01,5.24571e-02,-2.30257e-01,-1.05287e-01,1.59071e-01,-1.27338e-02,-9.78733e-02,4.71642e-01,-1.25849e-01,1.60672e-01,-2.13239e-01,-4.31243e-02,1.83611e-01,-9.29986e-02,7.25317e-02,0.00000e+00,0.00000e+00,0.00000e+00,0.00000e+00,0.00000e+00,0.00000e+00,0.00000e+00,0.00000e+00,0.00000e+00,0.00000e+00,3.56737e-01,1.59851e-01,-2.38277e-01,1.59130e-01,-1.23766e-01,-3.82827e-02,-9.33285e-03,4.66456e-02,1.98286e-01,-2.31603e-01,0.00000e+00,0.00000e+00,0.00000e+00,0.00000e+00,0.00000e+00,0.00000e+00,0.00000e+00,0.00000e+00,0.00000e+00,0.00000e+00,0.00000e+00,0.00000e+00,0.00000e+00,0.00000e+00,0.00000e+00,0.00000e+00,0.00000e+00,0.00000e+00,0.00000e+00,0.00000e+00,0.00000e+00,0.00000e+00,0.00000e+00,0.00000e+00,0.00000e+00,0.00000e+00,0.00000e+00,0.00000e+00,0.00000e+00,0.00000e+00,
7.27688e-02,9.20232e-02,1.72172e-01,2.03621e-01,-1.10229e-01,3.22700e-01,-1.99669e-01,1.10204e-02,1.79441e-01,4.21050e-02,-5.89369e-02,-5.52436e-02,-2.06458e-01,-3.16525e-01,-5.67405e-03,-2.42635e-01,3.73284e-01,-3.43365e-02,-2.74722e-01,3.04582e-02,0.00000e+00,0.00000e+00,0.00000e+00,0.00000e+00,0.00000e+00,0.00000e+00,0.00000e+00,0.00000e+00,0.00000e+00,0.00000e+00,-1.38319e-02,-3.67796e-02,3.42858e-02,1.12903e-01,1.15903e-01,-8.00646e-02,-1.73615e-01,2.33161e-02,9.52812e-02,-7.25632e-02,0.00000e+00,0.00000e+00,0.00000e+00,0.00000e+00,0.00000e+00,0.00000e+00,0.00000e+00,0.00000e+00,0.00000e+00,0.00000e+00,0.00000e+00,0.00000e+00,0.00000e+00,0.00000e+00,0.00000e+00,0.00000e+00,0.00000e+00,0.00000e+00,0.00000e+00,0.00000e+00,0.00000e+00,0.00000e+00,0.00000e+00,0.00000e+00,0.00000e+00,0.00000e+00,0.00000e+00,0.00000e+00,0.00000e+00,0.00000e+00,
-2.10054e-01,4.14994e-01,1.26225e-02,-2.01235e-02,-9.96564e-02,-1.77063e-01,-1.28103e-01,-4.19013e-02,-2.36727e-02,8.71660e-02,2.30968e-01,-3.26482e-01,-1.74987e-01,-4.18437e-02,-1.53290e-01,1.77322e-01,1.22419e-01,-2.75779e-02,2.30053e-01,8.57505e-02,0.00000e+00,0.00000e+00,0.00000e+00,0.00000e+00,0.00000e+00,0.00000e+00,0.00000e+00,0.00000e+00,0.00000e+00,0.00000e+00,-2.09142e-02,-8.85112e-02,1.62364e-01,6.19673e-02,2.52946e-01,-2.59314e-04,5.68325e-03,6.94792e-02,-2.06380e-01,-1.72916e-01,0.00000e+00,0.00000e+00,0.00000e+00,0.00000e+00,0.00000e+00,0.00000e+00,0.00000e+00,0.00000e+00,0.00000e+00,0.00000e+00,0.00000e+00,0.00000e+00,0.00000e+00,0.00000e+00,0.00000e+00,0.00000e+00,0.00000e+00,0.00000e+00,0.00000e+00,0.00000e+00,0.00000e+00,0.00000e+00,0.00000e+00,0.00000e+00,0.00000e+00,0.00000e+00,0.00000e+00,0.00000e+00,0.00000e+00,0.00000e+00,
-2.63416e-01,1.82808e-01,-4.11238e-01,5.69076e-02,1.25040e-01,1.87669e-01,2.20941e-02,-2.09189e-01,-2.15842e-02,6.17329e-02,1.32682e-01,-5.06371e-04,6.51907e-01,-1.24742e-01,6.25397e-02,-2.88139e-01,1.63278e-01,2.21655e-01,-3.96960e-02,-5.95977e-02,0.00000e+00,0.00000e+00,0.00000e+00,0.00000e+00,0.00000e+00,0.00000e+00,0.00000e+00,0.00000e+00,0.00000e+00,0.00000e+00,1.30734e-01,-1.82302e-01,-2.40669e-01,6.78347e-02,-1.87580e-01,1.00471e-01,-1.85372e-01,-1.24662e-02,6.12801e-02,-2.13517e-03,0.00000e+00,0.00000e+00,0.00000e+00,0.00000e+00,0.00000e+00,0.00000e+00,0.00000e+00,0.00000e+00,0.00000e+00,0.00000e+00,0.00000e+00,0.00000e+00,0.00000e+00,0.00000e+00,0.00000e+00,0.00000e+00,0.00000e+00,0.00000e+00,0.00000e+00,0.00000e+00,0.00000e+00,0.00000e+00,0.00000e+00,0.00000e+00,0.00000e+00,0.00000e+00,0.00000e+00,0.00000e+00,0.00000e+00,0.00000e+00,
-2.46556e-01,4.39225e-01,1.49242e-01,2.05470e-01,1.44493e-01,-6.32885e-02,-2.30976e-01,2.58875e-01,1.69449e-01,-1.04298e-01,2.48093e-01,-3.82540e-01,-8.73487e-02,-3.22373e-01,-2.93171e-01,-1.21405e-01,3.03735e-01,-3.22071e-01,-1.26841e-01,1.80216e-01,0.00000e+00,0.00000e+00,0.00000e+00,0.00000e+00,0.00000e+00,0.00000e+00,0.00000e+00,0.00000e+00,0.00000e+00,0.00000e+00,-1.53687e-03,-5.66847e-02,-6.18937e-02,1.16903e-01,1.48678e-01,1.84694e-01,-7.27588e-02,6.31957e-02,-4.26080e-02,-7.59171e-02,0.00000e+00,0.00000e+00,0.00000e+00,0.00000e+00,0.00000e+00,0.00000e+00,0.00000e+00,0.00000e+00,0.00000e+00,0.00000e+00,0.00000e+00,0.00000e+00,0.00000e+00,0.00000e+00,0.00000e+00,0.00000e+00,0.00000e+00,0.00000e+00,0.00000e+00,0.00000e+00,0.00000e+00,0.00000e+00,0.00000e+00,0.00000e+00,0.00000e+00,0.00000e+00,0.00000e+00,0.00000e+00,0.00000e+00,0.00000e+00,
-9.36970e-02,2.36881e-01,1.07478e-01,-2.01845e-01,-3.17063e-02,-6.59049e-02,-1.05534e-01,-3.91658e-02,1.27687e-01,2.79022e-01,-2.33099e-01,-3.92255e-01,-1.79156e-01,3.19771e-01,1.60802e-01,-1.06964e-01,1.93958e-01,1.92738e-01,-4.00334e-02,-3.32295e-01,0.00000e+00,0.00000e+00,0.00000e+00,0.00000e+00,0.00000e+00,0.00000e+00,0.00000e+00,0.00000e+00,0.00000e+00,0.00000e+00,3.26796e-01,1.55374e-01,7.16788e-02,-1.17925e-01,-1.29096e-01,1.72869e-01,-8.84239e-02,-1.53572e-01,-8.76535e-02,5.32728e-02,0.00000e+00,0.00000e+00,0.00000e+00,0.00000e+00,0.00000e+00,0.00000e+00,0.00000e+00,0.00000e+00,0.00000e+00,0.00000e+00,0.00000e+00,0.00000e+00,0.00000e+00,0.00000e+00,0.00000e+00,0.00000e+00,0.00000e+00,0.00000e+00,0.00000e+00,0.00000e+00,0.00000e+00,0.00000e+00,0.00000e+00,0.00000e+00,0.00000e+00,0.00000e+00,0.00000e+00,0.00000e+00,0.00000e+00,0.00000e+00,
-8.55434e-02,-3.26941e-01,-7.06889e-02,-1.45878e-01,-3.35003e-01,-1.22469e-01,2.32084e-01,-9.05299e-02,2.38219e-01,2.00767e-01,-8.56530e-02,1.93618e-01,-1.24796e-02,7.90010e-02,1.78269e-01,-7.27414e-02,-2.77914e-01,-1.43645e-01,-1.04061e-01,3.13921e-02,0.00000e+00,0.00000e+00,0.00000e+00,0.00000e+00,0.00000e+00,0.00000e+00,0.00000e+00,0.00000e+00,0.00000e+00,0.00000e+00,1.71196e-01,1.33323e-01,8.31685e-02,6.68771e-02,1.56735e-01,1.95210e-01,4.58300e-02,2.34175e-01,-1.34158e-01,-2.32159e-01,0.00000e+00,0.00000e+00,0.00000e+00,0.00000e+00,0.00000e+00,0.00000e+00,0.00000e+00,0.00000e+00,0.00000e+00,0.00000e+00,0.00000e+00,0.00000e+00,0.00000e+00,0.00000e+00,0.00000e+00,0.00000e+00,0.00000e+00,0.00000e+00,0.00000e+00,0.00000e+00,0.00000e+00,0.00000e+00,0.00000e+00,0.00000e+00,0.00000e+00,0.00000e+00,0.00000e+00,0.00000e+00,0.00000e+00,0.00000e+00,
-1.19234e-01,-1.44582e-02,2.78366e-03,2.09520e-01,1.67984e-01,3.68502e-01,-1.72072e-01,2.21097e-02,-1.48812e-01,-1.07911e-02,-1.13485e-01,2.51743e-01,-9.74000e-04,6.41491e-02,7.49180e-02,-2.73605e-02,-9.40423e-02,1.47373e-01,-3.33475e-02,-8.95639e-02,0.00000e+00,0.00000e+00,0.00000e+00,0.00000e+00,0.00000e+00,0.00000e+00,0.00000e+00,0.00000e+00,0.00000e+00,0.00000e+00,2.32720e-01,-2.37285e-01,-1.80966e-03,-2.73669e-01,-2.42902e-01,-3.41141e-01,2.66115e-01,-1.69482e-01,1.82160e-01,1.00355e-01,0.00000e+00,0.00000e+00,0.00000e+00,0.00000e+00,0.00000e+00,0.00000e+00,0.00000e+00,0.00000e+00,0.00000e+00,0.00000e+00,0.00000e+00,0.00000e+00,0.00000e+00,0.00000e+00,0.00000e+00,0.00000e+00,0.00000e+00,0.00000e+00,0.00000e+00,0.00000e+00,0.00000e+00,0.00000e+00,0.00000e+00,0.00000e+00,0.00000e+00,0.00000e+00,0.00000e+00,0.00000e+00,0.00000e+00,0.00000e+00,
-1.59163e-01,3.43530e-01,-5.36763e-02,1.10804e-01,1.79752e-01,-1.33116e-01,1.33027e-01,7.76103e-02,-7.87524e-03,1.15775e-01,1.21091e-01,-9.48116e-02,7.55821e-02,-2.62149e-01,-2.76338e-01,1.02223e-01,1.18337e-01,-4.92606e-02,1.85793e-01,-3.38141e-01,0.00000e+00,0.00000e+00,0.00000e+00,0.00000e+00,0.00000e+00,0.00000e+00,0.00000e+00,0.00000e+00,0.00000e+00,0.00000e+00,3.80726e-02,-2.48718e-01,-2.19058e-02,1.51345e-01,9.65863e-02,3.08932e-02,-2.51364e-01,-2.83497e-02,-1.77917e-01,2.22366e-01,0.00000e+00,0.00000e+00,0.00000e+00,0.00000e+00,0.00000e+00,0.00000e+00,0.00000e+00,0.00000e+00,0.00000e+00,0.00000e+00,0.00000e+00,0.00000e+00,0.00000e+00,0.00000e+00,0.00000e+00,0.00000e+00,0.00000e+00,0.00000e+00,0.00000e+00,0.00000e+00,0.00000e+00,0.00000e+00,0.00000e+00,0.00000e+00,0.00000e+00,0.00000e+00,0.00000e+00,0.00000e+00,0.00000e+00,0.00000e+00,
-1.98635e-01,1.51922e-01,-1.16321e-01,1.72618e-01,2.64721e-01,2.38047e-01,1.19864e-01,3.01875e-01,1.26743e-01,-3.13091e-02,2.17027e-01,-5.32474e-02,1.12922e-01,-2.36827e-01,-5.64252e-02,-1.41629e-02,-8.43560e-03,-2.31700e-01,-2.96553e-01,-3.12480e-01,0.00000e+00,0.00000e+00,0.00000e+00,0.00000e+00,0.00000e+00,0.00000e+00,0.00000e+00,0.00000e+00,0.00000e+00,0.00000e+00,-1.83926e-02,-9.86741e-02,3.39888e-03,6.42089e-02,-2.08296e-01,-2.23884e-01,-1.11429e-01,-7.01743e-02,1.69810e-01,3.43789e-01,0.00000e+00,0.00000e+00,0.00000e+00,0.00000e+00,0.00000e+00,0.00000e+00,0.00000e+00,0.00000e+00,0.00000e+00,0.00000e+00,0.00000e+00,0.00000e+00,0.00000e+00,0.00000e+00,0.00000e+00,0.00000e+00,0.00000e+00,0.00000e+00,0.00000e+00,0.00000e+00,0.00000e+00,0.00000e+00,0.00000e+00,0.00000e+00,0.00000e+00,0.00000e+00,0.00000e+00,0.00000e+00,0.00000e+00,0.00000e+00,
3.43647e-02,4.24475e-01,1.84455e-01,-2.79941e-01,-1.58432e-01,-4.45286e-01,-9.35370e-02,2.37830e-02,-1.59835e-01,-4.31631e-01,2.18974e-01,-1.53176e-01,-1.76004e-01,1.31110e-01,1.29640e-05,4.00727e-01,1.16940e-01,-1.95789e-01,3.32188e-01,6.79409e-01,0.00000e+00,0.00000e+00,0.00000e+00,0.00000e+00,0.00000e+00,0.00000e+00,0.00000e+00,0.00000e+00,0.00000e+00,0.00000e+00,-2.53339e-01,-2.71299e-01,-8.45040e-03,1.48831e-01,1.58419e-01,4.45596e-02,-2.34030e-02,1.72006e-01,-1.72353e-01,-2.47779e-01,0.00000e+00,0.00000e+00,0.00000e+00,0.00000e+00,0.00000e+00,0.00000e+00,0.00000e+00,0.00000e+00,0.00000e+00,0.00000e+00,0.00000e+00,0.00000e+00,0.00000e+00,0.00000e+00,0.00000e+00,0.00000e+00,0.00000e+00,0.00000e+00,0.00000e+00,0.00000e+00,0.00000e+00,0.00000e+00,0.00000e+00,0.00000e+00,0.00000e+00,0.00000e+00,0.00000e+00,0.00000e+00,0.00000e+00,0.00000e+00,
7.91661e-02,-1.49191e-01,1.50926e-01,2.90002e-01,1.86262e-01,1.37050e-01,-5.40357e-02,1.45709e-01,-1.03917e-01,7.08006e-02,-2.37329e-01,2.70513e-02,-9.06990e-02,-2.21409e-01,1.50231e-01,1.41668e-01,7.83471e-02,1.10856e-01,-8.60136e-03,-2.39865e-01,0.00000e+00,0.00000e+00,0.00000e+00,0.00000e+00,0.00000e+00,0.00000e+00,0.00000e+00,0.00000e+00,0.00000e+00,0.00000e+00,1.58163e-01,1.22139e-01,-6.02269e-02,-6.85923e-02,-3.36492e-01,-2.78717e-01,-2.43114e-02,-2.56565e-01,1.12518e-01,1.69064e-01,0.00000e+00,0.00000e+00,0.00000e+00,0.00000e+00,0.00000e+00,0.00000e+00,0.00000e+00,0.00000e+00,0.00000e+00,0.00000e+00,0.00000e+00,0.00000e+00,0.00000e+00,0.00000e+00,0.00000e+00,0.00000e+00,0.00000e+00,0.00000e+00,0.00000e+00,0.00000e+00,0.00000e+00,0.00000e+00,0.00000e+00,0.00000e+00,0.00000e+00,0.00000e+00,0.00000e+00,0.00000e+00,0.00000e+00,0.00000e+00,
-2.81402e-01,3.66205e-01,-1.25033e-01,-1.23593e-01,-1.73084e-02,-1.86279e-01,-1.33975e-01,8.11511e-02,4.35241e-02,1.90027e-01,1.73172e-01,-2.11237e-01,2.22826e-01,5.66342e-03,-1.24887e-01,3.01105e-01,5.02462e-02,1.60771e-01,1.58661e-01,-4.12928e-01,0.00000e+00,0.00000e+00,0.00000e+00,0.00000e+00,0.00000e+00,0.00000e+00,0.00000e+00,0.00000e+00,0.00000e+00,0.00000e+00,1.08230e-01,-1.54967e-01,-9.77932e-02,1.17930e-01,1.42196e-01,-1.14826e-01,8.37287e-02,-2.41922e-01,-2.02185e-01,2.22901e-01,0.00000e+00,0.00000e+00,0.00000e+00,0.00000e+00,0.00000e+00,0.00000e+00,0.00000e+00,0.00000e+00,0.00000e+00,0.00000e+00,0.00000e+00,0.00000e+00,0.00000e+00,0.00000e+00,0.00000e+00,0.00000e+00,0.00000e+00,0.00000e+00,0.00000e+00,0.00000e+00,0.00000e+00,0.00000e+00,0.00000e+00,0.00000e+00,0.00000e+00,0.00000e+00,0.00000e+00,0.00000e+00,0.00000e+00,0.00000e+00,
-1.93480e-01,1.34499e-01,-1.33536e-01,-1.81106e-01,-5.04478e-02,-4.25120e-02,5.63422e-02,2.08722e-01,-1.84158e-01,1.48270e-01,3.04970e-01,3.04270e-02,9.66532e-02,4.82179e-02,1.29245e-01,4.43890e-02,7.23416e-02,-1.28027e-01,3.72846e-01,-4.32082e-02,0.00000e+00,0.00000e+00,0.00000e+00,0.00000e+00,0.00000e+00,0.00000e+00,0.00000e+00,0.00000e+00,0.00000e+00,0.00000e+00,-1.11491e-01,-1.64926e-01,3.68831e-02,1.32888e-01,-7.87970e-02,-1.87708e-03,-1.28684e-01,-8.06954e-02,-1.88688e-01,-1.05062e-01,0.00000e+00,0.00000e+00,0.00000e+00,0.00000e+00,0.00000e+00,0.00000e+00,0.00000e+00,0.00000e+00,0.00000e+00,0.00000e+00,0.00000e+00,0.00000e+00,0.00000e+00,0.00000e+00,0.00000e+00,0.00000e+00,0.00000e+00,0.00000e+00,0.00000e+00,0.00000e+00,0.00000e+00,0.00000e+00,0.00000e+00,0.00000e+00,0.00000e+00,0.00000e+00,0.00000e+00,0.00000e+00,0.00000e+00,0.00000e+00,
-1.11057e-01,-2.77229e-01,3.19379e-01,2.16231e-01,-2.19569e-01,-2.93543e-02,3.58894e-02,9.74135e-02,3.05264e-02,-2.59104e-02,-1.10494e-01,2.80447e-01,-4.15012e-01,-2.79144e-01,5.47350e-02,-1.19663e-01,-1.61530e-03,3.60162e-02,7.05816e-02,-1.15068e-01,0.00000e+00,0.00000e+00,0.00000e+00,0.00000e+00,0.00000e+00,0.00000e+00,0.00000e+00,0.00000e+00,0.00000e+00,0.00000e+00,2.21551e-01,-3.21733e-03,9.56330e-02,6.29125e-02,1.64834e-01,1.49017e-01,-3.42741e-02,-1.33430e-01,-1.01108e-01,1.40978e-01,0.00000e+00,0.00000e+00,0.00000e+00,0.00000e+00,0.00000e+00,0.00000e+00,0.00000e+00,0.00000e+00,0.00000e+00,0.00000e+00,0.00000e+00,0.00000e+00,0.00000e+00,0.00000e+00,0.00000e+00,0.00000e+00,0.00000e+00,0.00000e+00,0.00000e+00,0.00000e+00,0.00000e+00,0.00000e+00,0.00000e+00,0.00000e+00,0.00000e+00,0.00000e+00,0.00000e+00,0.00000e+00,0.00000e+00,0.00000e+00,
-3.90467e-01,2.30371e-01,-1.72744e-01,9.37017e-02,8.29991e-02,1.29184e-01,3.39433e-02,3.96551e-02,1.32897e-01,-9.16019e-02,4.10314e-01,-1.41020e-01,-2.02745e-01,-1.85485e-01,2.79268e-02,-1.09585e-01,8.19431e-02,-9.37426e-03,9.40219e-02,1.60552e-01,0.00000e+00,0.00000e+00,0.00000e+00,0.00000e+00,0.00000e+00,0.00000e+00,0.00000e+00,0.00000e+00,0.00000e+00,0.00000e+00,-1.98471e-02,-8.93510e-02,3.75489e-01,9.17832e-02,-1.10926e-01,-1.95992e-02,-1.15886e-01,-3.02809e-02,-2.26919e-01,-6.89502e-02,0.00000e+00,0.00000e+00,0.00000e+00,0.00000e+00,0.00000e+00,0.00000e+00,0.00000e+00,0.00000e+00,0.00000e+00,0.00000e+00,0.00000e+00,0.00000e+00,0.00000e+00,0.00000e+00,0.00000e+00,0.00000e+00,0.00000e+00,0.00000e+00,0.00000e+00,0.00000e+00,0.00000e+00,0.00000e+00,0.00000e+00,0.00000e+00,0.00000e+00,0.00000e+00,0.00000e+00,0.00000e+00,0.00000e+00,0.00000e+00,
5.25114e-02,2.05380e-01,-1.29467e-01,9.60993e-02,-1.80996e-01,3.85015e-01,-2.58753e-01,2.70004e-02,-1.57045e-01,-1.85081e-02,-1.57120e-02,-6.23531e-01,2.66894e-01,-3.44788e-01,1.43780e-01,-6.30829e-01,9.89629e-02,-1.98569e-01,3.30079e-01,-1.19564e-01,0.00000e+00,0.00000e+00,0.00000e+00,0.00000e+00,0.00000e+00,0.00000e+00,0.00000e+00,0.00000e+00,0.00000e+00,0.00000e+00,-3.67994e-02,4.18151e-01,-1.37427e-01,2.48689e-01,3.72152e-02,2.45814e-01,1.59790e-01,1.71568e-01,-1.73035e-01,1.38072e-01,0.00000e+00,0.00000e+00,0.00000e+00,0.00000e+00,0.00000e+00,0.00000e+00,0.00000e+00,0.00000e+00,0.00000e+00,0.00000e+00,0.00000e+00,0.00000e+00,0.00000e+00,0.00000e+00,0.00000e+00,0.00000e+00,0.00000e+00,0.00000e+00,0.00000e+00,0.00000e+00,0.00000e+00,0.00000e+00,0.00000e+00,0.00000e+00,0.00000e+00,0.00000e+00,0.00000e+00,0.00000e+00,0.00000e+00,0.00000e+00,
7.80190e-02,1.02145e-01,-8.20313e-02,-3.27744e-01,6.60449e-02,-1.68265e-01,3.23865e-02,2.72349e-01,-1.28945e-01,7.12062e-02,-1.62108e-01,-2.92059e-01,8.83532e-03,6.29608e-01,-2.51007e-01,-1.39607e-01,-1.15572e-01,-2.12675e-02,2.45234e-01,1.48414e-02,0.00000e+00,0.00000e+00,0.00000e+00,0.00000e+00,0.00000e+00,0.00000e+00,0.00000e+00,0.00000e+00,0.00000e+00,0.00000e+00,8.40889e-02,1.89914e-01,7.31960e-02,-3.01864e-01,1.84962e-01,3.07872e-01,8.31857e-02,-2.51082e-01,-1.16289e-01,-8.60476e-02,0.00000e+00,0.00000e+00,0.00000e+00,0.00000e+00,0.00000e+00,0.00000e+00,0.00000e+00,0.00000e+00,0.00000e+00,0.00000e+00,0.00000e+00,0.00000e+00,0.00000e+00,0.00000e+00,0.00000e+00,0.00000e+00,0.00000e+00,0.00000e+00,0.00000e+00,0.00000e+00,0.00000e+00,0.00000e+00,0.00000e+00,0.00000e+00,0.00000e+00,0.00000e+00,0.00000e+00,0.00000e+00,0.00000e+00,0.00000e+00,
-1.40742e-01,4.02095e-01,1.12893e-01,2.19365e-01,-8.22152e-02,2.61220e-01,2.22293e-01,-4.34954e-02,-2.20830e-01,-3.01405e-03,-1.09544e-02,4.46314e-02,9.33792e-02,-2.90913e-01,7.09967e-02,-3.45519e-01,-1.40099e-01,2.08891e-01,9.73982e-02,-2.59480e-01,0.00000e+00,0.00000e+00,0.00000e+00,0.00000e+00,0.00000e+00,0.00000e+00,0.00000e+00,0.00000e+00,0.00000e+00,0.00000e+00,1.51697e-01,-4.46726e-01,-2.06273e-01,7.15479e-02,1.12185e-02,8.42986e-02,-8.21941e-02,-1.65396e-01,1.23431e-01,2.62494e-01,0.00000e+00,0.00000e+00,0.00000e+00,0.00000e+00,0.00000e+00,0.00000e+00,0.00000e+00,0.00000e+00,0.00000e+00,0.00000e+00,0.00000e+00,0.00000e+00,0.00000e+00,0.00000e+00,0.00000e+00,0.00000e+00,0.00000e+00,0.00000e+00,0.00000e+00,0.00000e+00,0.00000e+00,0.00000e+00,0.00000e+00,0.00000e+00,0.00000e+00,0.00000e+00,0.00000e+00,0.00000e+00,0.00000e+00,0.00000e+00,
2.61940e-02,2.37334e-01,1.85490e-01,2.49152e-01,-2.53305e-01,7.12605e-02,2.79355e-01,-6.81679e-02,-1.04352e-01,2.20338e-01,1.36144e-02,-3.39408e-01,-8.34405e-02,-2.37557e-01,-1.04908e-02,1.21331e-01,-3.97511e-01,-2.72234e-02,2.44666e-01,-4.64081e-01,0.00000e+00,0.00000e+00,0.00000e+00,0.00000e+00,0.00000e+00,0.00000e+00,0.00000e+00,0.00000e+00,0.00000e+00,0.00000e+00,-3.98083e-02,1.02074e-01,-1.02050e-01,-1.15946e-02,2.63795e-01,-1.92591e-01,1.18155e-01,9.53913e-02,-1.40314e-01,2.43743e-01,0.00000e+00,0.00000e+00,0.00000e+00,0.00000e+00,0.00000e+00,0.00000e+00,0.00000e+00,0.00000e+00,0.00000e+00,0.00000e+00,0.00000e+00,0.00000e+00,0.00000e+00,0.00000e+00,0.00000e+00,0.00000e+00,0.00000e+00,0.00000e+00,0.00000e+00,0.00000e+00,0.00000e+00,0.00000e+00,0.00000e+00,0.00000e+00,0.00000e+00,0.00000e+00,0.00000e+00,0.00000e+00,0.00000e+00,0.00000e+00,
-3.16239e-01,2.36927e-02,5.10513e-02,-2.30294e-01,-2.59544e-01,1.66865e-01,1.08388e-01,-3.07492e-01,-8.66342e-02,2.85998e-01,2.56192e-01,1.32810e-01,7.96326e-02,3.68477e-01,2.32669e-01,-2.83034e-02,7.96589e-02,2.97445e-01,3.17260e-02,-2.74139e-01,0.00000e+00,0.00000e+00,0.00000e+00,0.00000e+00,0.00000e+00,0.00000e+00,0.00000e+00,0.00000e+00,0.00000e+00,0.00000e+00,6.00472e-02,-1.56502e-01,-1.30684e-01,-1.38183e-01,2.68749e-02,-1.38562e-01,-1.88047e-01,1.00475e-02,5.49082e-02,-1.18592e-02,0.00000e+00,0.00000e+00,0.00000e+00,0.00000e+00,0.00000e+00,0.00000e+00,0.00000e+00,0.00000e+00,0.00000e+00,0.00000e+00,0.00000e+00,0.00000e+00,0.00000e+00,0.00000e+00,0.00000e+00,0.00000e+00,0.00000e+00,0.00000e+00,0.00000e+00,0.00000e+00,0.00000e+00,0.00000e+00,0.00000e+00,0.00000e+00,0.00000e+00,0.00000e+00,0.00000e+00,0.00000e+00,0.00000e+00,0.00000e+00,
-1.25064e-01,6.08488e-02,5.85582e-02,6.86698e-02,-6.78117e-02,-4.89667e-02,1.44883e-01,1.88531e-01,-1.56446e-01,3.31850e-01,1.55438e-01,-3.95566e-02,-2.18488e-01,1.62534e-01,-4.00959e-02,1.88768e-01,1.03678e-01,-1.14417e-01,2.72337e-01,-5.26771e-01,0.00000e+00,0.00000e+00,0.00000e+00,0.00000e+00,0.00000e+00,0.00000e+00,0.00000e+00,0.00000e+00,0.00000e+00,0.00000e+00,-3.03739e-02,-2.12922e-02,1.59929e-01,-2.31204e-01,1.07908e-01,-1.39802e-01,-2.48561e-01,-7.41135e-02,-1.15891e-01,1.94921e-01,0.00000e+00,0.00000e+00,0.00000e+00,0.00000e+00,0.00000e+00,0.00000e+00,0.00000e+00,0.00000e+00,0.00000e+00,0.00000e+00,0.00000e+00,0.00000e+00,0.00000e+00,0.00000e+00,0.00000e+00,0.00000e+00,0.00000e+00,0.00000e+00,0.00000e+00,0.00000e+00,0.00000e+00,0.00000e+00,0.00000e+00,0.00000e+00,0.00000e+00,0.00000e+00,0.00000e+00,0.00000e+00,0.00000e+00,0.00000e+00,
-1.61638e-01,2.23644e-01,-3.03621e-01,2.56975e-01,-6.39760e-02,2.20156e-02,3.60264e-02,1.41050e-01,1.83125e-01,-1.50867e-01,1.43763e-01,-1.67695e-01,1.59785e-01,-3.85730e-01,-1.03810e-01,9.35089e-02,-1.03093e-01,-2.00552e-01,-3.29771e-02,2.99791e-02,0.00000e+00,0.00000e+00,0.00000e+00,0.00000e+00,0.00000e+00,0.00000e+00,0.00000e+00,0.00000e+00,0.00000e+00,0.00000e+00,1.78754e-02,-5.59493e-02,1.43836e-01,1.28754e-01,1.67786e-01,-1.15525e-01,6.70666e-02,5.95024e-02,-1.50148e-01,1.20888e-01,0.00000e+00,0.00000e+00,0.00000e+00,0.00000e+00,0.00000e+00,0.00000e+00,0.00000e+00,0.00000e+00,0.00000e+00,0.00000e+00,0.00000e+00,0.00000e+00,0.00000e+00,0.00000e+00,0.00000e+00,0.00000e+00,0.00000e+00,0.00000e+00,0.00000e+00,0.00000e+00,0.00000e+00,0.00000e+00,0.00000e+00,0.00000e+00,0.00000e+00,0.00000e+00,0.00000e+00,0.00000e+00,0.00000e+00,0.00000e+00,
-8.91041e-03,6.01413e-01,-1.38586e-01,-6.01315e-02,-1.24911e-02,8.67034e-02,2.85385e-01,-1.02698e-01,9.71566e-02,3.58016e-02,-1.16620e-01,-2.21524e-01,2.75801e-01,1.01882e-02,3.09988e-01,-1.88191e-01,-8.74223e-02,2.24585e-01,-1.58619e-01,-6.88015e-03,0.00000e+00,0.00000e+00,0.00000e+00,0.00000e+00,0.00000e+00,0.00000e+00,0.00000e+00,0.00000e+00,0.00000e+00,0.00000e+00,1.25531e-01,-3.79889e-01,-1.37214e-01,4.99433e-02,-2.97497e-01,1.01488e-01,-1.97962e-01,-1.21887e-01,6.14629e-02,-2.89214e-02,0.00000e+00,0.00000e+00,0.00000e+00,0.00000e+00,0.00000e+00,0.00000e+00,0.00000e+00,0.00000e+00,0.00000e+00,0.00000e+00,0.00000e+00,0.00000e+00,0.00000e+00,0.00000e+00,0.00000e+00,0.00000e+00,0.00000e+00,0.00000e+00,0.00000e+00,0.00000e+00,0.00000e+00,0.00000e+00,0.00000e+00,0.00000e+00,0.00000e+00,0.00000e+00,0.00000e+00,0.00000e+00,0.00000e+00,0.00000e+00,
3.97586e-02,-2.10545e-02,3.13736e-02,-3.68721e-01,-3.05127e-01,1.29771e-01,4.73427e-02,6.88766e-02,-3.29577e-02,3.98761e-01,-1.46396e-01,8.40888e-02,3.46264e-01,4.96470e-01,3.58506e-01,-2.78700e-01,-1.92435e-01,-6.00753e-02,-2.75879e-01,-7.02818e-01,0.00000e+00,0.00000e+00,0.00000e+00,0.00000e+00,0.00000e+00,0.00000e+00,0.00000e+00,0.00000e+00,0.00000e+00,0.00000e+00,1.06637e-01,-6.30343e-02,-3.77638e-01,-1.27749e-01,-5.33784e-02,1.48929e-01,1.45093e-01,-8.80130e-03,3.08837e-01,3.04057e-01,0.00000e+00,0.00000e+00,0.00000e+00,0.00000e+00,0.00000e+00,0.00000e+00,0.00000e+00,0.00000e+00,0.00000e+00,0.00000e+00,0.00000e+00,0.00000e+00,0.00000e+00,0.00000e+00,0.00000e+00,0.00000e+00,0.00000e+00,0.00000e+00,0.00000e+00,0.00000e+00,0.00000e+00,0.00000e+00,0.00000e+00,0.00000e+00,0.00000e+00,0.00000e+00,0.00000e+00,0.00000e+00,0.00000e+00,0.00000e+00,
-6.11987e-02,-5.06472e-01,3.01675e-01,-7.89042e-02,-1.09269e-01,2.78945e-02,3.03560e-01,1.72354e-01,1.09100e-01,3.47622e-02,-4.15161e-02,2.33655e-01,-1.08937e-01,-6.16638e-02,-1.07960e-01,9.27053e-02,-6.16390e-01,-1.51375e-01,-1.03412e-01,-6.06220e-03,0.00000e+00,0.00000e+00,0.00000e+00,0.00000e+00,0.00000e+00,0.00000e+00,0.00000e+00,0.00000e+00,0.00000e+00,0.00000e+00,1.02715e-01,2.72816e-01,-1.92739e-01,1.40568e-01,2.17229e-01,-1.20600e-01,3.12830e-01,-2.09789e-02,-5.68733e-03,-2.87000e-02,0.00000e+00,0.00000e+00,0.00000e+00,0.00000e+00,0.00000e+00,0.00000e+00,0.00000e+00,0.00000e+00,0.00000e+00,0.00000e+00,0.00000e+00,0.00000e+00,0.00000e+00,0.00000e+00,0.00000e+00,0.00000e+00,0.00000e+00,0.00000e+00,0.00000e+00,0.00000e+00,0.00000e+00,0.00000e+00,0.00000e+00,0.00000e+00,0.00000e+00,0.00000e+00,0.00000e+00,0.00000e+00,0.00000e+00,0.00000e+00,
-1.43032e-02,3.42194e-01,4.93839e-02,1.21330e-01,1.51079e-01,3.48259e-01,1.58651e-01,-5.69778e-02,-2.43297e-01,1.44617e-01,5.47964e-02,-1.15598e-01,-3.91467e-02,-7.26364e-02,-2.96074e-01,-3.23146e-01,-4.27865e-02,2.11557e-01,3.23458e-01,-1.45828e-01,0.00000e+00,0.00000e+00,0.00000e+00,0.00000e+00,0.00000e+00,0.00000e+00,0.00000e+00,0.00000e+00,0.00000e+00,0.00000e+00,-4.04932e-02,-2.26595e-01,-1.02371e-02,-4.86935e-02,1.44995e-01,-2.51131e-02,-1.15865e-01,-1.54579e-01,-8.01611e-02,1.21125e-03,0.00000e+00,0.00000e+00,0.00000e+00,0.00000e+00,0.00000e+00,0.00000e+00,0.00000e+00,0.00000e+00,0.00000e+00,0.00000e+00,0.00000e+00,0.00000e+00,0.00000e+00,0.00000e+00,0.00000e+00,0.00000e+00,0.00000e+00,0.00000e+00,0.00000e+00,0.00000e+00,0.00000e+00,0.00000e+00,0.00000e+00,0.00000e+00,0.00000e+00,0.00000e+00,0.00000e+00,0.00000e+00,0.00000e+00,0.00000e+00,
1.21236e-01,3.47850e-01,3.84308e-01,1.75538e-02,-7.74277e-03,5.44994e-02,-2.49629e-01,1.49269e-01,-7.19013e-03,-2.58377e-01,4.81809e-02,-7.38872e-01,-4.41211e-01,-1.27788e-01,-3.03774e-01,1.21882e-01,2.07174e-01,-2.11177e-01,1.38714e-01,3.84720e-01,0.00000e+00,0.00000e+00,0.00000e+00,0.00000e+00,0.00000e+00,0.00000e+00,0.00000e+00,0.00000e+00,0.00000e+00,0.00000e+00,-1.69417e-01,3.91022e-01,5.69028e-02,1.10234e-01,3.11517e-01,-1.76381e-01,4.24547e-02,6.19081e-02,-1.31524e-01,-1.26343e-01,0.00000e+00,0.00000e+00,0.00000e+00,0.00000e+00,0.00000e+00,0.00000e+00,0.00000e+00,0.00000e+00,0.00000e+00,0.00000e+00,0.00000e+00,0.00000e+00,0.00000e+00,0.00000e+00,0.00000e+00,0.00000e+00,0.00000e+00,0.00000e+00,0.00000e+00,0.00000e+00,0.00000e+00,0.00000e+00,0.00000e+00,0.00000e+00,0.00000e+00,0.00000e+00,0.00000e+00,0.00000e+00,0.00000e+00,0.00000e+00,
-4.06298e-01,2.07424e-01,-6.70549e-02,3.76579e-02,1.34498e-01,8.97112e-02,-3.37155e-03,1.92300e-01,-1.08798e-01,7.27599e-02,7.98432e-02,-2.41398e-02,2.23102e-01,-1.39865e-02,-5.44049e-02,-1.94007e-02,1.18488e-01,-1.87130e-01,1.05854e-01,-4.94778e-04,0.00000e+00,0.00000e+00,0.00000e+00,0.00000e+00,0.00000e+00,0.00000e+00,0.00000e+00,0.00000e+00,0.00000e+00,0.00000e+00,3.26455e-01,-1.83284e-01,-1.56047e-01,-2.36714e-02,-8.00927e-02,-7.03104e-02,-1.15117e-01,-5.17002e-03,2.94396e-03,-7.22651e-02,0.00000e+00,0.00000e+00,0.00000e+00,0.00000e+00,0.00000e+00,0.00000e+00,0.00000e+00,0.00000e+00,0.00000e+00,0.00000e+00,0.00000e+00,0.00000e+00,0.00000e+00,0.00000e+00,0.00000e+00,0.00000e+00,0.00000e+00,0.00000e+00,0.00000e+00,0.00000e+00,0.00000e+00,0.00000e+00,0.00000e+00,0.00000e+00,0.00000e+00,0.00000e+00,0.00000e+00,0.00000e+00,0.00000e+00,0.00000e+00,
-3.76787e-01,-5.94385e-02,-1.02509e-01,-7.49938e-02,-2.13293e-01,1.64418e-01,-8.80821e-02,-1.44983e-01,-1.06387e-01,1.53248e-01,4.70337e-01,2.32343e-01,-1.49522e-01,-6.62858e-02,3.19378e-02,8.98736e-02,2.37782e-01,2.40929e-01,-6.49136e-02,-1.27335e-01,0.00000e+00,0.00000e+00,0.00000e+00,0.00000e+00,0.00000e+00,0.00000e+00,0.00000e+00,0.00000e+00,0.00000e+00,0.00000e+00,-9.35499e-02,-1.72904e-01,2.52031e-01,1.41280e-01,1.81355e-01,-2.54291e-01,-1.49700e-01,-9.59453e-02,1.71301e-01,-2.59130e-02,0.00000e+00,0.00000e+00,0.00000e+00,0.00000e+00,0.00000e+00,0.00000e+00,0.00000e+00,0.00000e+00,0.00000e+00,0.00000e+00,0.00000e+00,0.00000e+00,0.00000e+00,0.00000e+00,0.00000e+00,0.00000e+00,0.00000e+00,0.00000e+00,0.00000e+00,0.00000e+00,0.00000e+00,0.00000e+00,0.00000e+00,0.00000e+00,0.00000e+00,0.00000e+00,0.00000e+00,0.00000e+00,0.00000e+00,0.00000e+00,
-3.91134e-01,1.00723e-01,-2.08751e-01,-1.19640e-01,-1.56218e-01,3.68204e-01,2.15861e-01,-5.60608e-02,-3.36695e-02,7.95959e-02,2.86794e-01,1.16765e-01,9.49679e-02,1.76135e-01,-1.89001e-02,-1.67540e-01,-4.27031e-02,-9.69245e-03,-1.00420e-01,-2.49674e-01,0.00000e+00,0.00000e+00,0.00000e+00,0.00000e+00,0.00000e+00,0.00000e+00,0.00000e+00,0.00000e+00,0.00000e+00,0.00000e+00,1.04340e-01,-2.17488e-01,1.13783e-01,-5.64958e-02,1.75118e-01,-2.00664e-01,-1.73158e-01,6.57532e-02,1.34090e-01,1.70078e-01,0.00000e+00,0.00000e+00,0.00000e+00,0.00000e+00,0.00000e+00,0.00000e+00,0.00000e+00,0.00000e+00,0.00000e+00,0.00000e+00,0.00000e+00,0.00000e+00,0.00000e+00,0.00000e+00,0.00000e+00,0.00000e+00,0.00000e+00,0.00000e+00,0.00000e+00,0.00000e+00,0.00000e+00,0.00000e+00,0.00000e+00,0.00000e+00,0.00000e+00,0.00000e+00,0.00000e+00,0.00000e+00,0.00000e+00,0.00000e+00,
-1.37939e-01,6.40235e-02,2.61242e-01,2.94385e-01,-2.59141e-01,-1.40005e-01,-2.91362e-01,2.93230e-01,2.14373e-02,5.19080e-02,8.48057e-02,-3.92367e-01,-1.44774e-01,-7.49889e-02,-5.11897e-02,1.30531e-01,2.64472e-01,-2.50281e-01,1.03032e-01,1.14631e-01,0.00000e+00,0.00000e+00,0.00000e+00,0.00000e+00,0.00000e+00,0.00000e+00,0.00000e+00,0.00000e+00,0.00000e+00,0.00000e+00,5.31334e-02,3.28344e-01,-1.16469e-01,-2.19396e-01,3.10331e-01,9.47410e-03,2.68898e-02,-4.29496e-02,-1.24469e-01,-1.66539e-01,0.00000e+00,0.00000e+00,0.00000e+00,0.00000e+00,0.00000e+00,0.00000e+00,0.00000e+00,0.00000e+00,0.00000e+00,0.00000e+00,0.00000e+00,0.00000e+00,0.00000e+00,0.00000e+00,0.00000e+00,0.00000e+00,0.00000e+00,0.00000e+00,0.00000e+00,0.00000e+00,0.00000e+00,0.00000e+00,0.00000e+00,0.00000e+00,0.00000e+00,0.00000e+00,0.00000e+00,0.00000e+00,0.00000e+00,0.00000e+00,
